//Numpy array shape [256]
//Min 0.000000000000
//Max 0.000000000000
//Number of zeros 256

#ifndef B12_H_
#define B12_H_

#ifndef __SYNTHESIS__
bias12_t b12[256];
#else
bias12_t b12[256] = {-0.0430723950, -0.0478973091, 0.0040636379, -0.0179391764, 0.0487054400, -0.0509952269, 0.0911081284, 0.0680107474, -0.0626273677, -0.1258262396, -0.0541265011, 0.0565626957, -0.1114188880, -0.0073005208, 0.0463675857, 0.0219911169, 0.0758097768, -0.0473395661, 0.0565314144, 0.0841985568, -0.0095241871, 0.0623623058, 0.0946743265, 0.1290247440, 0.1337638795, -0.1211407110, 0.0096787922, -0.0357758813, -0.0208330639, -0.0363293923, -0.0926077962, 0.0678588301, -0.1819239110, 0.0268406495, -0.1334193796, 0.0450129025, 0.1173791811, 0.1076508537, -0.1246985272, -0.0128603727, -0.0762767866, -0.1102258787, -0.0492624789, 0.0799889565, 0.0623724014, 0.0308285020, -0.0532078855, 0.0058587212, -0.0457994863, -0.1654706150, -0.0806355998, 0.0416492000, 0.0586170778, -0.0267544091, -0.0106641436, -0.0975004733, 0.0997339711, -0.0963834077, 0.0403451398, 0.0906671286, 0.0100444565, -0.1476954073, -0.0265810229, 0.1374302655, 0.0723989680, -0.0247491300, 0.0036210530, 0.1194991320, 0.0970938578, 0.0359108485, -0.1462568641, -0.0070048580, -0.0543962717, -0.0280246399, -0.0916827172, 0.1366558969, -0.1238169149, 0.0137602808, 0.0539355613, 0.0974087194, 0.0147871617, 0.0708428770, -0.1153069064, -0.0344263464, 0.0553934202, 0.0740318671, -0.0511793420, -0.0239626355, 0.0424776115, 0.0421694964, 0.0836622715, 0.0054784808, 0.0613447353, 0.0508128926, -0.1604450345, 0.0001025070, 0.0688167438, 0.0828046352, -0.1758354455, 0.1271300167, -0.0481135212, -0.0640983060, -0.1031280607, -0.0385767296, -0.0343691707, -0.1985553205, 0.0050682053, -0.1221545488, 0.0490816869, 0.0564779192, 0.0297275893, -0.1222750992, 0.0162979495, -0.0178414695, 0.0921640247, 0.0307121389, 0.0162130445, 0.0396069661, 0.0017261533, 0.0171705019, -0.0135603771, -0.1565403938, -0.0572387651, 0.1976627558, 0.0432870574, -0.0130737107, -0.1296239495, -0.0863473639, 0.1021194756, 0.0810442194, -0.0149825811, -0.0658315048, 0.0791780651, 0.0099746156, 0.1291208714, 0.0475583225, 0.0610640422, 0.1166136637, -0.0099999411, -0.0395385921, -0.0224095229, 0.2222192883, 0.1570957452, 0.0442972779, 0.0364103764, -0.1411314309, -0.0200610012, 0.0688125566, 0.0545706935, -0.0481896624, -0.0309266075, -0.0894519016, -0.0629080907, 0.1371420324, 0.0718058720, -0.0105423229, -0.0999271795, 0.1098805591, 0.0225464217, -0.0777857080, 0.0652526617, 0.1062505171, -0.0973516554, -0.0724915341, -0.1132636964, 0.0041480092, -0.2048292607, -0.0459609404, -0.1280113459, -0.0245968271, 0.0077109253, -0.0223605894, 0.0275271200, -0.0243465975, -0.0492480621, 0.0645954758, -0.0898434892, -0.0141132418, -0.1337895095, 0.0548552833, 0.0898161680, -0.0258186534, 0.1715923697, -0.0077220444, -0.0920928270, -0.0506858975, -0.1654983759, 0.0882075578, -0.0592962243, 0.0320464782, -0.0830065012, 0.0584400706, -0.0499207191, 0.1200300902, -0.0675040334, -0.0609216988, 0.0478530154, -0.1306138337, 0.1316019297, -0.0837727860, 0.0376223847, 0.0888459608, 0.0806202665, -0.1429003179, -0.0570773333, -0.0705635473, -0.0545834526, -0.0782679766, -0.0053491681, 0.0693703741, -0.0464830920, 0.0921514630, -0.0745211840, 0.0762022585, -0.0755014792, 0.0780566037, -0.2321625501, 0.0601592883, -0.1077205986, 0.1207898185, -0.0329267383, 0.0312707052, 0.0170155279, 0.0397208370, -0.0418463461, -0.1098710448, -0.0295424052, -0.0243829228, 0.1048326343, 0.0254025441, 0.0407221615, 0.0350422151, 0.0147649813, -0.0302213561, -0.0288838446, -0.0237183776, 0.0677902773, 0.0354926810, -0.0024175392, -0.0513106957, 0.0369139388, 0.1203337684, -0.0041251546, 0.1008953229, -0.0530212298, -0.0005239602, 0.0926419348, 0.0858191103, 0.0403671637, 0.0711271912, -0.1068731770, -0.1240013093, 0.3344132900, -0.0294542536, 0.0088295368, 0.0924685150};
#endif

#endif
