//Numpy array shape [256]
//Min -0.004542495124
//Max 0.002652091440
//Number of zeros 0

#ifndef B40_H_
#define B40_H_

#ifndef __SYNTHESIS__
model_default_t b40[256];
#else
model_default_t b40[256] = {-0.653373062611, 0.751368105412, 0.431474655867, 0.365099221468, -0.464579552412, -0.507231235504, 0.279226630926, -0.372615456581, -1.404876351357, 0.307361632586, 0.147537365556, 0.818551540375, 0.507814764977, -0.740881085396, 0.412312358618, -0.640723288059, -0.544344425201, 0.353324294090, 0.421739846468, -0.451467871666, -0.744169116020, -0.655614793301, -0.680248737335, 0.236595362425, 0.720318794250, -0.529542684555, 0.360065490007, -0.551839292049, -0.437204062939, -0.810496687889, 0.422282069921, 0.370218962431, 0.551755130291, -0.377600222826, 0.590794920921, 0.208012357354, 0.345897555351, 0.619803607464, -0.394773870707, 0.424052625895, -0.777861237526, 0.988719761372, 0.450596898794, 0.445106327534, 0.524411201477, -0.328683644533, 0.595075547695, -0.447172939777, -1.499899148941, -0.851039171219, -0.549700260162, 0.334244757891, 0.593035757542, -0.434701889753, -0.452271252871, -0.473703503609, -0.250568717718, -1.353470325470, -0.551045656204, -0.939913332462, 0.109287194908, 0.598673164845, 0.581837832928, 1.181250095367, 0.379572719336, 0.749046146870, 0.399451076984, -0.733319878578, -0.694967091084, -0.659565448761, -0.396085232496, -0.697404861450, 0.336869418621, -0.882533848286, -0.504310727119, -0.544757843018, 0.337750226259, 0.644524514675, 0.875009834766, -0.517571628094, 0.278110861778, -0.598881483078, -0.024549346417, 0.132825031877, -0.150683522224, -0.404624462128, 0.493874758482, -0.602788209915, 0.295121014118, 0.367409884930, -0.565256297588, -0.051990531385, -0.093958280981, -0.453707814217, -0.300104260445, 0.374239504337, 0.454390496016, 0.645543396473, 0.220631703734, 0.268160074949, -0.430475354195, 0.374106973410, -0.497730135918, 0.566435277462, -0.589151740074, 0.551737487316, 0.209165260196, -0.677158176899, -0.225198492408, -0.959645569324, -0.008826853707, 0.011819279753, 0.441465288401, 0.497346341610, -0.299827635288, -0.184430703521, 0.795998692513, 0.466908991337, 0.571062743664, 0.046551525593, 0.711796998978, -0.481632262468, -0.314716905355, -0.600342571735, 0.854547560215, 0.475884050131, -0.923143267632, 0.432739585638, 0.644113779068, -0.477173328400, -0.857029378414, 0.296605497599, 0.341829448938, 0.275176882744, -0.445608437061, -0.739227533340, 0.329489022493, -0.165315479040, 0.587996363640, 0.409704715014, -0.583961248398, 0.374187111855, -0.641134798527, 0.572499930859, 0.780891954899, 0.477489590645, -0.468805491924, -0.142405137420, 0.611674964428, -0.430631518364, -0.499405771494, 0.575647413731, 0.278343915939, -0.829047679901, -0.357342153788, 0.595789432526, -0.774078786373, -0.161030024290, 0.645672559738, -0.329667687416, -0.860562920570, 0.317119777203, -0.473750114441, 0.494282066822, 0.450174331665, -0.644464790821, -0.661071658134, -0.783470630646, 0.312096148729, 0.505396902561, -0.900765836239, 0.351336330175, -0.292492419481, -0.514475047588, 0.238243058324, 0.109084174037, 0.112555265427, -0.457555592060, 0.518007516861, -0.481244146824, 0.548509359360, -0.837894737720, -0.001617201488, -0.477929294109, 0.280005604029, 0.094875924289, 0.757482528687, 0.088771238923, 0.355213165283, 0.437967360020, -0.530123710632, -0.797232270241, -0.456697970629, 0.205368727446, -0.414788931608, 0.113371774554, 0.132230728865, 0.545950710773, 0.512028694153, 0.876678287983, 0.429593712091, -0.723713874817, 0.557249844074, 0.715185761452, 0.686399698257, 0.364664912224, -0.434058696032, 0.253301888704, 0.201930195093, 0.937589049339, -0.392918944359, 0.486554890871, 0.894536256790, 0.496177762747, 0.620430350304, 0.151314169168, 0.090653285384, 0.344159752131, -1.139225840569, -0.824984908104, -0.488545358181, -0.718459784985, -1.060312867165, 0.761320173740, -0.829778909683, 0.723125934601, 0.164897739887, -0.003343319055, -0.727790415287, -0.573707759380, 0.385762751102, -0.181335583329, -0.365386873484, -0.569533884525, -0.503340899944, -0.721131861210, -0.396345913410, -0.042780771852, -0.628859281540, 0.654088377953, -0.600731611252, 0.567038953304, 0.632254362106, 0.027841359377, -0.315463393927, -0.532841444016, 0.179356172681, -0.688184022903, -0.117713928223, 0.760120868683, -0.610419929028, 0.499546557665, 0.776085138321, -0.167068451643, -0.628898739815, 0.403313100338};
#endif

#endif
