//Numpy array shape [256]
//Min 0.000000000000
//Max 0.000000000000
//Number of zeros 256

#ifndef B45_H_
#define B45_H_

#ifndef __SYNTHESIS__
bias45_t b45[256];
#else
bias45_t b45[256] = {-0.479477107525, -1.559069156647, 2.253341197968, -0.929584503174, 2.681849956512, -3.381088733673, 7.053134918213, -0.624676764011, 0.923655867577, -0.757602393627, -1.530323624611, -0.265592157841, -0.406857907772, 1.138163328171, -0.640295565128, -0.041779875755, 2.205484151840, 0.197868928313, -1.264831304550, 0.718990683556, 4.598814010620, 4.038916110992, -0.234515860677, -0.348164647818, -0.405616730452, 5.980741024017, -0.899661064148, -0.509236752987, 3.075216293335, 4.593306541443, -0.825713157654, 3.036599636078, 1.523292064667, 1.410569429398, -1.408371210098, 0.249617993832, -0.927944183350, 3.458451271057, -1.104066252708, -1.746944189072, 2.120826721191, 1.382438898087, -2.001251697540, 0.598359823227, 5.130828380585, 2.692895889282, 3.329834938049, -2.907705783844, -1.543414115906, 1.917703151703, 0.406328707933, 1.370495200157, -1.937008261681, 0.988909840584, 1.213101983070, 4.229492664337, 0.063612446189, -0.895988941193, 2.400082588196, -1.040176391602, 0.217911735177, -2.388002395630, -0.170462369919, -3.832684516907, -0.630502164364, 2.257707118988, -1.162872672081, 0.152265846729, 5.618988037109, 0.612197995186, 3.974503993988, -0.238463491201, -2.215143442154, -1.597980499268, 1.122842550278, 0.224854037166, 1.066804409027, -0.454999506474, -0.412683248520, -0.956368923187, -2.308401823044, -0.140544280410, 1.855979919434, -0.257528901100, -0.642811715603, 1.270497322083, -0.214693844318, 0.109993040562, -0.837690830231, 2.560579776764, -0.309075564146, -0.385503023863, 0.490379571915, 1.893822669983, -1.614819407463, 1.899904131889, -1.055540919304, -0.520906269550, 0.301943540573, -0.446082681417, -0.100546121597, 0.603925526142, -0.933135509491, 0.307345718145, 4.781315326691, -0.074066191912, -0.747326493263, 0.956157803535, -1.864237070084, -1.031150221825, -0.166664823890, 5.191658496857, -0.889914155006, 0.519173920155, 0.118912287056, -1.098506093025, -0.255729675293, -1.013359427452, 3.769978046417, 3.392917156219, -2.328752040863, 2.274811029434, -0.235410839319, -0.716736674309, 1.242281317711, -1.553273916245, 0.863516211510, -1.027064085007, -0.354430913925, 2.754042863846, -0.600137591362, 2.183999300003, -1.108519315720, -0.795207381248, -2.278670549393, -3.145266532898, -1.586312770844, -0.636131942272, -0.567382156849, 2.776797533035, 0.403987109661, 1.657775163651, 2.849236965179, -0.978732883930, 11.135897636414, -1.397862434387, -0.435797095299, 1.812262654305, -0.793242692947, 1.182337403297, 2.694640636444, -0.903608024120, -3.480823040009, 2.583121776581, 0.521177411079, 0.653684675694, -1.065073251724, -1.118918538094, 2.210255622864, 0.453840553761, -0.907460391521, -0.598936378956, -0.775980949402, 0.604201495647, -0.964924991131, 0.307447552681, 2.319952011108, -0.194057494402, -0.344600081444, 9.637888908386, 0.138808920979, 2.531674385071, -2.191468954086, 0.327596843243, 0.016050606966, 0.332738816738, 0.319203704596, 0.842400074005, -1.535965919495, -0.779594779015, 0.409118294716, -0.443349480629, 1.591168880463, -1.786470651627, 0.116553604603, -1.616363644600, -2.182119846344, -0.148141145706, 2.084198713303, 0.014049902558, -0.916037797928, -1.005078196526, 0.654566645622, -1.069380044937, -0.545895993710, -0.120693430305, -0.812941431999, -0.363943338394, 0.711005210876, -0.663481235504, 1.746572613716, -1.005504131317, -1.826474666595, -1.039591550827, -0.617908120155, -1.390358567238, -0.201923653483, 1.994883775711, -1.973870873451, -2.207153558731, 1.609326362610, -0.387908190489, -0.153047144413, 0.903918385506, -0.578020095825, -1.619062542915, -0.723394811153, -3.422113180161, -0.596159994602, -1.082671284676, -1.957611560822, -0.834055006504, 0.703686237335, 2.782331466675, 0.609853267670, 1.475994586945, 1.001789212227, -0.225854903460, -1.328639268875, -0.776230692863, -0.965848982334, -2.543619155884, 1.434122681618, -0.295256972313, 0.344522297382, -0.880439698696, -1.581650018692, -0.860835433006, -0.729749619961, 0.091774150729, 3.228710651398, 0.403360158205, -0.272583097219, -0.178130358458, 3.295344114304, -0.000514023006, 0.013486146927, 4.114016532898, -0.158439174294, -0.780088305473, -1.126280784607, 1.318639755249, -0.113587118685, 1.850892543793, -0.246107220650, 0.926659107208};
#endif

#endif
