//Numpy array shape [256, 1]
//Min -0.163293346763
//Max 0.164354011416
//Number of zeros 0

#ifndef W16_H_
#define W16_H_

#ifndef __SYNTHESIS__
model_default_t w16[256];
#else
model_default_t w16[256] = {-0.0497048572, 0.0227481686, -0.1569593102, 0.1185605153, 0.0480876006, -0.0114603322, -0.1484369636, 0.1462898999, -0.1246447042, -0.0936609656, -0.0766696110, 0.0183822475, -0.0880190879, -0.0485788137, -0.0739590526, 0.1422830671, 0.1395728439, -0.0132002374, -0.0259733442, 0.0235267747, -0.0988707691, -0.1397089064, 0.0523909070, -0.1041141599, 0.0734980926, -0.1279979646, -0.1396953017, -0.1383569688, 0.0221137833, 0.1018930897, 0.1273805350, 0.0322141796, -0.0332631506, -0.0445107520, 0.1510013640, -0.0275742393, -0.1396488398, 0.1615090072, 0.0385518484, 0.0241813958, -0.1522426456, -0.0677321628, -0.1614484340, 0.0941452011, 0.0247930568, -0.1477376372, -0.1601474583, 0.0683012903, -0.1199993640, -0.0570010096, -0.0490825213, 0.0364263542, 0.0872690007, 0.0708264783, -0.0657909513, -0.1463645995, 0.1255480200, -0.1057428643, 0.1053808779, -0.0817849860, 0.0861560032, 0.0156848039, 0.0910210833, 0.1521040201, 0.1119259819, -0.0990149304, -0.1573692262, 0.1121646017, 0.0765801296, 0.1063022465, -0.0037132509, 0.0435408056, -0.0879694670, 0.1339442432, -0.1551051587, -0.0152407885, 0.1204748452, -0.1341747940, 0.0566013530, 0.1529337317, -0.0560835153, -0.1550781876, -0.1381520629, -0.1631384045, -0.0929256454, -0.1023175269, -0.1619468927, -0.1010358706, 0.1402041018, 0.1491218656, -0.0498314388, -0.0700772479, 0.1450432092, 0.0556239448, 0.0987296179, -0.0206532851, 0.1236171722, 0.0187503248, 0.1041992456, -0.0222152863, -0.0469930433, -0.1161219403, -0.0150744859, 0.1308690757, 0.1051066741, -0.0188157689, 0.1157281250, -0.1454322636, 0.0429193974, -0.0808308348, -0.1085116714, -0.0569734499, -0.0941201597, -0.1618626714, 0.0724093840, 0.1456434727, 0.0959588140, 0.1432788670, 0.1213965341, 0.1407071352, -0.1276151389, 0.0296685454, -0.1181364432, 0.0457438864, -0.0378196575, 0.0229343642, -0.0849631131, -0.1127909049, 0.0675970241, -0.0724338293, -0.0144624133, -0.1456125677, 0.0185674336, -0.0397573560, 0.1476821899, 0.1551490277, -0.1296778470, 0.0423949622, -0.0442531742, 0.1513885111, 0.0776029304, 0.1151011288, 0.1432650238, -0.1590697318, 0.0459965914, -0.1060308963, 0.1088617742, 0.0428484119, -0.1632933468, -0.1614996195, -0.0587588288, -0.0357496776, 0.1226596311, 0.0410026461, 0.0995553657, 0.1167815700, -0.1116686910, 0.1230129674, 0.1207919493, -0.1406810731, 0.0818055421, -0.1118898764, -0.0260887835, -0.0121518876, 0.0615483187, -0.1151770577, -0.0529863015, 0.0672967359, 0.0597117059, 0.1251881123, -0.1617828757, 0.0206098836, 0.1404511482, 0.0176615193, -0.1421851665, -0.1602011025, 0.0206988975, 0.0123201339, -0.0784537941, -0.0126391789, 0.0351673886, -0.1361251175, 0.0785508901, 0.1613459438, -0.1266695857, -0.0507362261, -0.0842233896, 0.0049201595, -0.0183122084, 0.1640960425, -0.0895451009, 0.0921496525, -0.1160806343, 0.0664707720, -0.0605437942, -0.0656812787, -0.0740259290, -0.1188033670, 0.1358329654, 0.0117238648, 0.0269413143, -0.0395334847, 0.0279387124, 0.0567500927, -0.0736614168, -0.1241396815, 0.0093582217, -0.0787844211, -0.1239432022, 0.0590055361, -0.1093232334, 0.0272798110, 0.1541769058, -0.1267823577, 0.0629573911, -0.0169494525, -0.0628203154, 0.0516850092, 0.0362207890, 0.1407571435, 0.1355785429, 0.1620759070, -0.1026861221, 0.1315204650, -0.1590108722, 0.0658972487, 0.1200790778, -0.1463752389, -0.0189225636, -0.0881427974, 0.1486846954, 0.0447928272, -0.0730522797, 0.1604195535, -0.0602987409, 0.0923149809, 0.1476167887, 0.1230394021, -0.0747321695, -0.0626217276, 0.1643540114, 0.0366226956, 0.0202311520, -0.1228469387, 0.0220115762, -0.1131279469, 0.1054906398, -0.0848920569, -0.0879177675, 0.0649124905, -0.1566409916, -0.1474053264, 0.0246560443, -0.1364489049, 0.1449142992, 0.1008242965};
#endif

#endif
