//Numpy array shape [3, 3, 32, 64]
//Min -0.336065590382
//Max 0.324974477291
//Number of zeros 0

#ifndef W18_H_
#define W18_H_

#ifndef __SYNTHESIS__
model_default_t w18[18432];
#else
model_default_t w18[18432] = {0.031248837709, 0.065204627812, -0.003227639245, 0.045655373484, 0.023434557021, 0.005118740723, 0.050347473472, 0.020809380338, -0.000319373328, -0.041040010750, -0.070198163390, -0.015561579727, -0.084604695439, -0.086733549833, -0.040566246957, 0.134045794606, 0.026462653652, -0.098678119481, -0.011389663443, -0.105693340302, 0.108552791178, 0.086805604398, 0.097555801272, 0.042758166790, 0.126039192080, 0.060381721705, -0.040024906397, -0.202697575092, 0.009349533357, 0.010281826369, -0.134666860104, 0.060681007802, -0.020204998553, 0.082023069263, 0.038784153759, 0.131732344627, -0.009706487879, -0.056231450289, -0.002867026720, -0.026783866808, -0.030115162954, -0.021701036021, -0.102016657591, -0.025665637106, -0.033894166350, -0.084231659770, 0.030123842880, 0.068185031414, -0.040541864932, -0.082747451961, -0.002450186526, -0.010384843685, 0.012126050889, 0.024228090420, -0.005475293845, -0.016309907660, -0.008677666076, 0.095659531653, 0.013964614831, -0.146128937602, 0.112079083920, 0.111530698836, -0.177851051092, -0.011682626791, 0.032867666334, 0.066146932542, -0.123942516744, 0.096716821194, -0.067963145673, -0.027988675982, -0.096499890089, -0.069580040872, -0.081440523267, -0.148856401443, -0.105571269989, 0.057403832674, 0.035564593971, -0.030219540000, 0.042813833803, -0.049028329551, -0.042569220066, -0.073116369545, 0.031772699207, 0.113467954099, 0.053663998842, -0.038017489016, -0.017077855766, -0.022340726107, 0.049314334989, 0.035748261958, 0.073553390801, -0.099679447711, 0.052374329418, 0.015518845059, -0.173929199576, 0.047717679292, 0.072134532034, 0.101924106479, 0.020504346117, -0.002496213652, -0.010316500440, 0.010448531248, -0.174583300948, -0.034555189312, 0.021992472932, -0.054251816124, -0.049722913653, 0.125637412071, -0.028533389792, -0.037000447512, -0.027571609244, 0.000229026962, -0.010047268122, -0.061593916267, -0.106302946806, -0.020326791331, -0.013623701409, 0.052127003670, -0.013564565219, -0.121469877660, -0.027964852750, 0.029580680653, 0.026903588325, -0.081439651549, -0.151319995522, -0.095402069390, -0.030693423003, -0.098688699305, 0.015152662061, 0.104210898280, -0.011663167737, 0.061184853315, 0.048814337701, 0.048952151090, -0.000707400555, -0.108051039279, 0.025639694184, -0.055043231696, -0.034065570682, 0.113927647471, 0.013188268058, 0.079162418842, -0.046862669289, 0.105544500053, -0.026295138523, 0.011024313048, 0.007653219160, 0.047822806984, -0.026860088110, 0.041659358889, 0.047705404460, 0.056999012828, 0.096457950771, -0.074818864465, 0.019497895613, 0.001288149739, 0.031639959663, -0.057226199657, -0.001143030822, -0.094237647951, 0.003901338670, 0.105117104948, -0.133844211698, -0.183797329664, 0.057411223650, 0.056288231164, -0.201843068004, -0.078114159405, -0.037300828844, 0.134286627173, -0.023730387911, -0.019894327968, 0.014261115342, -0.063094615936, 0.054533775896, -0.027915917337, 0.008950904943, -0.034439656883, 0.021979745477, -0.006486117840, 0.019698362797, -0.148686856031, -0.016137428582, -0.041935879737, 0.002295563463, -0.071315884590, -0.010730409063, 0.031802821904, -0.022767776623, -0.061692073941, 0.112663649023, -0.013061688282, 0.060289584100, 0.012108960189, 0.086448341608, 0.046606510878, 0.042424995452, 0.041592229158, -0.042765278369, 0.006427807733, -0.068244554102, -0.102193109691, 0.115052714944, 0.077740199864, 0.062696561217, 0.006608625408, -0.146335840225, -0.019984584302, -0.055149622262, 0.014481688850, 0.004315905739, 0.094294749200, 0.020721694455, 0.033449012786, -0.066975720227, -0.014463974163, 0.156971663237, 0.050710033625, -0.057804152369, 0.032047584653, -0.088007427752, -0.051251452416, -0.012623869814, -0.054345332086, -0.030638225377, 0.011603256688, -0.030569776893, 0.203542083502, -0.053781349212, 0.002911857096, -0.152860954404, -0.087494365871, -0.067462481558, -0.115306884050, 0.072093054652, 0.031040064991, 0.002696001204, 0.047175832093, 0.108619093895, -0.014472954907, 0.028057612479, 0.079668231308, 0.010393474251, 0.038045983762, 0.020392358303, -0.058943629265, 0.021767728031, -0.004097074270, -0.046187222004, -0.033179752529, 0.058506432921, 0.094324618578, -0.096327893436, -0.000612300530, 0.078340411186, -0.057698316872, 0.079021416605, 0.001480892883, -0.042987089604, -0.072075054049, -0.026745013893, 0.048779308796, -0.063139125705, -0.065493918955, -0.053383816034, -0.025966001675, 0.004967082758, -0.000387825945, 0.103989765048, 0.072204113007, -0.032723579556, 0.044064976275, -0.054823216051, -0.028408987448, -0.022030251101, -0.052536472678, 0.031847517937, -0.098392546177, -0.010719681159, 0.226916879416, 0.030080785975, 0.107083499432, 0.024789052084, 0.096214815974, -0.071428120136, -0.014184578322, 0.046442035586, 0.002547140932, 0.006885388866, -0.000090716894, 0.004793177824, 0.005714616273, 0.014701552689, -0.030502678826, -0.035406738520, -0.015125908889, 0.008999573067, 0.000414148904, -0.008652635850, -0.034735277295, 0.003622244811, 0.016497835517, -0.016942251474, -0.010315945372, -0.018615202978, -0.003251237562, -0.002964535495, -0.009994503111, 0.008931228891, -0.015270822681, 0.002062771004, -0.002269424498, -0.004610324278, 0.010055218823, 0.012677322142, 0.000775968248, 0.012381462380, -0.027850229293, -0.015445319936, -0.006345543079, 0.013528100215, 0.013344898820, 0.000411934801, 0.006640864536, -0.007603364997, -0.019040143117, -0.029862672091, -0.018370265141, 0.004699192476, 0.002395285293, 0.012024729513, 0.022900030017, 0.007590283174, 0.024181192741, -0.022367320955, 0.000309902476, -0.000362832652, -0.012259158306, -0.018287194893, 0.010290763341, -0.000282144349, -0.006496969145, 0.002046407433, -0.001712659840, -0.024101575837, 0.016187217087, 0.019957443699, 0.009246014059, -0.019676975906, -0.010052463971, 0.005613695830, 0.005165750626, 0.011898028664, 0.024956129491, 0.018057720736, -0.011329512112, -0.010464510880, -0.021229982376, -0.047718033195, -0.033445015550, -0.000153241650, -0.006641577464, 0.030705695972, -0.008957242593, 0.008713959716, 0.021943882108, -0.021074092016, -0.016428111121, -0.005994879175, -0.004356055986, -0.001480132225, 0.005016769283, -0.001851790235, -0.019595583901, 0.009586795233, -0.004430692177, -0.039849992841, 0.017814828083, 0.024523317814, -0.018661363050, 0.001087688492, -0.038647688925, -0.001114392653, -0.008858652785, 0.017403198406, 0.017070449889, 0.022968800738, 0.011280411854, 0.002291410696, -0.020776374266, -0.049917180091, -0.010615308769, 0.004095192067, 0.010298419744, 0.001818427234, -0.014340401627, -0.013368149288, 0.024345541373, -0.012256474234, -0.024175204337, -0.031688753515, 0.015650024638, -0.011320247315, -0.007616889197, -0.004066321999, 0.013498162851, 0.006741032470, -0.005047980696, 0.002119909041, 0.015415580012, -0.013535675593, -0.000461217453, 0.008627078496, -0.029423212633, -0.009054796770, -0.016467673704, 0.015147319064, -0.005198333412, 0.015327261761, 0.006563479546, -0.007788247429, -0.022806698456, -0.023935047910, -0.009313909337, 0.000613609795, 0.016429482028, 0.020384974778, -0.010579677299, 0.009766739793, 0.017983729020, -0.009890024550, -0.009777189232, 0.005482307635, 0.009307799861, -0.008895779960, -0.016635030508, 0.006351451389, 0.005219065584, 0.000775168941, 0.014083775692, -0.011525049806, 0.005413531326, -0.003321541473, 0.000386925793, -0.001169416588, -0.020948585123, 0.008574257605, -0.017873195931, 0.001955332002, -0.006918283645, 0.023117849603, -0.002828004071, -0.011381441727, -0.008399622515, -0.012863864191, -0.028538905084, -0.016596708447, 0.003673415631, -0.002259547124, -0.028996016830, 0.005739918910, 0.014685808681, -0.026324063540, -0.004039662890, -0.016400182620, 0.008744769730, -0.004901307635, 0.002473890781, -0.005116508342, 0.005614622962, 0.011687941849, -0.004558955785, -0.010857995600, 0.010670274496, 0.010408802889, 0.000833377650, -0.011625440791, -0.008223455399, -0.003533405950, 0.000004721917, 0.024265298620, 0.018203923479, 0.012476643547, -0.008087541908, -0.005178723019, -0.025350121781, -0.017076207325, -0.024153824896, 0.002423938364, 0.001287662541, 0.011306785047, -0.002254901687, 0.005820749793, 0.021414022893, -0.025230774656, -0.005663562566, -0.026751639321, 0.004533464089, 0.010747708380, -0.041169352829, 0.005424395204, 0.000425198174, 0.011964871548, 0.007698507980, -0.032720874995, 0.049881022424, -0.000567410374, -0.017024608329, 0.003230464878, 0.000534281193, -0.008706299588, -0.043089810759, 0.023050405085, 0.004008464981, 0.003474292345, -0.004354884382, 0.021430768073, -0.006191285793, -0.031394585967, -0.032506220043, -0.006816529669, 0.003397905268, 0.003712543985, -0.009038835764, 0.002490220126, 0.014555258676, -0.005035168026, -0.008559846319, -0.022037930787, -0.006028207485, 0.004204093944, -0.003653516062, 0.000006772800, -0.002110627713, -0.012587572448, -0.006933121476, -0.013775425963, 0.007609674241, 0.007508571725, -0.000597557984, 0.011295073666, -0.014844059944, 0.002185223857, -0.030811926350, 0.008266284131, 0.024365413934, -0.007085578982, -0.017203172669, -0.003262287239, -0.006898322608, -0.018545482308, -0.031139826402, -0.009712953120, 0.008482661098, -0.000867216673, -0.010992967524, 0.006896710023, 0.006254868582, 0.019647061825, -0.008222923614, 0.003081965027, 0.008559834212, 0.018908845261, -0.009298100136, 0.002903128974, -0.006472567562, 0.002879204461, -0.010368206538, -0.004878436215, -0.003515866352, 0.000586501439, 0.003780861618, -0.008817154914, -0.013555236161, -0.006091911811, 0.005601199344, 0.000002132539, 0.060274720192, 0.004121900070, -0.009765950963, -0.000970892608, -0.036052308977, -0.055642075837, -0.044180911034, -0.004397185519, -0.024799099192, -0.021517163143, 0.013967080042, -0.005552192219, -0.032196056098, -0.007033158559, -0.034102879465, -0.008539447561, -0.004635598045, -0.020036077127, -0.044213932008, -0.007011728827, -0.023824810982, -0.024570047855, -0.000096472235, -0.028220430017, -0.009600417688, -0.010979889892, -0.099848598242, 0.025950090960, -0.074639715254, -0.020757105201, -0.038513373584, -0.002931892639, 0.081301078200, 0.005923995748, 0.024916339666, 0.071644403040, -0.016424048692, 0.005882482976, -0.014647549950, -0.021785961464, -0.062918901443, -0.019474722445, -0.039331946522, -0.017719153315, 0.005812633317, -0.051605563611, -0.005804816727, -0.054743383080, -0.021216547117, -0.009140253067, 0.000510552025, 0.027948999777, 0.030305014923, 0.016891039908, 0.002267087344, -0.028913399205, 0.010864756070, 0.029443349689, -0.039996907115, -0.024237038568, 0.052581835538, -0.035714101046, -0.024367546663, 0.000895422651, 0.037103198469, 0.011518663727, 0.006217864808, 0.053616531193, -0.075130507350, 0.000327877497, 0.006042950321, 0.005947170313, -0.049846600741, 0.024149080738, -0.002103884006, 0.044121898711, -0.000985538005, -0.043194353580, 0.005110856146, -0.025020124391, 0.002569463337, -0.009095336311, -0.027151826769, -0.017049605027, -0.041137356311, -0.012392978184, 0.053141441196, -0.009119647555, 0.029233211651, -0.055403117090, -0.058348968625, 0.014486103319, -0.049333684146, -0.081814557314, 0.009150814265, 0.017035884783, 0.014782032929, -0.025033796206, 0.008689926006, -0.007851135917, -0.020439783111, -0.086244717240, -0.064057976007, -0.018278507516, -0.022216670215, -0.012815503404, 0.020373944193, 0.051702227443, 0.008083525114, 0.017138583586, -0.032585468143, -0.008917389438, 0.034929815680, -0.027547026053, -0.032013058662, 0.002695253817, -0.003779335413, -0.033673901111, -0.023764939979, -0.016609435901, 0.006273142993, -0.047766551375, 0.000053373940, -0.040171746165, -0.023881366476, 0.008410786279, -0.012319794856, 0.053478881717, -0.007122540846, -0.029421569780, -0.014099187218, 0.101876653731, -0.035060096532, -0.028196629137, -0.047841947526, 0.012788170949, -0.084823973477, 0.026534745470, 0.023275513202, 0.018757089972, 0.000641993131, -0.004391016904, -0.045294143260, -0.034412015229, 0.030876064673, -0.018899518996, 0.045489393175, -0.000780986506, -0.021588021889, -0.016009515151, -0.060796570033, -0.002349663060, 0.028599258512, 0.005110478960, -0.050526723266, 0.002856796840, 0.004525154363, 0.001832821756, -0.037290450186, 0.041140057147, 0.024625357240, 0.019950821996, -0.046898595989, 0.002254433930, -0.072704330087, -0.046384576708, -0.030328804627, -0.021041825414, -0.069923050702, -0.059353802353, -0.019590608776, 0.063236586750, -0.020203774795, 0.046422019601, 0.042797744274, -0.031523264945, -0.012447901070, -0.006943758111, -0.062801025808, 0.002612464828, -0.033182211220, 0.037294641137, -0.050401393324, -0.012350292876, 0.078918717802, -0.024235082790, -0.029509941116, -0.035796791315, -0.006118324585, -0.004042763729, -0.000021445887, 0.025061594322, 0.000524740142, -0.036390319467, 0.002781560179, -0.008739998564, 0.001492241747, 0.032548572868, -0.025029689074, -0.024576732889, -0.043566104025, 0.019310720265, 0.023404972628, 0.076697103679, 0.044702325016, -0.011521052569, 0.009276137687, 0.010172276758, 0.027916887775, -0.031151833013, -0.032919012010, -0.010618840344, -0.021327581257, 0.031009729952, -0.027802765369, -0.020175708458, -0.004795208108, 0.018690688536, 0.071737296879, -0.039474517107, -0.017394017428, -0.032286800444, 0.005019434262, 0.017742682248, -0.007069319952, 0.036782156676, -0.014849524945, -0.017342409119, 0.008210970089, -0.050303556025, -0.077144958079, -0.040309991688, 0.010499614291, 0.008594326675, 0.007254474331, 0.011456240900, 0.006901383866, -0.023031633347, -0.028360757977, -0.025585407391, -0.009669381194, 0.006171207875, 0.010680962354, 0.023944308981, -0.011973541230, -0.001160030719, -0.085820004344, -0.040297292173, -0.007582904771, -0.043368272483, -0.024013359100, -0.005007195752, -0.036118555814, -0.017061535269, 0.023032661527, 0.003368915757, 0.018917202950, -0.009896475822, 0.048172283918, 0.079966545105, -0.013318262063, -0.006613484118, -0.045281626284, -0.012287674472, 0.023211332038, -0.015730822459, -0.043049667031, -0.019498663023, 0.020079310983, -0.018918661401, -0.023967415094, -0.024823792279, 0.018064200878, -0.003292230191, -0.037078723311, 0.060402270406, -0.007059114520, 0.012755748816, -0.026454987004, -0.040971864015, 0.018600502983, 0.039899751544, 0.025546194986, 0.042797878385, -0.008668503724, 0.009608479217, -0.005952957086, 0.072976179421, -0.065134048462, -0.021419072524, 0.048304926604, -0.098218515515, -0.041037593037, -0.006698125508, 0.064317293465, -0.031214255840, -0.064849764109, -0.092382259667, -0.013948417269, 0.002065049252, -0.045149341226, 0.093193285167, -0.015614608303, 0.094593994319, -0.069274701178, 0.087070390582, -0.144765257835, 0.038597974926, -0.006298196502, 0.054442185909, -0.121362656355, 0.081960909069, 0.071655727923, 0.044975411147, 0.070284530520, -0.005558227655, 0.032916050404, 0.061075810343, 0.126703381538, 0.006504336372, -0.090280853212, 0.021101783961, 0.157384663820, -0.025335414335, 0.034611843526, 0.008713474497, -0.020618245006, -0.038616381586, 0.021242454648, -0.007218024228, -0.001007982763, -0.029491573572, -0.052954714745, 0.057017061859, -0.021920876577, -0.003327860031, 0.038205079734, 0.097548350692, -0.001618611976, 0.073094300926, 0.005022558384, 0.010054697283, -0.008722206578, 0.037475548685, -0.000885574729, 0.080311797559, -0.066490963101, -0.022567553446, 0.088371396065, -0.002608367242, -0.007951923646, 0.035712040961, -0.148338332772, -0.032012656331, 0.036269169301, 0.034563850611, -0.008941114880, 0.034145917743, -0.047961857170, 0.013557266444, -0.111862175167, 0.015125164762, -0.044731434435, -0.025547288358, 0.015711244196, 0.077017076313, 0.023062529042, -0.025504784659, 0.023814212531, -0.002151174471, 0.022220551968, 0.014410457574, -0.048804584891, 0.063178271055, -0.023931460455, 0.038631334901, 0.013135603629, 0.025541551411, 0.024799799547, -0.189838305116, -0.104900263250, -0.131055966020, 0.044871337712, -0.012218677439, -0.021155826747, -0.036247026175, 0.049769368023, -0.101456649601, -0.035028744489, 0.007351223379, 0.003444985719, 0.068568244576, 0.035493981093, -0.029084548354, 0.071400232613, 0.001884378493, -0.009543328546, -0.002670328598, -0.107232704759, -0.012059236877, 0.003308186540, 0.049981959164, -0.107915744185, -0.005895794835, 0.077900029719, -0.021186754107, 0.086962588131, 0.036272432655, -0.051268797368, 0.016425810754, -0.127213403583, 0.094201959670, -0.014440394938, -0.031610399485, -0.022994149476, 0.034919910133, -0.033798240125, -0.128894478083, -0.072676397860, -0.191706076264, 0.126155704260, -0.019660728052, 0.062137510628, -0.025618296117, -0.018333250657, -0.075925298035, 0.016698563471, -0.068329557776, -0.078295849264, 0.076617747545, 0.039656888694, -0.070780374110, -0.086207114160, -0.028368728235, 0.010165095329, -0.064429357648, 0.102650657296, 0.050536427647, 0.081488236785, 0.043845035136, -0.074693582952, 0.008339704946, 0.002865648596, 0.083834260702, 0.007154486608, -0.039756700397, -0.084375627339, -0.029835246503, -0.024566402659, -0.039406549186, 0.000609620940, 0.102136060596, -0.025547746569, 0.121610090137, -0.057548608631, -0.024779081345, -0.012291275896, 0.030722444877, 0.077964536846, -0.053358357400, -0.150140136480, -0.034746367484, -0.027238385752, -0.182316794991, -0.007921280339, -0.022538803518, 0.000262598332, -0.034526795149, 0.018512098119, -0.030414365232, 0.074758119881, 0.006566508207, 0.050286158919, 0.009932428598, -0.004868075717, 0.041703052819, 0.021238628775, -0.079286761582, -0.026619223878, 0.102671243250, 0.054063282907, 0.021492712200, 0.035680610687, -0.031970001757, -0.017564257607, -0.091939993203, -0.035157434642, -0.068436302245, 0.048652276397, 0.016328725964, -0.087424650788, -0.007978161797, 0.040776729584, -0.036844678223, 0.022232215852, -0.056255906820, -0.003366667312, 0.011500933208, 0.000839316170, -0.124873846769, 0.018398346379, 0.093749240041, 0.010697244667, -0.083191365004, 0.036692101508, -0.132589370012, -0.004821287934, 0.076787590981, 0.109426438808, -0.022532533854, -0.123371638358, 0.039861269295, 0.079337768257, -0.050287276506, -0.018071865663, -0.023898100480, -0.009779363871, -0.019045528024, -0.110233269632, -0.020979333669, -0.026915043592, 0.126718968153, 0.019513001665, -0.004421216901, -0.026816230267, -0.061574142426, 0.006171693560, -0.063442714512, -0.059562150389, -0.023614035919, -0.028661321849, -0.049912795424, 0.089703671634, 0.114494390786, -0.000528491684, -0.036673266441, 0.013186995871, -0.058169588447, 0.044715978205, 0.142936870456, 0.061121445149, 0.033297061920, -0.031597495079, 0.063285060227, 0.096738606691, 0.015168465674, 0.069065749645, 0.098804302514, -0.074562847614, -0.042276237160, -0.007845268585, 0.006642360240, -0.002263708506, -0.054059207439, 0.051303092390, -0.022610971704, 0.034826651216, -0.046739693731, 0.052694961429, -0.048481054604, 0.052869249135, 0.025818360969, 0.004100926686, 0.013176728040, -0.035498134792, 0.058989915997, 0.088046774268, -0.015489940532, -0.004471207969, -0.039922066033, 0.004851037171, -0.022931098938, -0.022853868082, 0.102610945702, -0.033087395132, 0.022792099044, 0.013107982464, -0.037443421781, 0.000555050327, 0.001467778930, 0.038353644311, 0.014321027324, -0.003380974522, -0.097222030163, 0.011943347752, -0.054894454777, 0.055182006210, -0.024666545913, -0.007087309845, 0.046703178436, -0.042107317597, 0.065900281072, 0.042540676892, -0.003122741124, 0.138315320015, 0.002289409516, 0.023410750553, -0.012253151275, 0.007450013421, 0.050989776850, -0.033446457237, -0.057230148464, 0.007678979076, 0.050218529999, 0.069890446961, 0.019299007952, 0.038972936571, -0.054398931563, 0.036789160222, -0.036142453551, -0.065434008837, 0.007533512078, 0.007934758440, -0.004243792966, -0.043728966266, 0.038710791618, -0.025320071727, -0.047874536365, 0.070399887860, -0.071633078158, -0.014806486666, 0.016366168857, 0.005964179058, 0.032637916505, 0.071869201958, 0.020496049896, 0.032650802284, 0.012512930669, 0.042890567333, -0.038570895791, -0.077362112701, -0.004746161867, -0.025089381263, 0.039069339633, 0.036206267774, 0.041933991015, -0.008017193526, 0.037661477923, 0.087446615100, -0.016989702359, 0.001024516067, -0.009484876879, -0.039470396936, -0.003422363661, 0.066675841808, -0.020454112440, 0.019806774333, 0.027223167941, 0.022492328659, 0.020279197022, 0.031665693969, -0.022768484429, 0.013770575635, 0.007043288555, -0.031290885061, -0.001653363346, 0.059025224298, 0.044858794659, 0.039945464581, 0.024693591520, 0.004670304712, 0.048258081079, 0.031376406550, 0.012159918435, 0.039386276156, -0.042289830744, 0.025067450479, 0.068482607603, 0.023305021226, 0.001409087330, 0.010782072321, -0.035987589508, -0.040325377136, 0.041688527912, -0.007097704336, -0.000622956315, -0.031888633966, -0.033205509186, -0.043515671045, -0.068185888231, 0.024074889719, -0.026052694768, 0.003638561117, -0.047346092761, -0.038099013269, -0.004134346731, 0.004049919080, -0.042987082154, 0.035267483443, -0.059927061200, -0.013469435275, -0.018045630306, -0.010505076498, 0.051059644669, 0.012124584056, -0.070348121226, -0.006787049118, -0.013012307696, 0.038731865585, 0.001679764711, -0.015361174941, 0.051357004791, 0.082746207714, -0.036366447806, -0.011085459962, 0.015195892192, 0.003386767348, 0.008622593246, 0.031252495944, -0.030310839415, 0.008677289821, 0.058840159327, -0.014075749554, -0.016702791676, -0.045189443976, 0.034393317997, -0.007521828637, -0.002023110632, -0.028552081436, 0.032921981066, 0.034605965018, 0.048524931073, 0.037772305310, -0.028918160126, -0.071256607771, -0.004713774193, -0.040953192860, 0.008994291537, 0.006838388741, -0.000621234998, 0.059565808624, -0.074619717896, -0.001419654698, -0.016815081239, 0.006641800050, -0.001637935173, -0.022957872599, -0.007695024833, -0.069076836109, 0.017261734232, -0.011841971427, 0.006181954406, -0.023082604632, 0.016071729362, 0.038600713015, 0.001470578834, -0.006330932025, -0.015517552383, -0.023000657558, 0.083275534213, -0.055220756680, -0.034852989018, -0.031733341515, -0.055711343884, 0.007759717293, -0.010857583024, -0.055824227631, 0.010175281204, -0.027015361935, 0.028313703835, -0.012004001997, 0.033004134893, 0.024473389611, 0.007080428768, 0.017771208659, 0.056912042201, 0.027861572802, 0.021844333038, -0.007574750576, 0.057450260967, -0.007380939554, -0.043147847056, -0.018569540232, 0.020152445883, -0.032279510051, 0.014791832305, 0.023056136444, -0.013906282373, -0.001911629690, -0.029861679301, -0.017885619774, 0.075595460832, -0.018126035109, -0.023164065555, 0.043851375580, 0.021237626672, 0.027798963711, 0.043110016733, -0.041159115732, -0.041654299945, -0.066070504487, 0.036530021578, 0.071369022131, 0.106140986085, -0.004297093023, -0.031496588141, -0.003949980251, 0.086913682520, 0.024423480034, -0.003697057255, 0.030981946737, -0.009225350805, -0.006416124292, 0.011016972363, 0.034969452769, 0.055952824652, -0.005731350277, 0.016665821895, -0.031043997034, -0.015139014460, -0.010945089161, -0.029569864273, 0.015113675967, 0.080267861485, 0.013797686435, -0.001447660499, 0.037437893450, 0.015944281593, 0.010952936485, 0.019333923236, 0.033941756934, -0.030856696889, -0.077650249004, 0.040160544217, 0.000909627590, 0.000511511404, -0.007887450047, -0.035601746291, 0.013739626855, 0.036294821650, 0.021864397451, -0.040990751237, 0.002153670415, -0.029847193509, -0.068663373590, 0.004707817454, -0.017520919442, 0.018884329125, -0.009455204941, 0.046603806317, 0.002516384237, -0.005645415746, 0.046308778226, -0.061785522848, -0.001722694724, 0.054221678525, -0.027794215828, 0.023268628865, -0.018897030503, -0.024521496147, -0.021375389770, 0.024120086804, 0.024254895747, -0.056172899902, -0.032331839204, 0.008649801835, -0.036209393293, -0.002592336852, -0.033468645066, 0.050131697208, 0.021929791197, 0.009538740851, -0.015046571381, -0.054056659341, -0.005975554232, -0.017687052488, -0.020291082561, -0.042319830507, 0.019248219207, -0.020807376131, 0.021717302501, -0.007898574695, -0.003572486108, -0.002811083337, -0.044101547450, -0.104758374393, 0.045512698591, -0.007001595572, 0.018301205710, -0.002130124252, -0.009617003612, 0.025984726846, 0.040440432727, 0.054868694395, 0.036410905421, -0.021937256679, 0.003692369908, -0.015458109789, 0.013498719782, 0.038416832685, 0.044557712972, -0.028674749658, -0.017723096535, 0.057760555297, 0.056236431003, 0.028807608411, 0.006072308403, 0.025287441909, -0.015487496741, -0.019016742706, 0.036102507263, -0.049303863198, -0.049660727382, 0.048054542392, 0.022351827472, 0.052959784865, 0.005300982390, -0.018952582031, 0.067738354206, 0.021210569888, -0.066705904901, 0.032968863845, -0.049634214491, -0.022792957723, 0.028061116114, 0.127293094993, -0.032751735300, 0.051387995481, 0.115607485175, 0.064841188490, -0.011944347993, -0.008526768535, 0.059551216662, 0.049137186259, -0.036693412811, 0.045683499426, 0.005375276320, -0.008026111871, 0.042629599571, 0.029307952151, -0.088850513101, 0.025554258376, -0.008789090440, -0.009638033807, -0.033665537834, -0.050311870873, 0.006481682882, 0.004211770836, 0.010785373859, -0.031821444631, -0.138267681003, 0.004922248889, -0.021456491202, 0.010007198900, 0.044887848198, 0.017885843292, 0.076220169663, 0.016138318926, -0.003923177719, 0.033728811890, 0.086170472205, -0.011796656065, 0.073396079242, -0.056146290153, -0.024020742625, 0.007914360613, -0.015461974777, -0.012877902016, -0.037052001804, -0.037379257381, 0.050921332091, -0.046524990350, -0.015719965100, 0.049179323018, -0.070209734142, 0.014141476713, -0.018452735618, -0.000810250582, 0.009340393357, 0.049886085093, -0.138702899218, -0.055536508560, -0.079215191305, -0.017025643960, -0.024670615792, -0.016947954893, -0.030179314315, -0.050656143576, -0.068199872971, 0.125884711742, -0.105347521603, -0.103628158569, -0.095081098378, 0.060469690710, -0.030508652329, 0.032699238509, 0.003681093222, -0.020319607109, -0.050010595471, 0.002518403810, 0.121465526521, 0.006893242709, 0.001600769814, -0.077373519540, -0.021684320644, -0.023407429457, 0.081856466830, -0.037561740726, -0.069644406438, 0.076194286346, -0.063319280744, 0.060677595437, -0.005513871089, 0.050979129970, -0.026496108621, 0.047853689641, 0.061997473240, -0.088179111481, -0.112048633397, -0.020771387964, 0.043869193643, 0.102064214647, 0.018356775865, 0.049433708191, 0.077318370342, 0.059578191489, 0.021534644067, 0.016702501103, -0.003343248507, 0.013816945255, 0.022907914594, 0.066997446120, -0.003324348480, 0.018541805446, 0.012297390029, 0.053647533059, -0.032692823559, -0.044082719833, -0.069061614573, -0.099124021828, -0.023923231289, 0.049996737391, -0.003665753640, 0.075505673885, 0.048371002078, 0.026019856334, 0.066718444228, -0.014310452156, -0.015927663073, -0.031048022211, 0.054655812681, -0.088533364236, 0.063854061067, 0.063077375293, -0.067954897881, 0.018494689837, -0.012822240591, -0.063240639865, 0.026274811476, -0.015045801178, -0.024424232543, -0.009195028804, -0.074523210526, 0.049676768482, -0.058338314295, 0.008677196689, -0.063003480434, -0.058888874948, -0.020830757916, 0.062687978148, 0.032942365855, -0.015243895352, -0.085825040936, 0.006902207620, 0.062241423875, 0.088243111968, 0.031014274806, 0.024809194729, -0.061249103397, 0.065947741270, 0.089086398482, -0.010155330412, 0.003169216216, 0.059917978942, -0.128325656056, 0.078871026635, -0.002285663038, -0.023936843500, -0.080877594650, -0.008270864375, -0.056627884507, -0.011185183190, 0.010688522831, -0.154425099492, -0.053293589503, -0.003568879561, 0.010670963675, 0.011816903017, -0.031647007912, -0.044356361032, -0.031426902860, 0.007531539537, 0.060648348182, -0.046626776457, -0.074544891715, -0.012178709731, 0.075029142201, 0.019936958328, -0.022735055536, -0.038937706500, 0.017219465226, 0.024293767288, 0.039861459285, -0.011742063798, 0.060367446393, 0.009993913583, -0.040079180151, 0.081626817584, -0.144366234541, -0.034293860197, -0.047026030719, 0.001625740435, 0.007842800580, 0.042315125465, -0.001203909516, -0.129450201988, -0.005288181361, 0.116747759283, -0.005694190040, 0.006285944488, -0.023647909984, 0.086790315807, 0.013636984862, 0.009678437375, -0.040443945676, -0.113910287619, -0.022459683940, 0.092439264059, -0.071880169213, 0.074032746255, -0.080152042210, 0.031978167593, -0.026247257367, 0.069878824055, 0.043962910771, -0.107894651592, 0.149489328265, -0.018831107765, 0.006580329966, 0.047930352390, 0.005588729400, -0.011083570309, -0.043692979962, -0.014024191536, -0.102647654712, 0.038533963263, 0.002818221692, -0.116702549160, -0.073707848787, 0.103716969490, -0.023524640128, 0.016105689108, -0.085434436798, -0.059984404594, 0.015337396413, -0.067695014179, 0.013884902000, -0.065073378384, -0.063704743981, 0.009839098901, -0.007410023827, 0.001818625838, -0.113587811589, -0.030198974535, 0.007764762733, 0.042373791337, 0.006895173341, -0.136367708445, 0.006470928434, -0.047838307917, 0.010203562677, -0.035154867917, 0.001172904274, -0.018449939787, -0.059101596475, -0.032004196197, -0.005557842553, 0.037521231920, 0.003937822301, -0.032205767930, -0.069522701204, -0.061205916107, 0.006772669032, -0.061296552420, -0.103787377477, 0.038084905595, -0.029362963513, -0.053653176874, 0.030838128179, -0.011114059016, -0.101281881332, -0.003224710468, -0.065847955644, 0.037807367742, 0.002580681816, -0.014536904171, -0.068508476019, 0.053310856223, 0.081065207720, -0.086769573390, 0.049269609153, 0.010463748127, 0.174200341105, -0.062356546521, -0.065135136247, -0.022486288100, 0.008338066749, -0.042235333472, -0.052967045456, 0.092839367688, 0.102727249265, 0.023390246555, -0.004672223236, 0.101530149579, 0.019481588155, -0.073928646743, -0.088611818850, -0.053155858070, -0.065423719585, -0.026261407882, 0.067207850516, -0.092984981835, 0.021616851911, 0.017420288175, -0.012865940109, -0.000663338811, 0.016951791942, -0.041401185095, -0.090335041285, 0.046933248639, -0.015490158461, 0.006190008484, 0.011906213127, 0.025373945013, 0.046857755631, -0.024082485586, -0.060691300780, -0.091204516590, -0.034529276192, 0.033949729055, -0.039206150919, -0.020594375208, 0.028773836792, -0.004609273747, -0.094062246382, 0.053192730993, -0.054925363511, -0.031585216522, -0.010056341998, 0.063119411469, -0.022412024438, 0.003249614500, 0.006651092321, -0.001492285053, -0.066564098001, -0.002837169683, 0.042036309838, 0.053088411689, -0.021581234410, 0.034623630345, -0.026635045186, 0.000314195320, 0.095644049346, 0.046164289117, -0.047857630998, -0.006185444072, 0.032583162189, 0.069805510342, 0.002791206818, -0.047653928399, -0.013635247946, -0.010937334038, -0.039900973439, 0.023443542421, -0.011644785292, 0.038518734276, -0.020479544997, 0.026943974197, -0.014578811824, 0.023588690907, 0.051629517227, 0.073487304151, -0.014218827710, -0.036140441895, 0.092720158398, 0.020332548767, 0.023642035201, -0.082350850105, -0.032798115164, 0.037643313408, -0.108269952238, 0.001161563676, -0.089483335614, 0.059653595090, 0.013405393809, -0.051253136247, 0.008731825277, -0.112856775522, 0.054966192693, -0.060875356197, 0.063816852868, -0.009789643809, -0.025045359507, 0.005191357806, -0.025742212310, -0.001490055583, -0.029141297564, -0.051584675908, 0.035681001842, -0.045360561460, -0.042543206364, -0.027962787077, 0.048861756921, -0.043181344867, -0.005991158541, 0.040851376951, 0.009052634239, -0.032013222575, -0.017136588693, -0.034972481430, 0.018149737269, -0.027203379199, 0.050821300596, -0.016913045198, -0.021994510666, 0.041573155671, -0.080693431199, 0.026719445363, 0.017284693196, 0.006160373334, -0.027984265238, -0.068212524056, -0.030179411173, -0.100844614208, 0.008161474019, -0.010477984324, 0.047934815288, 0.012817496434, 0.047824848443, 0.011738250963, -0.131238356233, -0.048734486103, 0.044121641666, -0.009697656147, 0.047738630325, -0.034788142890, -0.016776287928, 0.014112510718, 0.042417649180, 0.080789819360, 0.109879091382, -0.025263950229, 0.043950397521, -0.050996698439, 0.027341745794, -0.031366087496, 0.003401636379, -0.040352761745, -0.010585720651, 0.087716206908, -0.046297982335, 0.020994752645, -0.023493465036, 0.041161894798, 0.070425868034, -0.066157020628, -0.084821730852, 0.031966011971, -0.041669700295, -0.045044634491, -0.154534697533, -0.033165268600, 0.057939924300, -0.042580846697, 0.081145353615, 0.016169320792, 0.068719804287, -0.000770790153, -0.043399669230, -0.085094556212, 0.064818516374, 0.053342591971, 0.084221646190, -0.007307800464, -0.049514938146, -0.121434375644, -0.005690439139, -0.038611106575, 0.017053177580, -0.029467491433, -0.025952864438, 0.069779954851, -0.062573716044, 0.004585689865, 0.042728804052, 0.114655703306, 0.094553686678, 0.069738179445, 0.044380761683, 0.067127659917, 0.060693763196, -0.026521194726, -0.001425762195, 0.047190528363, 0.011318092234, -0.099053092301, -0.008513372391, -0.011153283529, 0.053991600871, 0.023096814752, -0.023210875690, -0.043723862618, -0.033666554838, 0.007628283463, 0.029547842219, 0.005755822174, 0.032191645354, 0.066670827568, 0.084665663540, -0.129371717572, 0.070716403425, -0.063321046531, -0.094256348908, 0.077988125384, -0.086721241474, 0.020872971043, -0.025527199730, -0.060063272715, -0.037372671068, 0.072851970792, 0.143718376756, 0.014315576293, 0.050145495683, -0.025402370840, 0.010646448471, 0.070280887187, 0.027786452323, 0.053552336991, 0.065670467913, -0.057347454131, -0.137830033898, 0.029508000240, -0.067596100271, -0.022554753348, 0.017337003723, 0.053196713328, 0.004495567642, 0.077190414071, 0.076171211898, 0.003185032168, -0.008011629805, -0.011094042100, -0.112386859953, 0.110883511603, 0.053322438151, 0.003928417340, 0.068100132048, 0.060042202473, 0.131650909781, 0.017613302916, -0.191535964608, -0.005248624366, -0.010840354487, -0.021779930219, -0.040057193488, -0.125973224640, 0.058967642486, -0.060125254095, -0.004896669183, -0.011750418693, -0.007181251887, 0.023078825325, -0.055078029633, -0.030419582501, 0.019106592983, -0.022088563070, -0.020406395197, 0.028307443485, 0.002749161096, 0.097000293434, 0.134754762053, -0.003959660418, -0.074297852814, 0.036272808909, 0.016568258405, 0.057396728545, 0.009271230549, -0.097405396402, 0.001286979765, -0.012473149225, -0.005977327470, -0.000872102682, -0.038142312318, 0.079313367605, 0.058578956872, 0.022211868316, -0.093750499189, 0.004926881287, 0.088738121092, -0.056867267936, 0.027991471812, 0.002477640985, 0.008006562479, 0.078813523054, -0.125092193484, 0.015200346708, 0.075039312243, -0.068358078599, -0.001902158721, -0.035612799227, 0.113875567913, 0.020592916757, 0.060206741095, 0.019380694255, 0.057555634528, 0.113908089697, 0.063387334347, 0.103559114039, 0.013067563064, -0.023517789319, 0.028235958889, -0.088114939630, 0.037612803280, -0.005417575128, -0.141466379166, -0.031882137060, 0.006539619993, 0.088721953332, -0.036826651543, 0.006988861132, 0.087309382856, -0.102369107306, 0.003491860349, -0.017920833081, -0.053373020142, 0.012612582184, 0.104593254626, -0.007788623217, 0.000577252125, -0.007970878854, 0.087484873831, 0.096188962460, -0.032776385546, 0.102255024016, -0.079038105905, -0.053548131138, -0.056429829448, 0.062973052263, -0.126949116588, -0.042184919119, 0.072332866490, 0.050071068108, -0.060114137828, 0.065400823951, 0.142910405993, 0.046321213245, -0.122680313885, -0.006428182591, -0.111945778131, 0.038512110710, -0.030989900231, -0.070893168449, -0.033799234778, -0.028858417645, -0.064306929708, -0.124210529029, 0.058440335095, 0.014269864187, 0.006989195477, -0.026949074119, -0.023791991174, -0.022552661598, -0.015212805942, 0.051545344293, 0.039143949747, 0.028099110350, -0.000137974435, -0.025068979710, -0.027476245537, 0.071894831955, -0.028304116800, 0.112256787717, 0.032849635929, 0.024519599974, -0.110902391374, -0.011445586570, -0.039541285485, 0.055230956525, -0.020431725308, 0.057594116777, 0.018513325602, 0.016803545877, 0.039811115712, -0.076625183225, -0.067211277783, -0.000960407371, 0.014735683799, -0.046101350337, 0.003379451111, 0.009733288549, 0.032783664763, 0.022033795714, -0.006756513845, -0.111574165523, 0.021567258984, 0.081604599953, -0.008139840327, -0.117351993918, 0.010456828400, -0.130815416574, -0.007870086469, -0.027907179669, -0.039274170995, 0.061093915254, 0.057514775544, 0.126541495323, -0.059252381325, -0.017609771341, 0.077340148389, 0.005740534980, -0.005715891253, 0.002968984656, 0.068012587726, 0.096937946975, 0.075223743916, -0.130226895213, -0.066816419363, 0.019392738119, 0.024969020858, -0.135913968086, -0.005590779241, 0.086620852351, 0.085672087967, -0.043557438999, 0.060545906425, -0.001738991705, -0.067187592387, 0.003330363426, 0.085641406476, 0.072428628802, -0.008425178006, 0.015219059773, -0.021159246564, 0.018784329295, -0.000283848523, 0.100437834859, 0.090900018811, 0.014996631071, -0.045223452151, 0.003525374224, 0.064249269664, 0.116165660322, -0.085493251681, -0.021613536403, -0.058751314878, -0.009877610952, 0.032748356462, 0.037471443415, -0.140908643603, -0.071888118982, -0.009543878958, 0.050894029438, 0.060424454510, 0.016844358295, 0.066256634891, 0.036529298872, -0.023429790512, -0.000251949794, 0.060581304133, -0.117465965450, 0.033901959658, 0.003547083354, -0.151237443089, 0.013255693950, 0.126940831542, -0.010883651674, 0.026930950582, -0.005993179511, 0.052643965930, 0.068979948759, -0.040439579636, -0.051978435367, -0.034675594419, 0.083620019257, 0.016810074449, -0.040973581374, 0.108619458973, 0.110482439399, 0.032657183707, -0.103887245059, -0.130486771464, -0.075626812875, -0.029586905614, 0.013983596116, -0.025991095230, 0.015609820373, 0.066033668816, -0.031532090157, 0.003246689448, -0.041877478361, 0.072611071169, -0.008077432401, 0.080971531570, -0.020646756515, -0.127705156803, -0.077055595815, 0.050636660308, 0.015154793859, -0.093949399889, 0.107716761529, 0.027163289487, 0.091966666281, 0.003268760629, 0.022709267214, -0.016394151375, -0.014160872437, 0.032200969756, 0.046146336943, -0.030527308583, 0.096300393343, 0.045473568141, -0.093580275774, 0.003064654535, 0.044165566564, -0.080836564302, -0.049432583153, 0.088022157550, 0.060813546181, -0.016632005572, -0.006215589121, -0.028103498742, -0.099557302892, 0.018881784752, -0.037142381072, -0.046953968704, -0.036782372743, 0.096295051277, 0.015913985670, 0.056382175535, 0.023574493825, 0.016750888899, 0.007049998734, -0.012556948699, 0.015054712072, 0.033842369914, -0.037042889744, 0.006729764864, -0.085601173341, 0.012991727330, 0.113893933594, -0.098582506180, -0.059482630342, -0.050055325031, 0.045506697148, 0.062487818301, -0.047984689474, 0.021108027548, -0.025390215218, 0.029766041785, -0.020094914362, 0.007134927437, 0.016553856432, 0.037246797234, 0.013480755500, -0.022688878700, -0.048220179975, -0.019391711801, -0.019712375477, -0.006508871447, 0.033553678542, 0.054114796221, 0.051636356860, -0.019587632269, -0.029183490202, -0.020292617381, -0.060954194516, 0.027657283470, -0.053654212505, -0.025726241991, 0.049730461091, 0.014679512940, 0.003951421473, 0.030498687178, -0.049346897751, 0.084361605346, -0.017678823322, 0.001767585985, -0.023680511862, 0.063721016049, -0.017588365823, 0.055487945676, 0.063604980707, -0.033981855959, 0.008060870692, 0.033141341060, 0.035236787051, 0.014815406874, -0.058824267238, 0.000506236625, -0.047153659165, 0.023553043604, 0.005477299914, 0.019285146147, -0.043453793973, 0.006107417401, 0.018182419240, -0.001100447844, -0.031627602875, -0.045481517911, 0.041204761714, -0.012789335102, 0.064138054848, -0.009253893979, -0.009272200987, -0.003517628880, 0.015812776983, -0.027752470225, 0.064159177244, 0.072986587882, 0.024594482034, 0.035443667322, -0.060691121966, -0.047330919653, -0.044180128723, -0.100690156221, 0.018909014761, 0.009961401112, -0.013863317668, 0.033107344061, 0.007951322943, -0.002646402223, -0.108124420047, 0.009674902074, 0.041229657829, -0.007789411116, -0.020891604945, -0.116940669715, 0.022832103074, 0.050456862897, 0.055595990270, -0.042548175901, -0.020469037816, 0.054705530405, 0.007615567651, 0.029678596184, -0.076429039240, 0.010732073337, -0.012602788396, -0.010746137239, 0.026360999793, 0.122383132577, -0.017274694517, 0.033616602421, 0.010550381616, -0.092115037143, -0.038615807891, -0.077821843326, 0.004109945614, -0.001744489069, -0.020589238033, 0.061321459711, -0.069061435759, -0.015347534791, -0.038565896451, 0.033385552466, -0.047676257789, -0.024434033781, -0.058100968599, -0.059983402491, 0.042372759432, -0.085479773581, -0.031498696655, 0.037907224149, -0.011727342382, 0.033852878958, -0.034716792405, 0.041641373187, -0.105854749680, 0.010618102737, -0.012901089154, 0.024552628398, -0.045751627535, 0.023523962125, 0.084168538451, -0.050451792777, -0.063236817718, -0.098658278584, 0.022315230221, -0.009338010103, -0.021677229553, -0.006594322156, 0.051060959697, 0.026677066460, 0.078741937876, -0.047291964293, -0.064904071391, 0.155587702990, -0.013680186123, -0.059198062867, -0.033866912127, -0.037305943668, 0.064557433128, -0.081433385611, -0.007599315140, 0.036101195961, 0.066149093211, 0.002963969717, -0.020659735426, 0.006071579643, -0.072974145412, -0.028767483309, -0.042675085366, 0.037125453353, -0.005390235223, -0.007341278717, -0.003284225473, 0.108880855143, 0.028091877699, -0.055506035686, -0.006701476406, 0.054387912154, 0.007536873221, -0.028903894126, 0.037366323173, 0.022644860670, -0.048753250390, 0.025402054191, 0.001786250621, 0.032187014818, 0.085971184075, 0.001350276172, -0.068783067167, -0.019347377121, 0.028398323804, -0.018273549154, -0.046439010650, 0.043215747923, 0.053479090333, 0.032302495092, -0.112413510680, 0.013373087160, 0.043139833957, 0.113903313875, -0.075533464551, -0.004109670874, 0.047047089785, 0.106089591980, -0.009285565466, 0.021705528721, 0.069378726184, -0.059129092842, -0.026935683563, -0.042350944132, 0.073191992939, -0.051799606532, -0.020919224247, 0.033229276538, 0.025356274098, -0.015775959939, -0.012084469199, 0.163732662797, -0.011049492285, -0.055098731071, 0.053982414305, -0.050294823945, 0.067325480282, -0.124835826457, 0.000128598127, 0.145610719919, 0.067865341902, 0.056881085038, -0.058388937265, 0.008223835379, -0.023486932740, 0.081285893917, 0.016860119998, -0.021901270375, 0.024068988860, 0.166325271130, -0.005838402081, -0.039168480784, 0.061272833496, -0.034260876477, -0.004377191421, -0.021413948387, -0.023315299302, -0.070126496255, 0.134590685368, -0.042284876108, 0.008709257469, 0.049418751150, 0.057060856372, 0.099707543850, -0.008067402057, -0.106478847563, 0.012148258276, -0.076833024621, 0.018424803391, -0.033698797226, -0.007283919491, 0.022815003991, -0.010749312118, -0.021404756233, -0.003608057974, -0.034115586430, -0.032406069338, 0.049480710179, 0.003501556115, -0.063570216298, 0.061509158462, 0.112639039755, -0.020792890340, -0.018830688670, 0.040286667645, -0.116705745459, 0.042415283620, -0.039924230427, -0.014367520809, 0.040811426938, 0.042817298323, -0.001902892487, -0.018319606781, 0.067195475101, 0.023990629241, -0.031817976385, -0.078121840954, 0.088198460639, 0.049398161471, -0.058538563550, 0.027065433562, 0.029610911384, -0.031352218240, 0.080802835524, -0.017379706725, -0.044576663524, 0.025889389217, 0.043800804764, 0.008837657981, -0.059029128402, 0.079497657716, -0.005943919532, 0.083664692938, 0.009181482717, 0.007450004574, -0.012781505473, 0.009604534134, 0.048318132758, -0.037955563515, 0.000194664259, -0.068222947419, -0.001275398186, 0.088011130691, 0.033977385610, -0.019531086087, -0.011250735261, 0.082162320614, -0.006460899021, 0.052022472024, -0.017891617492, 0.123971588910, -0.060918986797, 0.044632077217, 0.064001135528, -0.028864366934, 0.025008641183, 0.000649831316, -0.004874604288, -0.029742088169, -0.019446836784, -0.051253829151, -0.005974791944, -0.022878229618, -0.068706929684, -0.001277859323, 0.008470262401, 0.091317534447, -0.059043850750, -0.014035160653, -0.040460474789, -0.009277503006, 0.034797433764, -0.105322517455, -0.121275454760, 0.029551209882, 0.008357662708, 0.021664606407, 0.010250648484, 0.123870350420, -0.024667538702, 0.051926333457, 0.077667951584, 0.012357900850, -0.028078041971, 0.087196081877, -0.023453772068, 0.029807167128, 0.027688574046, -0.001084641903, 0.002700455487, 0.041239745915, 0.011913281865, 0.020276809111, -0.111938804388, 0.103045769036, -0.084613673389, -0.005021575373, -0.010981093161, 0.033623982221, -0.009694763459, -0.044279154390, 0.037340324372, 0.026895418763, 0.057254865766, -0.054734263569, 0.010224611498, -0.017608305439, 0.043013997376, -0.038650456816, 0.027947815135, -0.062521196902, -0.053153879941, -0.022969793528, -0.070509918034, 0.074982270598, -0.036708306521, 0.001493604388, 0.050115641207, -0.074359260499, 0.034040242434, 0.034768667072, 0.109603576362, 0.057861052454, -0.092542067170, -0.013892449439, -0.043994888663, 0.094941399992, -0.036599937826, 0.029963903129, 0.089038543403, 0.059923157096, 0.023923402652, 0.151904523373, -0.026700766757, -0.072667352855, -0.069159202278, 0.003192587988, 0.064998686314, 0.041310545057, -0.008979420178, -0.087927840650, -0.075724624097, -0.033154156059, 0.074392966926, -0.055483568460, 0.014796259813, 0.073505543172, -0.039476133883, 0.045011598617, -0.033519566059, -0.103239916265, 0.059225846082, 0.007885196246, 0.034931644797, 0.034487102181, -0.060923099518, -0.013777826913, 0.015144132078, 0.000680242199, 0.040120881051, 0.041746042669, -0.040004979819, -0.051212154329, -0.061924133450, 0.004243768752, 0.115575447679, 0.010538985021, 0.046630378813, 0.003239319893, 0.040035095066, 0.042591717094, 0.022078912705, 0.032989118248, -0.039595182985, 0.014333117753, 0.027912678197, -0.061314348131, 0.005558473524, 0.003892327892, 0.045433569700, 0.051972758025, 0.009008817375, -0.084830746055, -0.021439496428, 0.004626118112, 0.105793759227, 0.028317071497, -0.147959858179, -0.018486717716, 0.055368427187, 0.050889510661, -0.002537749242, 0.069605156779, -0.066765941679, -0.019109185785, -0.079782143235, 0.001702960813, 0.116803161800, -0.043152019382, 0.073968239129, -0.029805611819, 0.000928935537, 0.051992278546, -0.008157997392, -0.087737336755, 0.057990897447, -0.099512420595, -0.084406100214, 0.026969781145, -0.012127039023, -0.015482930467, 0.011094456539, -0.087672330439, 0.039058245718, 0.076530918479, -0.022158725187, 0.022404370829, -0.065954804420, 0.074327573180, 0.035179026425, -0.017850929871, -0.014481512830, 0.117813125253, -0.128878459334, -0.032407931983, -0.033211208880, -0.016856646165, 0.018068946898, 0.048580262810, -0.068908669055, -0.015187019482, 0.112103477120, 0.025686657056, 0.078682549298, -0.058649174869, 0.000926495763, -0.027273597196, -0.009614873677, -0.154851809144, -0.036906007677, 0.002953565912, -0.040514592081, -0.041790604591, -0.062502555549, 0.044225677848, 0.032468721271, -0.039737720042, -0.012555328198, 0.060875967145, -0.019279170781, -0.034031715244, -0.021320628002, -0.034438323230, -0.062387876213, 0.075150288641, 0.002973469906, 0.026056086645, 0.000508467492, -0.011713452637, 0.013055341318, -0.082752615213, 0.009328047745, 0.021805390716, 0.073329456151, -0.073505409062, 0.096583195031, 0.020791780204, 0.143789216876, 0.024987822399, 0.008918065578, -0.085957676172, 0.052051585168, -0.052290800959, 0.007146359421, -0.113786466420, -0.078318133950, 0.139163643122, 0.038143210113, 0.155428618193, -0.047294992954, -0.071244440973, 0.145306020975, 0.014714179561, -0.014692937024, -0.116541177034, 0.005226280540, 0.100012011826, 0.049734450877, -0.103324912488, -0.000594303478, 0.061060383916, 0.054651007056, 0.025468416512, -0.010907357559, -0.018894663081, 0.064114354551, -0.052134260535, -0.081372208893, 0.020952405408, -0.034911785275, 0.023456439376, 0.026709042490, -0.008342660964, 0.019502466545, 0.058941535652, -0.016995582730, -0.004495159723, 0.072469875216, -0.049128130078, 0.011312125251, 0.029032707214, -0.025741336867, -0.046269435436, -0.069624230266, -0.030874356627, -0.105724856257, -0.017988890409, 0.024394931272, -0.062823832035, -0.082855515182, -0.045095354319, 0.075502872467, -0.018916465342, 0.025441221893, -0.130749285221, -0.033359464258, 0.002267389093, 0.031609334052, 0.018110888079, -0.066172905266, 0.077255815268, -0.013616715558, 0.001332444721, 0.007330482826, 0.009948235005, 0.076028995216, 0.041502285749, -0.021982548758, -0.022347657010, 0.023993069306, 0.042302533984, 0.044114395976, 0.029993616045, -0.053580455482, -0.047986436635, -0.043857119977, 0.012428735383, -0.036362189800, 0.008344965987, -0.026528472081, -0.019981794059, -0.069952756166, -0.035902313888, -0.085547760129, 0.055538441986, 0.009823225439, -0.060024783015, 0.010216865689, 0.005423995201, 0.063097558916, -0.041485983878, -0.008838166483, 0.043268315494, -0.100270986557, 0.083692356944, 0.038741551340, -0.003203375963, 0.073915898800, -0.010642908514, -0.023899566382, -0.043881811202, -0.024093519896, 0.007533836644, -0.005769508891, 0.008882733062, 0.007779808715, 0.036678392440, -0.020981580019, -0.058023490012, -0.044313706458, -0.033547870815, 0.004302098881, -0.008111797273, -0.025588296354, -0.009228084236, 0.030991900712, 0.100521981716, 0.038404840976, -0.090055778623, -0.020251024514, -0.112671136856, 0.017474677414, -0.038935828954, 0.014246044680, 0.049046762288, 0.011601219885, -0.002142973477, -0.032511770725, 0.092655912042, 0.087176263332, -0.021026380360, -0.080481283367, 0.013648895547, 0.058065976948, -0.005125262775, -0.022744610906, 0.066216215491, -0.022868625820, 0.057112902403, 0.009100540541, -0.003960405011, 0.000057243524, -0.053590767086, -0.009041172452, 0.094328612089, -0.015786701813, 0.050765406340, -0.031862437725, 0.052050102502, 0.002994455863, -0.093158707023, -0.018522698432, -0.006071520504, -0.000170024825, 0.026259422302, 0.095998987556, 0.053928665817, -0.028848517686, 0.004559214693, 0.030441245064, 0.079233981669, -0.020533509552, -0.016624936834, -0.007242589723, -0.042450428009, 0.018413495272, 0.032505504787, 0.009866081178, 0.009881042875, -0.033606398851, 0.102283835411, 0.010834811255, 0.037901695818, -0.118919670582, 0.049630552530, -0.065293565392, 0.020502405241, 0.026114890352, 0.003115766915, -0.061153732240, 0.019189350307, -0.014000427909, -0.039390332997, 0.022655885667, 0.006083397195, 0.027959529310, -0.052413031459, -0.091246046126, -0.031150300056, 0.034371152520, 0.003790223505, -0.016906866804, 0.038957908750, -0.029629996046, -0.057992286980, -0.040623005480, -0.052592810243, -0.024083849043, 0.053067050874, 0.068043865263, 0.007248288486, -0.016000628471, -0.022390978411, -0.008608067408, 0.074914112687, -0.016455892473, -0.044299956411, -0.060844015330, -0.021274903789, 0.002247222699, -0.022128121927, -0.052263997495, 0.058852553368, -0.002087438945, -0.024524472654, 0.054665338248, -0.060764070600, -0.012923330069, -0.020275427029, -0.016300149262, -0.070405997336, 0.014537507668, 0.018807714805, -0.002883386100, -0.034494157881, 0.051343295723, -0.034612324089, -0.006255537737, -0.067496307194, -0.013089612126, 0.042976398021, -0.000162884156, 0.010636682622, 0.054873865098, 0.044603437185, 0.046931933612, -0.094862103462, -0.066325865686, -0.080993182957, 0.102713540196, -0.011722720228, -0.042257327586, 0.049319732934, 0.019175257534, -0.000601294916, -0.009828599170, -0.088997453451, -0.083722963929, -0.018364220858, -0.032640509307, -0.037227809429, -0.052626930177, 0.021606935188, -0.047688901424, -0.000375591073, 0.048805478960, -0.067696042359, -0.025214739144, -0.021133694798, -0.033404432237, -0.048589300364, -0.033294968307, 0.062108784914, -0.035535946488, -0.061789181083, 0.043862927705, -0.016929119825, 0.061115533113, -0.077072575688, 0.014846008271, -0.051258012652, 0.057185817510, 0.014663990587, -0.009874444455, 0.043152354658, 0.010523533449, -0.016566533595, -0.074348472059, 0.021473793313, -0.029605738819, -0.101523563266, 0.086172215641, 0.006168982014, 0.014160946943, -0.078394562006, 0.057589109987, 0.049255009741, -0.011667083949, 0.002741829026, 0.087408557534, -0.010376139544, 0.021727824584, -0.058095924556, -0.043786343187, 0.021630952135, -0.017959196121, -0.015316529199, 0.035727683455, -0.038399875164, 0.014831554145, -0.057306852192, -0.035312943161, -0.042590994388, -0.012106768787, -0.000186385121, 0.013188575394, -0.012079344131, 0.007050919812, -0.018025601283, 0.100598901510, -0.055831111968, 0.039635006338, -0.023282051086, 0.044079095125, 0.021501589566, -0.043331019580, -0.000742985168, 0.001044928096, -0.014911682345, -0.021951019764, -0.014948608354, -0.009132540785, 0.009528715163, -0.007162476890, 0.007903638296, -0.014164378867, -0.014943864197, 0.002390222624, -0.015076407231, 0.012279455550, 0.008309678175, -0.012196039781, 0.016505187377, -0.021056901664, -0.003119836561, 0.009710232727, -0.016254853457, 0.017243096605, -0.021986033767, 0.014066578820, 0.000482308475, -0.066463537514, -0.010821300559, -0.023790171370, 0.018257651478, 0.026583954692, -0.015572275035, -0.038432952017, -0.011405126192, -0.021612813696, -0.011999935843, -0.013766176999, 0.014483540319, -0.009210992604, 0.029496060684, -0.009677267633, -0.011481210589, -0.033865332603, -0.008503166959, 0.015092797577, 0.007184975781, -0.024303792045, 0.016738852486, 0.011071056128, 0.003767770249, -0.028672246262, -0.023731658235, 0.013817170635, -0.006433188450, -0.008634162135, -0.000921755680, -0.007780771237, 0.000871902623, -0.005930614658, -0.028435410932, -0.021417729557, 0.004425131716, 0.016011819243, -0.014129883610, 0.008340160362, -0.006159924436, 0.012486778200, -0.040251471102, -0.008557355031, 0.015566254966, 0.006444546394, 0.006074708886, -0.035811990499, 0.002896692837, -0.031226733699, 0.024917470291, -0.015907607973, -0.026043884456, -0.039459247142, -0.008012626320, 0.017285410315, -0.012073340826, 0.023409666494, 0.022446755320, -0.012051818892, 0.030525520444, -0.001336843357, 0.017702050507, -0.015530617908, 0.038303073496, 0.004557605367, -0.020549992099, 0.023857142776, 0.023405440152, 0.013304981403, 0.017544945702, 0.019435586408, -0.002905246103, -0.006573057268, -0.026968650520, -0.013783675618, -0.021958142519, 0.049616549164, 0.033581793308, -0.045091602951, 0.035214480013, 0.007446513511, -0.021269612014, -0.035537220538, -0.027594164014, 0.030804056674, -0.002383701270, 0.010219849646, -0.022649070248, 0.007335397415, 0.016364226118, -0.021163314581, -0.029855413362, -0.050635252148, 0.012100855820, 0.008992712945, 0.035745002329, -0.023182272911, -0.011931247078, -0.017953328788, 0.029111256823, 0.000213929568, -0.027380233631, -0.015517411754, 0.016470365226, 0.016096929088, -0.017660221085, -0.009956802242, 0.023908860981, -0.048315450549, -0.005713359453, 0.011583136395, -0.004121322185, -0.036387369037, -0.000571785262, 0.041205033660, -0.024919454008, 0.030457144603, -0.010246805847, 0.007204773836, -0.006026440766, -0.005487221759, -0.005430540536, -0.060902278870, -0.039325073361, 0.042729455978, 0.013577399775, -0.006887083407, -0.028031121939, -0.004915373866, -0.005571642425, -0.044189527631, -0.008014285006, 0.004173700698, 0.005741937552, 0.019496584311, -0.002645169385, 0.044482327998, -0.004401113838, 0.041531551629, 0.026735438034, 0.006059620995, 0.001583069679, -0.027780355886, 0.017676405609, 0.009471882135, -0.017786040902, -0.006181742530, -0.030974157155, -0.003453677986, -0.005435139872, -0.028570167720, -0.036594856530, 0.026943793520, 0.031410325319, -0.026643890887, 0.009232305922, 0.010632375255, 0.061878137290, -0.017377292737, 0.008607308380, -0.005070317071, -0.001299035386, 0.016504619271, 0.007000844926, 0.041105225682, 0.020613932982, -0.012696331367, -0.013611179776, -0.061579670757, -0.025364495814, -0.037363655865, 0.030300604180, 0.015778012574, 0.040981657803, -0.026102114469, 0.010900301859, 0.033326383680, 0.000185279845, -0.051950894296, -0.056121610105, 0.015713281929, -0.014381772839, 0.033294156194, 0.012124557048, -0.006342825945, 0.035137072206, 0.001170892850, -0.016046559438, 0.038731891662, 0.031010925770, 0.076209776103, 0.030448980629, -0.010850770399, -0.044476985931, -0.032204940915, 0.043784536421, 0.027926586568, 0.022929482162, 0.044117849320, 0.010517639108, 0.014889258891, -0.022965345532, -0.049037035555, 0.022636039183, 0.055352915078, -0.001439982210, 0.004598448053, 0.013294289820, -0.017868472263, 0.015147363767, -0.001654008753, -0.011586501263, -0.011159718037, 0.020231986418, 0.009623355232, 0.003624829929, 0.010029604658, 0.025163393468, 0.060260716826, -0.029274331406, 0.007862045430, -0.009572119452, -0.035317104310, -0.009566213004, -0.003315799171, -0.012681484222, 0.002519452944, 0.054166305810, 0.011725601740, 0.017298672348, 0.063642665744, -0.009424307384, -0.018008528277, 0.005199466366, 0.005387457088, 0.022797040641, 0.033973965794, -0.025101261213, -0.021016435698, -0.025840559974, 0.024777881801, 0.007409090176, 0.009118032642, -0.036436714232, -0.027321824804, 0.023585924879, -0.016471710056, -0.005466677248, 0.035546045750, 0.053651183844, 0.016063826159, 0.004074568860, 0.021788779646, 0.029799576849, -0.029591467232, 0.012127695605, 0.019767370075, -0.028751658276, 0.010995811783, 0.031647466123, -0.074563264847, -0.018086859956, -0.103130608797, 0.048742439598, -0.031224068254, 0.062895953655, -0.001385165029, -0.074043750763, 0.015465687029, 0.103978365660, -0.222800910473, -0.001409923425, 0.074912801385, -0.062029123306, 0.017202956602, -0.045481335372, -0.115055918694, 0.073684513569, -0.207622647285, 0.125558122993, -0.070373050869, 0.059976026416, -0.018915686756, 0.018121767789, 0.136444970965, -0.025540884584, -0.155716419220, -0.112203747034, -0.064954578876, -0.120253488421, 0.052904102951, 0.049368262291, -0.162222608924, 0.030337601900, -0.041516184807, -0.046442840248, -0.009237278253, 0.004834292922, 0.076299846172, -0.103329695761, -0.039321068674, -0.020831812173, -0.151224821806, -0.025814164430, -0.070853456855, -0.019336964935, 0.031847815961, 0.012355014682, -0.209737792611, 0.068975567818, -0.075578898191, -0.044456474483, 0.091644920409, 0.016057811677, 0.108280532062, 0.049858115613, -0.012308040634, 0.042277947068, -0.082060202956, -0.026226382703, -0.012688998133, -0.138685211539, 0.026584804058, -0.033809352666, -0.075461693108, -0.059919282794, -0.085510089993, -0.032950736582, 0.091448388994, -0.084021247923, -0.015937658027, 0.008014195599, 0.057361166924, 0.063065506518, -0.021228555590, 0.159133315086, 0.061570622027, -0.141479119658, 0.068605817854, -0.019672533497, -0.031090648845, 0.010122183710, -0.179345563054, 0.098362103105, -0.143987864256, -0.076989084482, 0.177183985710, 0.051980033517, 0.011530268937, -0.024044739082, -0.063065834343, -0.001274961513, -0.001108293887, -0.020442640409, -0.033446732908, -0.061983298510, 0.031427606940, -0.072283454239, 0.110364690423, 0.053408954293, -0.090040661395, 0.118435509503, 0.116494849324, 0.077018752694, -0.066786125302, 0.027191936970, -0.138883352280, -0.159146666527, -0.057196356356, -0.027166688815, 0.060233727098, 0.092062950134, -0.104424171150, 0.056345351040, -0.130506917834, -0.019553972408, -0.089047238231, 0.017086407170, 0.118618227541, 0.081980682909, -0.092502497137, -0.081273138523, -0.227851092815, -0.031895898283, -0.006993290968, -0.117426291108, 0.009798516519, -0.119785480201, -0.081302911043, -0.137443438172, -0.012436367571, -0.101887285709, 0.017689852044, 0.004461644683, 0.128442019224, 0.067294113338, 0.002661465900, -0.106059245765, -0.122763656080, -0.021719863638, -0.040670197457, -0.044995009899, 0.105088301003, 0.109731301665, 0.010405451059, 0.037478685379, 0.044690694660, -0.073439829051, -0.076048985124, -0.074818387628, 0.069656707346, 0.014266507700, -0.002778185531, -0.120000511408, -0.071696460247, 0.096849232912, 0.072738528252, -0.248189106584, -0.016206268221, 0.161584272981, -0.083560191095, -0.048810880631, -0.008283892646, -0.093994349241, 0.035853050649, 0.012166334316, -0.047170497477, -0.030263785273, -0.002259250963, 0.039227813482, -0.141919568181, -0.179122924805, -0.065832257271, 0.015906866640, -0.010922007263, 0.158669337630, -0.070413529873, -0.004504889250, 0.007067171391, -0.085052214563, -0.141055554152, -0.011091439053, -0.010265841149, 0.027766181156, -0.078201942146, -0.167599856853, -0.016428483650, -0.025955760852, 0.069958627224, -0.158093154430, -0.004760991782, -0.078975036740, 0.062656052411, 0.111503690481, 0.056365791708, -0.123738482594, -0.112651035190, 0.026348264888, 0.063575401902, -0.073681429029, 0.073331370950, 0.095320172608, -0.214628785849, -0.063291370869, 0.023955829442, 0.123170830309, -0.020611390471, 0.055382546037, 0.051522538066, -0.014702182263, -0.008306318894, -0.129425436258, 0.020088838413, 0.133904531598, -0.040900979191, -0.141321420670, -0.052406672388, -0.101835235953, -0.009455246851, -0.204830825329, -0.133631020784, -0.342775553465, -0.062726028264, 0.033968321979, -0.129951357841, -0.105682976544, 0.030097994953, -0.152884200215, -0.128686547279, -0.128973573446, -0.053143136203, -0.126101031899, 0.066744774580, 0.065984643996, -0.026552967727, -0.001223157393, -0.041586406529, -0.043367315084, -0.003689861624, -0.075600765646, -0.072025030851, 0.009827914648, -0.006911036093, -0.072001561522, -0.064457193017, 0.167950734496, -0.021581742913, -0.046617127955, 0.036595016718, -0.060898333788, -0.021180735901, -0.141905903816, -0.029013244435, -0.022117640823, 0.087922245264, -0.060020215809, 0.033881969750, 0.041685696691, 0.064965665340, -0.067351751029, 0.037022531033, 0.018301552162, -0.043142683804, -0.038252227008, -0.001466236659, 0.151807993650, 0.056502535939, -0.018909996375, 0.138601183891, 0.030173683539, -0.068681575358, -0.070765219629, 0.069948203862, 0.003464967012, -0.104693874717, -0.044411730021, -0.002733920002, -0.058379765600, -0.021966589615, -0.246957793832, 0.044279541820, 0.112257286906, 0.035712063313, 0.034334972501, 0.064157314599, -0.066440440714, -0.020530229434, -0.069731183350, -0.106389783323, 0.106481172144, 0.058433149010, 0.044720947742, 0.214134350419, 0.122145928442, 0.067262187600, -0.060062691569, 0.076124459505, -0.030980873853, 0.191920652986, -0.090806871653, -0.053692538291, 0.131438657641, 0.107081890106, 0.147366806865, 0.002501569688, 0.198728173971, 0.136790066957, 0.041000775993, 0.172868445516, -0.181796953082, -0.045584242791, 0.087873794138, 0.022523520514, 0.025324752554, -0.098564445972, 0.018888752908, 0.125547572970, 0.006338404492, 0.199205696583, 0.038975201547, 0.068213008344, -0.186744913459, -0.015472479165, 0.021386770532, -0.070354163647, 0.058092202991, 0.036667309701, 0.056928705424, 0.011758228764, 0.137542501092, 0.014461609535, -0.013282579370, -0.072154842317, 0.047284230590, -0.114079453051, 0.094771429896, 0.089150197804, 0.216603666544, 0.011504858732, 0.060667350888, 0.093068778515, -0.045342948288, -0.008666198701, 0.072266846895, 0.080191053450, 0.075854718685, 0.035483144224, 0.092594638467, 0.029645495117, -0.011879806407, 0.029746087268, -0.063152633607, -0.055489405990, -0.158106490970, 0.046912960708, 0.139743626118, -0.129682153463, 0.041382934898, 0.019315904006, 0.126059487462, -0.096628576517, -0.110987089574, 0.054472662508, 0.013742766343, 0.112970560789, -0.085211955011, -0.040473714471, 0.069193050265, -0.031645227224, 0.173807784915, -0.000461067364, -0.150157362223, 0.170614019036, -0.032649114728, 0.107581645250, 0.035695739090, 0.032749511302, 0.034229248762, -0.011559830047, 0.198249980807, 0.030884113163, -0.113315694034, 0.248643219471, -0.052374295890, 0.059105128050, -0.100166477263, 0.064540185034, -0.025265589356, -0.061221558601, 0.029092326760, 0.021129570901, 0.013791825622, 0.041746314615, -0.054897002876, 0.086014740169, -0.036323413253, -0.103393606842, 0.003252168652, 0.149483501911, 0.034378912300, 0.056500952691, -0.023566223681, 0.109232261777, 0.066069312394, 0.021292192861, -0.107069715858, 0.055698733777, 0.039949174970, 0.043494231999, -0.054753586650, 0.049150682986, -0.069022141397, 0.115573801100, 0.051211036742, -0.045819643885, 0.163060396910, 0.138956993818, 0.167996019125, -0.140566661954, 0.215419471264, -0.154015660286, -0.077498696744, -0.087589725852, 0.099101848900, 0.096387892962, -0.034227062017, -0.035658136010, 0.038785785437, 0.051227279007, -0.060117125511, -0.042546298355, -0.163109377027, 0.086409531534, -0.138056188822, -0.118618600070, 0.046031169593, -0.047484643757, -0.094306230545, 0.113950632513, 0.044049989432, 0.039716128260, -0.047779511660, -0.200805231929, -0.169104233384, -0.166840210557, 0.195270687342, -0.053605344146, 0.029597641900, 0.222299635410, 0.022585559636, 0.044886458665, 0.032675154507, -0.091429971159, 0.027049383149, -0.103508763015, 0.042958464473, -0.136137321591, 0.054887324572, 0.021360760555, -0.037464696914, -0.087894298136, 0.003840880701, 0.056347388774, -0.023946277797, 0.110052190721, 0.028089953586, -0.174218639731, 0.100640103221, 0.029135851189, -0.072540454566, -0.028855497018, -0.028544967994, 0.026891181245, 0.061786126345, -0.067232817411, -0.038255423307, -0.163211286068, 0.084049224854, 0.073341675103, -0.022427242249, 0.157513663173, 0.122245840728, -0.041191738099, 0.076285876334, 0.100871615112, 0.006592533085, -0.059790756553, 0.094788111746, -0.065568856895, -0.065628699958, 0.132456645370, 0.114025980234, 0.072881229222, 0.087670899928, 0.056643087417, -0.086446687579, 0.209000051022, 0.086652137339, 0.032855793834, 0.131347894669, 0.017054276541, 0.034198589623, -0.035671982914, 0.151258662343, 0.018788885325, -0.088995836675, -0.028278999031, -0.031807504594, 0.038047496229, 0.012640403584, 0.133777096868, 0.106661081314, 0.013290145434, -0.049058932811, -0.014231773093, 0.017744248733, 0.026574285701, 0.044289015234, 0.147826969624, 0.044986020774, 0.008472588845, 0.005497705657, -0.083470344543, 0.053522512317, 0.163881793618, 0.029405120760, 0.067336626351, -0.080310970545, -0.006772306748, 0.133289650083, -0.138630971313, 0.197310879827, -0.104662641883, -0.125350520015, -0.022259540856, 0.071492336690, -0.023552864790, 0.035785574466, 0.051073741168, 0.029473137110, -0.077546969056, 0.095571860671, 0.093290328979, 0.080009512603, 0.119645476341, -0.072243206203, 0.008095308207, -0.027814483270, 0.085853613913, -0.070187449455, -0.103816479445, 0.232083320618, -0.233649864793, -0.093499399722, 0.021517923102, 0.126787766814, -0.052053142339, 0.255941689014, 0.100389145315, 0.012810871936, 0.054231509566, 0.207359686494, -0.007396410685, 0.006794252899, 0.035017404705, -0.218000784516, -0.091751523316, -0.051832344383, -0.013883348554, 0.021082695574, 0.103610709310, 0.085079468787, 0.115743279457, -0.011229703203, 0.146610230207, -0.024321686476, -0.014377556741, -0.011514010839, -0.016676701605, 0.012488355860, 0.015806930140, 0.024271568283, 0.015456175432, 0.004745934624, -0.004344642162, -0.014261168428, -0.027084458619, -0.021356947720, -0.030848039314, 0.016173213720, 0.007020180579, 0.004435841460, -0.002217703033, 0.023869041353, -0.010778840631, 0.020630378276, 0.002749151317, -0.020273670554, -0.026360843331, 0.008406909183, -0.009785080329, 0.005711001810, -0.016523037106, 0.005203246139, 0.011351951398, -0.010362011380, 0.021420685574, 0.000649182533, -0.001737496350, -0.029312146828, -0.021539038047, 0.019574161619, -0.014548513107, 0.014058655128, 0.012910604477, 0.012981889769, -0.015591530129, -0.015878904611, -0.004125108942, -0.000869384559, -0.004408557434, 0.004436589777, -0.012237294577, 0.031867653131, -0.022889068350, 0.007381948177, 0.035532321781, -0.006567971781, 0.013067478314, -0.025065740570, -0.013431807049, 0.037487436086, -0.031561039388, -0.009778257459, 0.031938835979, -0.041961383075, 0.015531400219, -0.007838040590, 0.008314285427, -0.020164167508, 0.006624598987, -0.003333487082, -0.022869952023, -0.010730865411, -0.004209754057, 0.022985428572, -0.006636960432, 0.014789857902, 0.015772640705, -0.001686154865, -0.032070077956, -0.019787497818, 0.004416788928, 0.006976552773, -0.003432359314, 0.014081411995, 0.005400697235, 0.007382123265, -0.003179050749, -0.023215265945, 0.028885176405, -0.016868881881, 0.020051579922, 0.012589315884, -0.003014750313, -0.031400226057, -0.020853467286, -0.013099310920, 0.026514753699, -0.020265575498, 0.009024899453, -0.022513376549, 0.000521634705, -0.017002983019, -0.023226717487, 0.000101761158, 0.005262845196, 0.022425031289, -0.007044343278, 0.014287464321, -0.001878684852, -0.023265345022, -0.016858629882, 0.009993534535, -0.010981225409, -0.003504864639, -0.005767733324, 0.005138309207, 0.003212883603, -0.006515276153, 0.000783322670, 0.033410001546, -0.016118358821, -0.008886694908, 0.002397575881, -0.001958227949, -0.005022036377, 0.002387545537, -0.032632157207, -0.020671797916, 0.003121132730, 0.028201762587, -0.016195286065, -0.019256237894, 0.013388268650, -0.015185936354, -0.042366359383, -0.026553835720, 0.020799072459, 0.003755042329, -0.028852092102, 0.010490773246, 0.004771328997, -0.022465985268, -0.009342405945, -0.004494559951, -0.011591614224, -0.013569981791, 0.006774289999, 0.002821007511, -0.022146901116, -0.020333213732, -0.021491140127, -0.002072119620, -0.019093845040, 0.001135484315, -0.006395053118, 0.018370183185, 0.001654330641, -0.017768444493, -0.014015544206, 0.016993599012, 0.003155455925, -0.014311329462, 0.007891158573, 0.000820544839, 0.020781613886, -0.033598005772, -0.016302248463, -0.014071047306, 0.020118957385, 0.007954947650, 0.001619006507, 0.001201457111, 0.001609779778, -0.027815127745, 0.007205360569, -0.013532338664, -0.013862790540, 0.005653820932, -0.010381931439, 0.020467229187, 0.009541114792, -0.026465976611, -0.004458067473, -0.022820046172, -0.006981574465, -0.010835562833, -0.010908876546, -0.014903723262, -0.001945995027, -0.022949054837, 0.000885061279, -0.006232251879, 0.014093101025, 0.006156984717, -0.004857889377, -0.016585621983, -0.005471032578, 0.000702273159, 0.023765750229, 0.008464781567, -0.017239496112, -0.003084340831, 0.020883901045, 0.003393454477, -0.004264907911, 0.008067927323, 0.004525354132, -0.012150556780, 0.001285579405, -0.003247315064, -0.013844909146, -0.004569983575, 0.019458411261, -0.007208802272, 0.006189094391, 0.004445871338, -0.016955403611, -0.000032378673, -0.013647395186, 0.026537129655, 0.001034723595, 0.022692572325, -0.016933297738, -0.002270736964, -0.004086292814, 0.024022839963, 0.005185641348, -0.010793706402, -0.014818437397, 0.017810218036, -0.007974562235, -0.009810782969, -0.006415558979, 0.018204696476, -0.009631622583, 0.004525055643, -0.006962869316, -0.000345687789, 0.000816723448, -0.011535138823, 0.014460746199, 0.022511715069, -0.011436768807, -0.001258730306, 0.002198648173, -0.037814930081, -0.004959444981, 0.006324943621, -0.007027265616, -0.008665728383, -0.007019042037, 0.026915650815, -0.024349210784, 0.018932452425, -0.006121636368, -0.006030926481, -0.000874046178, 0.002570728771, 0.018268227577, -0.026427268982, -0.019783072174, -0.004417200573, 0.010782978497, -0.029180349782, 0.009141596965, 0.056878671050, -0.000656531251, -0.006939638872, -0.001694450504, -0.038504611701, 0.020816132426, -0.001922983211, -0.043842531741, 0.009277318604, -0.014403793029, 0.029605252668, 0.015810122713, -0.019123213366, 0.003394677304, -0.008203792386, -0.009837773629, -0.025922114030, -0.014674378559, 0.001252380898, -0.034828674048, 0.029088204727, -0.020013161004, -0.022680465132, 0.002333831042, -0.017331594601, 0.018131418154, -0.061851091683, -0.112182199955, -0.086537711322, -0.029089763761, 0.027868041769, -0.087165832520, -0.059879139066, 0.013121499680, -0.027360863984, 0.048087559640, -0.033032119274, -0.069531649351, 0.039580497891, 0.031521949917, -0.048373904079, -0.014660787769, -0.109374448657, -0.002270528115, 0.000440860138, -0.013215615414, 0.004123983439, -0.137780100107, -0.097021095455, 0.006021283567, 0.001314686728, -0.026243828237, -0.027180882171, 0.007781313267, -0.043238151819, 0.003655596869, -0.052079774439, 0.000461506774, -0.040891166776, -0.119245804846, 0.041387204081, -0.172672107816, -0.012414928526, -0.125329270959, -0.074247278273, 0.010860918090, 0.033156875521, 0.018551422283, 0.066178239882, -0.123380519450, 0.016139205545, 0.044741015881, 0.077607385814, -0.034346994013, -0.077888928354, -0.028061566874, -0.060057051480, -0.163240343332, -0.035410255194, -0.226768359542, -0.036862105131, -0.058407999575, -0.085870660841, 0.057648982853, 0.008290927857, -0.001490216935, -0.068719148636, 0.013423620723, -0.094603143632, 0.006559741683, -0.033198520541, -0.061912670732, 0.021640542895, -0.034791883081, 0.043791655451, -0.043968960643, 0.034523088485, -0.027959046885, -0.041419029236, -0.011242691427, 0.111791148782, -0.088377662003, 0.028735749424, -0.015756608918, 0.075513444841, 0.052878696471, 0.038968719542, 0.032452777028, -0.097261123359, -0.122700452805, 0.001346369390, -0.145317003131, -0.119237400591, -0.057987004519, 0.025533277541, 0.034581292421, 0.048379361629, -0.030508145690, -0.097465425730, 0.013660497963, 0.001107740332, 0.043784108013, 0.021849345416, 0.091282762587, -0.065982662141, -0.069911375642, 0.039846986532, -0.001733667101, 0.080978088081, 0.042581211776, 0.039650268853, -0.062523648143, -0.075184129179, -0.048662997782, -0.007622090168, -0.036318331957, 0.065372198820, 0.062303315848, -0.006975325290, -0.076091945171, 0.040716849267, -0.015838330612, 0.015662388876, 0.007376762107, -0.070139363408, -0.014522754587, -0.001536155585, -0.020976332948, -0.040634423494, -0.087334066629, -0.019108984619, -0.024730822071, -0.044547677040, 0.001087463461, -0.048618514091, 0.037929605693, 0.002758841030, -0.060923084617, -0.040285315365, 0.129166737199, 0.059393953532, 0.143469929695, 0.092813730240, -0.036482058465, -0.039038721472, -0.155316248536, 0.037158675492, -0.034610092640, 0.081929914653, 0.122815065086, -0.005504061468, -0.093659467995, -0.024146091193, -0.001976329135, 0.052643164992, -0.120246723294, -0.073665924370, -0.016088470817, 0.027764536440, 0.017941785976, -0.049949169159, -0.068573370576, 0.022988358513, 0.027325693518, -0.188756376505, -0.095528058708, 0.017317008227, 0.015324489214, -0.065410353243, 0.044948421419, -0.090244174004, 0.107637986541, -0.006569824181, 0.021943088621, 0.013771996833, 0.108035959303, 0.020035859197, -0.100283853710, -0.067193210125, -0.083323173225, 0.050877895206, 0.097585506737, -0.052468933165, -0.011225228198, 0.069501101971, -0.048369407654, -0.088359162211, -0.035018008202, 0.021707620472, 0.103482514620, -0.000086838554, 0.041492260993, -0.014188856818, 0.076518416405, 0.054052479565, 0.012297696434, -0.091556660831, -0.009120004252, 0.080739662051, -0.044641256332, -0.023965224624, -0.030795291066, -0.064502179623, 0.019829284400, 0.022499583662, 0.000394588278, -0.039038550109, -0.029670435935, 0.015657298267, -0.118195585907, -0.032088469714, -0.050640586764, -0.045576952398, -0.030919920653, -0.039070393890, 0.024342013523, -0.068535655737, -0.086363598704, -0.054215162992, 0.030267549679, 0.015356861055, 0.021814290434, 0.046198382974, 0.054677825421, -0.010494687594, 0.114599399269, 0.059178553522, -0.082307115197, -0.072064325213, -0.067959479988, 0.009511570446, 0.080338947475, -0.078007616103, 0.030483344570, 0.025502270088, -0.035103466362, -0.083190552890, 0.024769498035, -0.027631029487, -0.028955306858, 0.018970672041, -0.149100974202, -0.081281550229, -0.056073211133, 0.000212570987, -0.057353530079, -0.015047878027, -0.099290162325, -0.112955003977, 0.082719698548, -0.042671885341, 0.001218336518, -0.021677885205, -0.053021628410, 0.007090238389, 0.000409356115, 0.009409091435, -0.088375173509, -0.013804637827, 0.007565778680, -0.152673259377, 0.071915999055, -0.040829703212, 0.057668004185, -0.017673207447, -0.003980744164, -0.030778113753, -0.016034951434, 0.035371586680, 0.060376450419, -0.014725584537, 0.004378808662, -0.023588335142, -0.078947030008, 0.024882314727, 0.012879255228, 0.005595572758, 0.049163855612, -0.048258773983, -0.040992774069, -0.004494353663, 0.062956802547, -0.012620728463, -0.078709788620, 0.037477333099, 0.072355598211, -0.024723662063, 0.016059271991, -0.079054765403, 0.003147147363, 0.093551702797, 0.029204878956, -0.106173902750, -0.085987180471, 0.009469036944, -0.013635417446, 0.013126149774, 0.020214760676, 0.031792204827, -0.009518259205, -0.001921155839, -0.005461621098, -0.005073353183, 0.000080608115, -0.020041368902, -0.004547289107, 0.016653632745, -0.019147723913, 0.000092869210, -0.004411968868, 0.001793706906, 0.029509499669, 0.024398658425, -0.035830922425, -0.003500988241, 0.037033665925, 0.007855968550, -0.003030473599, 0.021780120209, -0.022173821926, 0.000860571919, -0.004171729553, 0.005850939080, -0.028676632792, -0.028560156003, -0.003243792569, -0.017202567309, -0.033225096762, -0.008151101880, -0.015812544152, 0.019984800369, 0.002912090160, 0.006379887462, 0.013152623549, 0.010345299728, 0.004125587177, 0.005945380777, -0.031347624958, -0.011498278938, -0.017929894850, -0.020983958617, 0.004421927035, -0.020381767303, -0.000531545025, 0.032441444695, -0.035418204963, 0.015408623032, -0.056233275682, 0.010636275634, -0.045395746827, 0.016111591831, -0.042032834142, 0.002828460885, 0.000681510428, -0.028289761394, -0.017651509494, -0.031751703471, 0.022920526564, -0.015515106730, -0.062167339027, -0.021638030186, 0.019974334165, -0.040458980948, -0.041290964931, -0.012805465609, -0.030911635607, 0.023790383711, 0.020928112790, 0.016994455829, -0.053145386279, -0.029924731702, -0.044594921172, -0.032368283719, 0.017922120169, -0.000392404327, 0.020102998242, -0.005266632885, 0.003088310594, -0.013113399968, -0.034031193703, 0.006957172416, -0.033510606736, 0.004752153531, -0.016699742526, 0.011689358391, -0.014637529850, -0.007754049264, 0.006582356524, -0.004014516715, -0.024816673249, -0.006575709675, 0.022246377543, -0.012924239039, 0.010682427324, 0.029714163393, -0.022272987291, 0.009360012598, 0.021709669381, -0.006274836138, 0.013574402779, -0.050354044884, -0.015692612156, -0.038303103298, -0.007298261393, 0.000589086849, -0.002058551414, 0.023945149034, 0.016868822277, -0.002188819461, -0.011606856249, 0.033096607774, -0.027432439849, -0.000670403184, 0.008462519385, 0.007971580140, -0.002446625615, 0.031424686313, 0.000678176410, 0.020231828094, 0.070478007197, -0.043132063001, 0.009194433689, -0.016123361886, -0.011600800790, 0.018686063588, 0.007479148917, -0.026049248874, 0.008950507268, 0.065293639898, 0.013423265889, 0.003193530720, 0.026142099872, -0.001812212402, -0.015931883827, 0.000606189773, -0.052438363433, 0.034104533494, 0.002855916973, -0.012562929653, -0.047719847411, 0.062866427004, 0.023410486057, 0.029833851382, -0.008598498069, -0.008866228163, 0.002172169276, 0.023028474301, 0.013450951315, -0.014234655537, -0.002049211878, 0.008649433963, 0.030414022505, -0.051589418203, 0.023721428588, -0.004852911457, -0.000593843462, -0.023600971326, -0.037832949311, -0.008703860454, 0.032687831670, 0.021108537912, -0.004647803493, -0.028936842456, -0.004190890118, -0.012328622863, -0.044931571931, -0.054658506066, -0.005749405827, -0.005530463997, -0.008612744510, 0.008774156682, -0.025692623109, -0.005810319446, -0.029645729810, -0.031787637621, -0.052895318717, -0.025744792074, -0.009101249278, 0.017836600542, -0.012656428851, 0.006520537194, 0.000409466273, -0.003075916320, 0.012038479559, -0.042870361358, 0.013875409029, 0.035476922989, 0.047500744462, -0.035444390029, 0.005669885315, -0.034885425121, 0.007135304622, -0.005307918414, -0.016805076972, -0.022694287822, -0.001814177609, -0.021539749578, -0.036517098546, -0.030239999294, -0.011627503671, 0.038140967488, -0.017131645232, -0.054383371025, -0.030357729644, -0.026512239128, -0.005841424223, -0.028720017523, -0.009959641844, -0.001642390969, -0.041769154370, 0.008779422380, 0.038860529661, -0.011854783632, -0.011282976717, -0.025744250044, 0.010976946913, -0.046633213758, 0.027617361397, -0.008952151053, 0.030631657690, -0.028576483950, 0.003432570025, -0.054490193725, 0.025623492897, 0.012092685327, 0.023572707549, 0.001629513339, 0.006278911140, 0.001866688253, -0.056243173778, -0.036381855607, -0.026717653498, 0.020791018382, -0.028858974576, 0.027783062309, -0.031571775675, 0.017896506935, 0.043191056699, -0.033048029989, 0.015517790802, -0.003491372336, 0.014840928838, 0.008315786719, -0.028477312997, -0.002705360763, -0.022805556655, -0.020069243386, 0.054242011160, -0.050143726170, -0.001285779290, -0.035881314427, 0.024602167308, -0.022944318131, 0.011488124728, -0.011292146519, 0.015766317025, 0.013946107589, -0.008545296267, -0.008918715641, -0.019160037860, -0.020414689556, -0.025137998164, -0.033682070673, 0.000771386374, -0.032883077860, 0.001053828397, -0.008847523481, 0.007084772456, -0.054181315005, -0.019278608263, -0.022177666426, -0.025778645650, -0.020938331261, -0.034148558974, 0.019485814497, -0.018034180626, -0.004267098848, 0.014770127833, 0.038455151021, -0.002423787024, -0.057113170624, 0.022057807073, -0.067760147154, 0.007523765322, 0.008300316520, 0.017770633101, -0.068600825965, 0.041160725057, -0.027379052714, 0.004557078239, 0.034877043217, -0.014613748528, -0.022097580135, -0.017489764839, -0.007407664321, -0.036543544382, 0.013107209466, 0.014019993134, -0.014286724851, 0.102297887206, 0.028370987624, 0.041082505137, 0.036770634353, -0.117026127875, 0.019555456936, -0.090433418751, -0.085361108184, -0.020252263173, -0.013123109005, 0.070486657321, -0.014822311699, 0.035763800144, -0.044556345791, 0.009942701086, 0.024719042704, -0.023042356595, 0.019296845421, -0.026823502034, -0.029999079183, -0.010262202471, -0.011693793349, -0.046173296869, 0.004484953359, 0.001838892931, -0.015861004591, -0.064999438822, 0.022098278627, -0.022677617148, 0.087922126055, -0.063244298100, -0.103751823306, 0.061776861548, -0.066161863506, 0.031384315342, -0.003357614856, -0.083146713674, -0.037500746548, -0.011789184995, -0.037946891040, -0.014416932128, -0.041013635695, 0.059526354074, 0.015228232369, 0.011747568846, 0.023266501725, -0.017164370045, 0.030118947849, 0.077514015138, 0.013369583525, 0.006712822244, -0.051109883934, -0.021679800004, -0.056010272354, -0.130436271429, 0.055153012276, -0.001394086750, 0.027873972431, -0.039506062865, -0.056137427688, -0.045530453324, 0.012391550466, 0.114002197981, -0.030337607488, 0.022675802931, -0.045383445919, 0.001301913173, 0.021271688864, -0.145371899009, -0.025647388771, -0.069677107036, -0.018822951242, 0.087862260640, 0.041322693229, 0.047437720001, 0.044787738472, -0.079887434840, -0.077691793442, 0.039195526391, 0.002678157995, -0.096789598465, 0.041589576751, 0.005931162741, -0.046961002052, 0.036627966911, -0.060759086162, -0.039925072342, -0.106319069862, 0.036493066698, 0.010724677704, -0.059706304222, 0.015203176998, -0.023810524493, 0.009118353948, 0.023727506399, -0.051105156541, -0.035194776952, -0.004468772560, -0.095449186862, -0.055979758501, -0.183608278632, 0.006036729086, -0.052438754588, -0.009941526689, 0.009661822580, -0.047243934125, -0.006550359074, -0.043998554349, -0.063736349344, -0.057887602597, -0.026295632124, -0.004463711288, -0.013208270073, -0.037499252707, -0.001241235295, 0.008508824743, -0.031873900443, 0.035230800509, -0.057940822095, 0.008119583130, -0.020057555288, -0.033665012568, -0.053360901773, 0.012379680760, -0.043700732291, -0.010676658712, 0.032004468143, 0.027608504519, 0.046618055552, 0.066523388028, -0.023023823276, -0.025753255934, -0.013524390757, -0.061240971088, -0.054572496563, -0.042141314596, -0.038283128291, 0.051576890051, 0.040234651417, -0.087498761714, -0.068051621318, 0.039339259267, 0.008756742813, 0.017021361738, -0.042832810432, 0.000874750258, -0.043295294046, -0.013269619085, 0.032324813306, 0.075309522450, -0.036132059991, -0.027580821887, 0.003715705127, -0.001329458668, -0.134787365794, 0.021594289690, 0.022204671055, 0.044816847891, 0.044373299927, -0.113066449761, -0.022081561387, 0.014697234146, 0.006081376690, 0.068983338773, -0.108276046813, 0.006877647713, -0.021970164031, -0.074262380600, -0.008250817657, 0.064924627542, -0.037972170860, -0.023321192712, -0.034902550280, -0.043679937720, 0.029766580090, 0.008395412005, 0.003077425063, 0.011308468878, -0.043564584106, -0.028091710061, 0.021920744330, 0.048821195960, -0.003878796939, -0.050733692944, 0.029817668721, -0.009946488775, -0.117282979190, 0.023504273966, -0.020297199488, 0.098495274782, -0.025656340644, -0.041468657553, 0.041026279330, 0.050625134259, 0.046408474445, -0.015935020521, -0.110364995897, -0.047805063426, 0.003128110897, 0.002166289603, -0.024197906256, 0.012567668222, 0.003582271747, -0.093670271337, -0.031028639525, -0.115665934980, 0.048541061580, -0.014810035937, -0.052766948938, 0.001057620626, -0.044170405716, -0.070686504245, -0.011641792953, 0.113830596209, 0.058607071638, 0.024385185912, 0.041840396821, 0.014824446291, -0.109943985939, -0.025890039280, -0.018834395334, 0.084932081401, -0.060329675674, -0.014674672857, 0.103797167540, 0.044866036624, 0.091452173889, 0.038178853691, -0.052586067468, -0.028723670170, -0.061685334891, -0.105975136161, 0.017722589895, 0.020115505904, 0.049098890275, -0.020447971299, -0.002834383398, 0.015822492540, 0.015287664719, -0.041221328080, -0.053480073810, 0.066481284797, -0.038594085723, -0.035261053592, -0.027465946972, 0.034158229828, 0.003301694756, -0.107759036124, 0.002274978906, 0.001990108052, -0.113113299012, -0.005645416677, -0.079254887998, 0.100111708045, -0.062750384212, -0.008898487315, 0.020286008716, 0.020456478000, -0.006783155724, -0.070773951709, -0.084498599172, -0.072927296162, -0.025812000036, -0.052475638688, -0.065878026187, 0.066507704556, 0.034717332572, -0.061392344534, 0.033567886800, -0.029912522063, 0.036792822182, 0.040735885501, 0.050345458090, -0.031702402979, 0.015841593966, 0.013592025265, 0.033600077033, -0.000829278200, -0.061650488526, 0.057490032166, 0.014935880899, 0.157662391663, 0.082753650844, 0.064356632531, 0.027574054897, 0.041680678725, 0.099207788706, 0.023590382189, -0.012809476815, 0.041940983385, -0.051208503544, 0.060078587383, -0.048996027559, 0.022024225444, -0.052365716547, 0.045557487756, 0.107852004468, 0.019859941676, -0.056678213179, 0.035746246576, 0.052043978125, -0.009877305478, 0.047492109239, -0.016927156597, 0.043919548392, -0.093277074397, 0.063236631453, 0.124587148428, 0.008327949792, -0.023170066997, -0.025348367169, -0.032222751528, -0.055614959449, -0.043794155121, -0.032953549176, 0.072952121496, -0.070895150304, 0.038305114955, 0.014562744647, 0.038657456636, 0.035386990756, 0.113684579730, 0.072891615331, 0.088682234287, -0.058860018849, 0.013857143000, -0.115441665053, 0.110192514956, 0.030396170914, -0.010124985129, -0.035374689847, -0.058362562209, -0.028841994703, -0.033833850175, 0.053432673216, -0.010258005001, 0.017585834488, -0.044079679996, -0.063366256654, 0.042021319270, 0.040774691850, -0.046563036740, 0.127763316035, 0.052240073681, -0.049181364477, 0.033869307488, 0.099283717573, 0.123000957072, 0.030000932515, 0.032626483589, 0.036261636764, 0.035356968641, 0.015229658224, 0.093095444143, 0.027354802936, 0.115718007088, -0.034746907651, 0.038547940552, -0.136236935854, 0.033922199160, -0.042949113995, -0.051496561617, -0.018636316061, -0.122687458992, -0.054490067065, -0.006018984597, 0.014873359352, 0.017111714929, -0.132093608379, -0.017492314801, 0.064519435167, 0.009360082448, 0.137996509671, 0.000914096425, 0.070913285017, 0.034571077675, -0.029786702245, -0.035228252411, -0.045985955745, -0.104351930320, -0.069306820631, 0.043678991497, 0.059071164578, -0.003666029777, -0.005431119353, -0.002354310825, -0.065918229520, 0.061552051455, -0.047796115279, -0.089760117233, 0.091464288533, 0.060611315072, 0.016950950027, -0.046130508184, -0.012189083733, -0.070367343724, 0.015581072308, 0.122439563274, -0.019412906840, 0.077372521162, -0.051681049168, -0.094754107296, 0.032452929765, -0.016928674653, 0.047490477562, -0.002012124751, 0.054673425853, 0.012919131666, 0.081728741527, -0.063298590481, 0.046499598771, 0.071218885481, -0.052377544343, 0.180449143052, 0.044440541416, -0.032337918878, 0.023528452963, -0.007472813595, -0.120957002044, 0.072257399559, -0.083534494042, -0.029584363103, 0.007093468681, -0.021427093074, 0.010990698822, 0.039194077253, 0.038734748960, -0.061855733395, -0.050357125700, -0.012642765418, -0.173096641898, 0.093552187085, 0.002919035265, -0.094049885869, 0.047679871321, 0.052049167454, 0.027041340247, -0.060434482992, -0.052729409188, -0.030021198094, -0.025645993650, 0.017239946872, -0.147928968072, 0.121019504964, -0.007610084955, 0.161605149508, 0.015558135696, -0.021108767018, 0.110493801534, -0.035182815045, 0.057892497629, -0.011629818939, -0.080694615841, 0.060413211584, -0.092220291495, 0.014245280065, 0.018104426563, 0.045733328909, 0.160558998585, -0.045474287122, -0.079085581005, 0.087774612010, -0.030786316842, 0.113034985960, 0.083064697683, -0.050237897784, 0.024640521035, 0.038346625865, 0.153750255704, 0.082423150539, -0.064344048500, 0.114962972701, -0.055850688368, 0.057123780251, 0.000128644926, -0.000129434891, -0.038598421961, 0.086960889399, 0.038444060832, -0.003199907718, -0.091425947845, 0.065287820995, 0.074370153248, 0.041720941663, -0.008331304416, 0.021217690781, -0.003900713520, 0.097287066281, 0.020596740767, -0.132391095161, -0.038471926004, -0.040816776454, -0.014551328495, 0.063936889172, -0.037712376565, -0.001026250073, 0.111883856356, 0.057969421148, 0.071026138961, 0.114002697170, 0.112757757306, 0.065917052329, 0.007231769152, 0.104609452188, -0.128559246659, -0.046011753380, -0.082063153386, -0.011651076376, -0.059338901192, 0.080275520682, 0.016929095611, 0.045169409364, -0.107831120491, 0.085259482265, 0.067041754723, 0.114330232143, -0.084918916225, -0.075551636517, 0.024344725534, 0.129574716091, 0.040688991547, -0.056046016514, 0.034186951816, 0.068587318063, -0.050558310002, 0.007883298211, 0.078191354871, -0.001698313048, 0.073378816247, -0.034830637276, 0.069196447730, 0.012670032680, -0.018523007631, 0.009056865238, -0.023167850450, 0.005317414645, -0.146451726556, 0.007734821178, -0.080535471439, -0.021341243759, 0.024241754785, 0.098676390946, 0.094458289444, -0.058203581721, -0.068709239364, 0.043796066195, 0.060623738915, 0.028290942311, -0.105187557638, 0.026766449213, -0.006108716130, 0.182453870773, 0.111828759313, -0.091674089432, -0.079292774200, -0.052454542369, 0.055346865207, -0.044168408960, 0.122482217848, -0.095158495009, -0.000748169841, -0.007869011723, 0.048449218273, 0.079456068575, -0.131966277957, 0.005541401450, -0.036781270057, -0.009498419240, 0.018167354167, 0.029315913096, -0.081308141351, -0.013783929870, 0.036418132484, 0.037274345756, -0.102610789239, 0.005532516632, -0.043301623315, -0.043238103390, -0.055625446141, -0.001518817386, -0.009973584674, 0.044073503464, -0.003223202890, 0.038977786899, 0.039045050740, -0.091460503638, 0.023754771799, -0.011415020563, -0.044236831367, 0.005680750590, -0.069705091417, -0.017778517678, -0.018466923386, -0.030391855165, -0.051039267331, -0.052280925214, -0.026792477816, 0.058355022222, 0.084492914379, 0.014591000974, 0.035925187171, 0.019978310913, -0.007832540199, -0.027334725484, 0.050428368151, -0.063685998321, 0.025732858106, 0.014839355834, -0.121055901051, 0.009118875489, -0.102447196841, 0.058663241565, 0.002857515821, -0.081542864442, 0.040725249797, -0.003751106560, 0.043564811349, 0.010460192338, -0.048320632428, 0.008380387910, -0.003478753613, -0.010079545900, -0.047845724970, -0.018395189196, -0.063435114920, -0.055695932359, -0.016460372135, -0.011476528831, 0.004618889187, 0.021174639463, 0.032058715820, 0.025287760422, -0.048450887203, 0.012690890580, -0.002709827386, -0.006338990293, -0.005095424596, -0.020608957857, -0.018541079015, 0.024798166007, -0.059378661215, 0.056289430708, -0.026926925406, 0.048601690680, -0.070682384074, 0.061821591109, 0.084762550890, -0.096892662346, 0.003574264701, 0.026758302003, 0.032498721033, 0.007203354500, -0.023637844250, -0.162292152643, -0.027501432225, 0.015118279494, 0.013851022348, -0.090276837349, -0.010395544581, 0.047283601016, -0.005293235183, -0.018492268398, 0.081562131643, 0.027077358216, -0.122560359538, -0.063888229430, -0.048992484808, -0.067266464233, -0.017717927694, -0.003349119565, -0.077693141997, 0.057930402458, -0.098765291274, 0.004191588145, -0.098555520177, 0.054740615189, -0.017399769276, -0.022534335032, 0.104858018458, -0.054640047252, -0.020589465275, -0.081987805665, -0.077717445791, 0.039566107094, -0.019911821932, -0.080118052661, -0.085867278278, -0.073257729411, -0.007247355301, -0.030654197559, -0.044779494405, 0.026150045916, -0.031289879233, 0.091783560812, 0.045505981892, 0.012481383048, -0.051016978920, -0.015590405092, -0.030722912401, 0.030649507418, -0.047487761825, 0.090058825910, 0.033666923642, 0.037583842874, -0.041025973856, -0.078520469368, -0.069753073156, 0.071531414986, 0.021501513198, -0.032390233129, -0.034818556160, 0.033729683608, -0.052145849913, -0.030288968235, -0.163067623973, 0.016670806333, -0.066944070160, -0.146170094609, 0.062831252813, -0.010756973177, 0.099847309291, 0.012040373869, -0.004815363325, 0.068456463516, 0.023919690400, 0.009313827381, -0.001586752594, 0.100327752531, 0.026447961107, 0.024961031973, -0.040785726160, 0.010903698392, 0.005350952037, -0.018021654338, 0.071273937821, -0.006326507777, -0.032116934657, 0.078704997897, -0.124494969845, 0.001698462409, -0.069209456444, -0.006951608695, 0.056345500052, 0.011624496430, 0.007326189429, -0.015197823755, -0.092298761010, -0.018240815029, 0.044298499823, -0.040134280920, -0.022583583370, 0.016180044040, -0.075089767575, -0.025352736935, 0.002175632864, 0.000772826374, -0.132264062762, -0.037406396121, -0.031028287485, 0.034427128732, 0.041512038559, -0.017514109612, -0.031390219927, -0.031729120761, -0.068107925355, -0.028625445440, -0.135652750731, -0.008044508286, -0.016874859110, -0.016621908173, -0.064341746271, -0.102784849703, -0.124999962747, -0.027249446139, -0.096636466682, -0.079479269683, -0.046222541481, 0.069953069091, 0.132341533899, -0.022669687867, -0.095248207450, 0.000875792757, -0.009577323683, -0.046750798821, -0.077942997217, 0.043250568211, -0.061386708170, -0.036930304021, -0.019462265074, -0.003632606007, -0.019850632176, -0.036816671491, -0.029986038804, 0.015866411850, -0.113480821252, 0.056748479605, 0.001171450946, 0.025573868304, -0.035247292370, -0.053993958980, 0.039923045784, -0.035763982683, -0.008771163411, -0.113732859492, -0.085229091346, 0.014308057725, -0.094286464155, -0.017714055255, -0.060367804021, -0.009718961082, -0.035675715655, -0.182887807488, -0.104392632842, -0.002126856009, -0.059051703662, 0.014121540822, -0.004686481785, 0.008867215365, 0.068390078843, -0.131913095713, 0.001807120163, -0.100778169930, -0.035021703690, -0.082916930318, 0.069259680808, -0.022166792303, -0.101119957864, 0.018961310387, -0.046704262495, -0.061008434743, -0.136210426688, -0.069102086127, 0.038955535740, -0.029189761728, 0.043473228812, -0.065263770521, -0.096512153745, -0.049210499972, -0.061000525951, -0.024371122941, -0.003727520816, -0.009373030625, -0.039880264550, -0.031528756022, -0.012192583643, -0.034575037658, -0.001554167480, 0.016865685582, 0.019378297031, 0.015648841858, -0.019189981744, -0.005917750299, -0.003445124719, -0.035584907979, -0.004189839587, -0.012684280053, -0.037463154644, -0.007603839040, 0.003237806726, -0.034597009420, -0.008084095083, -0.039158724248, -0.030313368887, 0.005194009282, 0.014830217697, -0.021089879796, 0.010802674107, -0.057033348829, 0.040698185563, 0.010651932098, 0.012990212068, -0.025253558531, 0.005653490778, -0.039330873638, 0.050395421684, 0.019739991054, 0.013395326212, -0.012103559449, -0.016249688342, -0.015129627660, -0.009493711405, -0.034946009517, -0.034453850240, -0.000944059750, -0.032878238708, 0.018689407036, 0.020184528083, -0.005520963110, 0.018205566332, 0.018057430163, -0.040505770594, -0.004379812162, 0.012365700677, -0.025058811530, 0.000055358199, -0.036436975002, 0.026889864355, -0.042881093919, -0.034018892795, 0.026130672544, -0.004431719892, -0.028482815251, -0.036852497607, 0.003015262308, -0.014788693748, 0.020357219502, 0.002297834028, -0.018192008138, 0.001445019967, -0.017576722428, -0.007873671129, -0.024559196085, -0.032235872000, 0.003730526194, -0.042382501066, -0.024911830202, -0.032634064555, -0.020191909745, 0.007354672533, 0.018110632896, -0.008667485788, 0.008027224801, -0.022353103384, -0.016356792301, -0.000763352378, -0.027937697247, -0.000523763592, -0.025253552943, -0.013948934153, -0.019306499511, -0.053368538618, 0.045906793326, 0.013907957822, -0.001192971133, 0.039067912847, -0.004953939002, -0.026771966368, -0.004435949493, 0.003544881707, 0.008606589399, -0.005380576476, 0.036229379475, -0.002956265584, -0.001101214439, -0.027861664072, -0.040747568011, -0.017978161573, -0.028760423884, 0.030161518604, 0.020273411646, 0.024289749563, -0.036527715623, 0.020276574418, -0.004995587282, 0.066516779363, -0.044712431729, 0.032815124840, 0.006654452998, -0.027371475473, 0.016589740291, -0.063459984958, -0.016842562705, 0.051992110908, -0.043664202094, 0.049604468048, 0.009552967735, -0.037206448615, 0.013887458481, -0.048861965537, -0.003151520155, 0.008592260070, -0.008061365224, 0.082693949342, -0.046445615590, -0.038887597620, 0.001268515713, -0.028400026262, -0.006950558163, 0.038720671088, -0.003271697555, 0.003489952534, 0.046165607870, 0.071750029922, 0.045038249344, 0.019264062867, -0.025061488152, -0.018596569076, 0.020017346367, -0.026471626014, -0.001759872073, -0.006173151080, 0.043253120035, -0.025845997036, 0.005298345815, 0.019856793806, 0.020688690245, 0.016717568040, -0.003165717935, -0.049305647612, 0.002484154655, -0.018284987658, 0.058565627784, -0.003818711266, -0.012026449665, 0.048438232392, -0.033449348062, 0.026673212647, -0.001288251369, -0.015795553103, -0.011374510825, -0.011420073919, -0.003469735850, 0.038103438914, -0.005769541021, 0.057587865740, 0.021251300350, -0.012574396096, -0.017299411818, -0.044160500169, -0.015443220735, -0.034999642521, 0.002523868578, -0.019582103938, 0.019805345684, 0.017412550747, 0.003422488458, -0.012652761303, -0.020257297903, 0.011590037495, -0.004999129567, -0.028441499919, -0.046587325633, 0.002670231974, -0.005203946959, -0.064271256328, -0.000441837474, 0.068881466985, -0.034063577652, 0.015527493320, -0.026499759406, -0.064483471215, -0.005261994433, 0.021966543049, -0.016940716654, 0.010076854378, -0.006700537633, -0.008423186839, 0.029467860237, -0.005467194133, 0.008618587628, -0.013952263631, -0.006005955860, 0.011385998689, 0.013018335216, 0.015702763572, 0.020202513784, -0.013554453850, -0.000838647946, -0.030521953478, -0.022766053677, 0.021020259708, -0.014136342332, -0.000344944885, -0.009937237948, -0.004996395204, 0.018226541579, -0.046931751072, 0.006072128657, 0.030848728493, -0.004481439944, -0.001021162258, 0.007075236179, 0.011932753026, -0.000353203737, 0.037537556142, -0.005404366180, 0.032242119312, -0.019495692104, 0.020913252607, -0.045669116080, 0.007002683356, -0.040242090821, -0.033082012087, -0.000331959454, -0.025859033689, 0.022623961791, -0.011989927851, -0.000960740261, -0.027569169179, 0.000010341197, -0.007287228946, -0.028170615435, 0.032172422856, -0.024666905403, -0.027903972194, -0.012257402763, -0.034674957395, -0.002263156697, 0.024586116895, 0.011928304099, 0.043338838965, -0.046037856489, -0.022933464497, -0.044709194452, 0.010113271885, -0.012804385275, 0.037959478796, -0.008078677580, 0.053168043494, -0.020680196583, 0.004171235487, -0.014801026322, -0.022135131061, 0.001527746790, 0.020887093619, -0.041175134480, -0.016462231055, -0.014670036733, -0.001098376466, 0.029591698200, 0.006864663679, 0.003437309060, 0.026470720768, 