//Numpy array shape [3, 3, 64, 64]
//Min -0.342507362366
//Max 0.297118186951
//Number of zeros 0

#ifndef W22_H_
#define W22_H_

#ifndef __SYNTHESIS__
model_default_t w22[36864];
#else
model_default_t w22[36864] = {-0.004392868839, 0.001936175860, -0.022059956565, 0.010204469785, -0.032424211502, -0.017829224467, -0.042133625597, -0.027707062662, -0.034330561757, -0.004129647743, 0.004707151093, 0.010778006166, -0.025242857635, -0.021914720535, -0.047690782696, -0.011215605773, -0.023758104071, 0.021354006603, 0.081944674253, -0.020925976336, -0.017742302269, -0.021711114794, -0.078074455261, 0.004412401468, 0.058395829052, 0.008312343620, -0.014629773796, 0.022038610652, -0.034772049636, -0.018313430250, 0.031144162640, -0.046591784805, 0.010290171951, -0.065971314907, 0.000644711894, -0.008035638370, -0.051242668182, -0.028276197612, 0.026580845937, -0.093744970858, -0.011270074174, 0.006788585801, 0.020802674815, 0.041621007025, 0.011818792671, 0.041267596185, -0.016536992043, 0.007379611023, -0.000502191891, 0.003597621806, -0.017066394910, 0.020048156381, -0.047078594565, 0.015970425680, -0.034568857402, 0.017080046237, -0.014844150282, 0.033678598702, -0.031835153699, 0.027410732582, -0.023472430184, -0.012320902199, -0.002903210465, 0.002982675564, -0.018251633272, -0.018309978768, -0.062512457371, -0.002657577395, -0.028834221885, 0.064617484808, 0.021664801985, -0.001331484294, -0.031347166747, -0.006968198810, -0.013511891477, -0.032785680145, -0.014916486107, -0.092742696404, -0.017056081444, 0.023942928761, -0.008838742040, -0.001712179510, 0.086808592081, 0.004504311830, -0.047184333205, -0.045172456652, -0.046415828168, -0.102906644344, 0.011933508329, -0.032790493220, -0.009061870165, 0.030273517594, 0.006754065864, -0.029492992908, 0.002453620546, 0.021349616349, 0.039102591574, 0.011210197583, 0.043297037482, 0.016309726983, 0.071276061237, 0.025593012571, 0.015204182826, -0.037491917610, -0.002586343559, 0.003766251961, -0.042439971119, 0.019301051274, -0.027059193701, 0.008288886398, 0.004900900647, 0.000317427941, -0.011739166453, -0.026219833642, 0.024802070111, -0.050462685525, -0.009982180782, 0.002231731080, 0.010887488723, 0.058603018522, -0.064943559468, 0.076968520880, 0.011256950907, -0.001332201529, 0.073530279100, -0.003757887520, 0.032080166042, -0.008511294611, 0.000591510558, -0.001958465902, -0.009475309402, 0.000894715951, -0.039914213121, -0.046346172690, 0.060706581920, -0.024612098932, 0.062410160899, 0.005967396311, 0.000866985414, -0.006527277175, 0.007010061294, -0.007746153977, 0.025250567123, -0.047019779682, -0.041395563632, 0.019653081894, 0.013961183839, 0.054506458342, 0.001514283707, -0.012171687558, 0.029729042202, -0.006132313982, -0.049373503774, -0.020099507645, -0.047870729119, 0.009472658858, -0.039734750986, -0.018723146990, -0.007397273090, 0.080126926303, 0.000549484859, 0.007178184576, 0.009310170077, 0.031294148415, 0.016325525939, 0.020583076403, 0.015372672118, 0.015000162646, 0.038271699101, -0.005656995811, -0.028718890622, 0.012813788839, 0.002976184478, 0.005867199972, -0.021633427590, 0.006525589619, 0.005109574646, -0.055609948933, 0.022266088054, -0.011061247438, -0.039839960635, 0.010528095067, -0.036033168435, 0.023598162457, -0.007574133109, -0.011743267067, 0.040126103908, 0.088771998882, 0.028030192479, -0.019458640367, 0.007580479607, -0.024737795815, -0.007647526916, -0.035431396216, -0.084151536226, 0.021020982414, -0.069962821901, -0.000314557517, 0.049175035208, 0.017354566604, -0.030897203833, 0.040943924338, -0.026687676087, 0.029981324449, -0.018222607672, 0.000992395449, -0.035800099373, 0.039025604725, 0.046370614320, -0.006415293086, 0.009383415803, -0.019604798406, 0.040305014700, -0.012733414769, -0.061249822378, -0.093219652772, 0.034330677241, 0.049615241587, -0.004759822506, -0.050835575908, -0.006927008741, -0.036786783487, -0.058452568948, -0.014919717796, -0.000308625895, -0.012305044569, 0.002824404277, -0.057328589261, -0.062435138971, 0.054566483945, -0.028236858547, -0.043785639107, -0.020126789808, -0.024719405919, 0.014229838736, 0.017387874424, -0.001948201214, -0.013594178483, -0.051600534469, -0.027000352740, -0.021885635331, 0.007134685293, 0.038885325193, -0.038156818599, -0.071859978139, -0.018452771008, 0.020786410198, -0.058695614338, 0.038539659232, 0.009294973686, 0.015371134505, -0.072892606258, -0.100123353302, -0.055323775858, -0.007574518677, -0.035468529910, -0.008677700534, -0.027718909085, -0.015965502709, -0.030207367614, 0.028735402972, 0.022745609283, 0.015108077787, 0.092125266790, -0.024827260524, -0.007443030830, -0.049905687571, 0.003947980702, -0.005445885006, -0.004031734075, 0.015568355098, 0.063587360084, 0.024631954730, -0.030998224393, 0.025593483821, -0.010461258702, -0.054676018655, -0.034939598292, -0.042147018015, -0.111410625279, 0.059167101979, 0.022180948406, -0.035632185638, -0.023205338046, 0.032474417239, 0.002890219446, -0.010875771753, -0.054744642228, 0.006623619702, 0.019420687109, 0.009140726179, 0.016243422404, -0.065551228821, -0.021572960541, 0.051918491721, -0.048081059009, -0.012090702541, -0.008579766378, -0.054515630007, -0.018303461373, -0.034331090748, 0.030723499134, 0.061393957585, 0.004886596464, 0.049343865365, -0.042307607830, 0.008314462379, 0.015717543662, -0.022838355973, 0.029607668519, 0.086293213069, 0.026609864086, -0.010539532639, -0.048684313893, -0.009907769971, -0.112588971853, -0.002333050594, 0.009407919832, 0.051633600146, -0.045333534479, 0.000371770235, -0.020600242540, -0.066262327135, -0.006169621833, 0.002183016855, -0.011714261957, 0.075914695859, 0.053428705782, 0.006124047097, 0.009822990745, -0.077052488923, -0.028666935861, -0.004146907944, 0.002791543491, -0.002760829404, 0.038194980472, -0.002526647178, 0.023683398962, 0.032628871500, -0.034936726093, -0.052510015666, 0.032117728144, -0.004854694474, -0.100000701845, 0.027858374640, 0.010797885247, 0.003871923080, 0.013226944953, 0.026590580121, -0.006446254905, 0.002600291045, -0.055902492255, 0.066992230713, 0.042139254510, -0.110858015716, -0.007563711610, 0.010597294196, 0.016455039382, 0.065267473459, 0.003425125964, -0.034490961581, -0.008383980021, -0.008852455765, -0.019956430420, 0.001021640608, 0.052237257361, 0.022002337500, 0.014952351339, 0.010462741368, 0.036380022764, -0.025688258931, -0.001766765141, 0.074425116181, 0.028073597699, 0.042727254331, 0.051687464118, 0.036967564374, -0.022162022069, -0.009052712470, -0.049915067852, -0.055012863129, 0.011164659634, 0.007655399386, 0.006046484690, 0.014542605728, -0.031167520210, -0.013030405156, 0.054398983717, 0.000002327955, -0.052466567606, 0.072472706437, -0.009084576741, 0.054332740605, -0.008101265877, 0.039997093379, 0.000931198651, -0.012913012877, -0.011732481420, 0.010874176398, 0.006938680075, -0.025925405324, -0.084637992084, -0.001553335343, -0.056962963194, -0.024682497606, 0.031641546637, 0.026220843196, -0.059231705964, -0.088370159268, 0.042654950172, 0.009627933614, -0.007663967554, -0.019390862435, -0.015080542304, 0.001511520939, 0.002261468209, -0.025066863745, 0.021300369874, -0.043818689883, 0.015859602019, 0.016372280195, 0.000325186324, -0.011342658661, -0.010042201728, 0.024409500882, 0.009325466119, 0.029443960637, -0.011776112951, 0.017512237653, -0.061075780541, -0.054840508848, -0.036219324917, -0.020286487415, 0.001681221300, 0.014559987932, 0.004009953700, -0.052767436951, 0.022459577769, -0.011713722721, -0.057283174247, -0.046692263335, 0.067815862596, 0.032339252532, -0.037817258388, -0.066619224846, -0.069387137890, -0.042829945683, -0.005580444820, -0.065731436014, 0.004053578712, 0.028426481411, 0.032650761306, -0.023341175169, -0.026535842568, -0.043059881777, 0.061102315784, 0.010955498554, -0.043488238007, 0.008216880262, -0.004544841591, 0.002013565740, 0.042451478541, -0.013100444339, -0.057623129338, -0.040505442768, -0.075338102877, 0.030464505777, 0.019675703719, 0.006244411226, 0.063907802105, -0.020917247981, -0.002715926617, -0.073912166059, -0.012416219339, -0.009887729771, -0.004253298510, -0.023145135492, 0.066212631762, -0.019889952615, 0.055807296187, 0.024598559365, 0.059736803174, -0.045595120639, -0.026206869632, 0.000111671798, 0.033328801394, 0.013336483389, 0.039887256920, 0.028876535594, 0.017430737615, 0.028580415994, -0.012578317896, 0.034255962819, -0.066979683936, -0.015298256651, -0.051077093929, 0.020629791543, -0.047716226429, 0.015110380948, -0.035927627236, -0.000845834671, -0.017185371369, 0.002339056227, -0.028487117961, -0.010482653975, -0.010503744707, 0.024516275153, 0.039612777531, 0.071554824710, -0.029576083645, 0.027460629120, -0.032995026559, 0.016639372334, -0.010151297785, 0.054161198437, 0.069870516658, -0.034742806107, -0.062262628227, -0.000225845855, 0.075806520879, -0.002124278340, -0.032326146960, 0.010380314663, 0.016317617148, 0.032260026783, -0.024902930483, 0.031563285738, 0.042216733098, -0.050249036402, -0.082189545035, 0.012996506877, -0.043753486127, 0.005071414635, -0.003384647658, -0.001315834583, -0.004239782225, 0.021339721978, -0.036253675818, -0.005916655064, 0.035431843251, 0.014542759396, 0.027379272506, -0.015140436590, 0.031335443258, 0.020850667730, 0.080403044820, -0.062067631632, -0.056823242456, 0.010772977956, 0.023775737733, 0.002681240207, 0.020115185529, -0.016138194129, -0.015599440783, 0.040440991521, 0.003115684725, -0.022226421162, -0.020979028195, 0.022081101313, -0.035830520093, 0.031371600926, 0.004430249333, -0.007572711445, 0.016194662079, 0.009727454744, 0.039017587900, -0.008412587456, 0.011559853330, 0.018628463149, -0.059904400259, 0.010638023727, -0.025284931064, 0.024117305875, -0.074823103845, 0.035008884966, 0.085477046669, -0.020761659369, -0.055099070072, 0.024482496083, 0.012793557718, -0.013494199142, 0.012087219395, -0.050351809710, 0.001287176041, 0.006656333338, -0.024371508509, -0.015499683097, -0.022361125797, 0.003032771638, 0.001131584984, -0.015941532329, -0.011513577774, -0.022480407730, -0.002634793287, -0.022007809952, -0.000771609426, 0.003567347070, 0.019619012251, 0.015502485447, -0.027466200292, -0.007211752236, -0.002894410398, 0.010449506342, -0.060540858656, 0.000135951981, -0.011624148116, -0.020754665136, -0.016143163666, -0.012058858760, 0.008187011816, -0.028912747279, -0.000511211692, 0.008045553230, -0.072107806802, 0.007000572514, 0.008495844901, -0.060001943260, -0.027158357203, -0.031712375581, 0.010109664872, -0.037528045475, 0.028552021831, -0.014003684744, -0.016859475523, -0.010727643035, 0.026003899053, -0.004101492930, -0.042387761176, -0.011555587873, -0.030596403405, -0.043121252209, 0.018165234476, -0.007134362590, 0.012756781653, 0.010637590662, -0.027000920847, -0.033264715225, 0.033029876649, -0.015677114949, -0.012142638676, -0.076733499765, -0.029570961371, -0.008217238821, -0.014326806180, 0.027924604714, -0.011196914129, 0.000117636526, 0.006239035632, -0.000731570763, 0.011967701837, -0.005709815305, -0.021134248003, -0.037440679967, -0.009586306289, -0.015306246467, -0.045348580927, 0.001691138954, 0.030185353011, 0.021783417091, -0.026721347123, 0.001965393545, -0.013003542088, -0.075135186315, 0.018316287547, 0.034279108047, 0.006660797633, 0.006445346866, -0.058521099389, -0.002337139333, 0.021993037313, 0.003748140298, 0.011647094972, -0.013955720700, -0.014203827828, 0.005793442018, -0.028076073155, 0.000345387292, 0.020825814456, 0.001612329972, 0.009210444055, -0.019432682544, -0.010731175542, -0.075492717326, 0.016230149195, 0.045913789421, 0.038432776928, -0.005906142294, -0.001792203751, 0.010522796772, 0.004954824224, -0.009368199855, -0.001125552109, -0.004955672193, -0.004592207260, -0.040931895375, -0.019177792594, -0.014198557474, -0.014173437841, -0.019166575745, -0.042402498424, -0.024188634008, 0.005450164434, 0.042536653578, -0.004140196834, -0.027665939182, 0.030010964721, 0.053489800543, -0.036596756428, -0.018614467233, -0.004910413641, 0.006234904286, 0.024250859395, 0.002176664537, -0.003272369504, -0.000122448706, 0.004959463142, -0.029876904562, 0.011689529754, 0.020210618153, 0.020908746868, -0.006063296460, -0.020661445335, -0.012272657827, 0.005799972452, 0.018280413002, -0.027229871601, -0.033613920212, -0.007394947112, 0.042168200016, -0.023859746754, -0.000588472583, -0.012514316477, -0.000688658329, 0.056814465672, 0.000145611571, 0.002395686461, 0.024436954409, 0.030000226572, 0.015577554703, 0.014783159830, -0.004580456298, 0.022452132776, 0.025324521586, 0.014009839855, 0.011267352849, -0.009729350917, -0.084422647953, -0.024427432567, 0.027868257836, -0.001584524522, -0.006018404849, -0.002880183049, 0.012552941218, -0.012789923698, -0.005620598793, 0.023425346240, 0.001263021259, 0.039899669588, -0.022137902677, 0.041536089033, 0.005256039556, -0.030787486583, -0.001256586169, -0.046178214252, -0.007613711525, 0.018275616691, 0.000395156298, -0.006259479094, -0.035502947867, -0.025965813547, 0.009991322644, 0.034901883453, 0.039470370859, 0.067811921239, 0.017668172717, -0.019667921588, -0.085952319205, 0.010603696108, -0.034896522760, 0.002190854168, -0.007985370234, -0.006155366544, 0.040598090738, 0.019286256284, 0.008915112354, -0.037805553526, 0.006365130190, 0.033815879375, 0.007994675077, -0.026165684685, -0.007547975052, -0.003901758930, -0.006846853998, -0.004680892918, 0.044449470937, -0.014866299927, -0.035860948265, 0.089780472219, -0.000722274184, 0.017443919554, -0.060210607946, -0.031585026532, -0.010223573074, -0.038471549749, -0.061572417617, 0.024160880595, -0.000402414589, 0.015103458427, -0.039273757488, -0.008584582247, -0.044000428170, 0.048444729298, -0.014727826230, -0.000874054269, 0.001569315093, 0.024152625352, 0.004150614608, -0.011999781244, 0.014321894385, 0.011303891428, 0.048474464566, -0.016968306154, 0.039646457881, 0.029183182865, -0.008691430092, 0.002125742380, -0.002866043942, -0.055939812213, 0.013970145024, 0.039456117898, -0.000653309224, 0.026008639485, -0.002891251817, -0.014631432481, -0.028873087838, 0.040817860514, 0.001602165285, 0.063100546598, -0.005297466181, 0.016018953174, -0.058505270630, 0.003097032430, -0.070577450097, 0.035410277545, 0.000022857479, 0.027826478705, 0.021170141175, -0.003013900248, -0.029287064448, -0.041815549135, 0.019057366997, 0.047512512654, 0.018668308854, -0.004395277705, -0.026004202664, 0.016648355871, -0.026661518961, 0.003222971456, 0.004682944622, -0.002131517511, -0.027470996603, 0.045112445951, -0.002088714624, -0.011523268186, -0.028952712193, -0.016974754632, -0.025330066681, -0.013711438514, 0.025315666571, 0.007717117667, -0.022300397977, -0.001014551730, -0.022315762937, 0.009277040139, 0.024084379897, 0.008043040521, -0.037127282470, -0.034469574690, 0.007910369895, 0.028797725216, -0.018433166668, 0.040524397045, 0.010483737104, -0.013830843382, 0.031709305942, 0.003505799919, 0.006730282214, -0.031540073454, -0.006394139025, -0.012145780027, 0.027954226360, -0.025422723964, -0.020549828187, -0.013340401463, -0.005908809137, 0.030275082216, -0.008078174666, -0.004312123172, 0.003986175172, -0.033039342612, 0.004141820595, -0.017154524103, 0.008970064111, 0.024407947436, -0.046542387456, 0.006135826930, -0.033378701657, -0.002352243289, 0.012805170380, -0.026742290705, 0.013340503909, 0.051913488656, -0.016671851277, -0.005681561772, 0.003659835318, 0.033771857619, 0.049766659737, -0.031971331686, 0.012474890798, -0.000023586530, 0.004365117755, -0.010453066789, 0.010059657507, 0.009145848453, -0.015203559771, 0.015987157822, 0.004255930427, -0.002697584918, 0.029981089756, -0.005560704973, -0.002181917895, -0.018835878000, 0.082953430712, -0.049440559000, -0.012848793529, -0.002812115941, -0.002835022751, 0.015947386622, 0.001378093497, 0.024455444887, 0.001821971964, 0.004749957472, -0.017294397578, 0.052945457399, -0.002277435735, 0.008327990770, 0.001397703076, 0.044275548309, 0.021333649755, 0.018907018006, 0.029036432505, 0.009755231440, 0.031513664871, 0.012973111123, -0.020861962810, -0.042412135750, 0.030893718824, -0.015187153593, 0.003967455123, -0.008628897369, 0.007410634309, -0.015493531711, -0.003544124542, -0.009485886432, 0.060135878623, 0.063910499215, -0.022716533393, 0.027444759384, -0.003473631106, 0.011651958339, 0.009533542208, 0.022182105109, -0.032863840461, 0.024773176759, 0.014386073686, -0.028613133356, -0.019928717986, 0.016158018261, -0.030467914417, 0.036938555539, 0.010495468974, 0.039078217000, -0.027895325795, 0.016244245693, 0.028469167650, 0.019877789542, 0.030404997990, -0.017540058121, -0.018284384161, -0.010765423998, -0.024117771536, 0.032043252140, 0.006907610688, -0.011213411577, 0.021115887910, 0.077805675566, -0.031879443675, 0.019937006757, -0.043306320906, -0.028331520036, -0.008104915731, 0.009794771671, 0.002388729248, 0.042579252273, -0.010888837278, -0.008057979867, -0.023335648701, -0.061546105891, -0.001345724217, 0.013335833326, 0.005514240358, 0.007729625329, -0.031115615740, 0.030957518145, -0.005809780210, -0.013408306055, -0.022059960291, 0.066820986569, 0.010387658142, 0.021268503740, -0.028097253293, 0.033438231796, -0.023630762473, 0.020767034963, 0.011018074118, -0.007686501835, -0.005720040295, 0.012924278155, -0.013567758724, 0.027682954445, 0.003523312509, 0.012711707503, -0.023234559223, 0.002851139987, -0.018810287118, -0.011324912310, 0.007263375912, 0.016464998946, 0.007925889455, -0.039840262383, -0.056415777653, -0.057697284967, -0.047022063285, 0.012018565089, -0.060909327120, 0.013311829418, 0.022811492905, -0.006161395926, -0.013154677115, 0.056238200516, -0.015611066483, -0.009738982655, 0.006765486673, 0.014435168356, -0.008886164986, 0.005237562582, -0.033470991999, -0.014168596826, 0.013517756946, 0.003858356737, 0.071912765503, -0.007439923938, -0.028562940657, -0.008780953474, 0.013059712946, -0.009594345465, 0.002460500225, 0.019337706268, 0.036526348442, -0.028959127143, 0.002036523540, -0.076761454344, 0.005764484406, 0.009387468919, -0.016944007948, -0.012972294353, -0.015398335643, 0.028875835240, 0.016780938953, -0.040189094841, 0.003603410674, 0.067996785045, -0.010084445588, -0.013485785574, 0.020828654990, 0.004102119710, 0.037156343460, 0.004375264514, -0.032099902630, 0.013152003288, -0.018443215638, -0.043493214995, -0.022277243435, -0.021481921896, -0.029908498749, 0.019931880757, -0.012196944095, -0.032241966575, -0.023539155722, -0.007282319479, 0.008468640968, 0.011114231311, 0.046629369259, -0.005618751049, -0.002685693325, -0.033774111420, -0.005964303855, -0.012484255247, -0.025470852852, -0.018573401496, 0.070819094777, -0.040890056640, -0.005313207395, -0.013791265897, 0.021178755909, -0.026044735685, 0.033376440406, 0.007979923859, -0.010253415443, 0.000920232676, -0.040849786252, 0.005379200447, -0.004134092014, 0.020181171596, -0.020971182734, -0.009243278764, -0.009780948982, 0.019842643291, -0.005419073161, 0.002683543833, -0.043782003224, 0.030892912298, 0.043187703937, -0.028745228425, -0.006150535308, 0.030458102003, 0.000155405476, -0.006724459119, -0.008895529434, -0.014705928043, -0.000590024807, -0.014226947911, -0.015789633617, -0.027912141755, 0.017203152180, 0.006909572519, 0.018897019327, -0.025170287117, -0.011254325509, 0.015741454437, -0.020419364795, 0.038066804409, 0.044613029808, -0.014053898863, 0.026942746714, -0.006378715392, 0.002106226748, -0.027929229662, -0.012509884313, -0.010956605896, -0.036087099463, 0.006447772495, 0.030239101499, 0.026827231050, -0.061528258026, -0.019628716633, -0.014681230299, -0.024316877127, -0.008386838250, 0.049069009721, -0.023642759770, -0.026744892821, 0.031171537936, 0.018422687426, 0.003056574846, 0.026642305776, -0.064789943397, -0.038763009012, -0.002229228383, -0.011296499521, -0.000078323566, -0.016853200272, 0.037247709930, -0.043240703642, 0.036206737161, -0.028026284650, -0.019497102126, -0.075832530856, 0.018049426377, -0.006280175876, 0.026244511828, 0.049812436104, 0.030085964128, -0.006843285169, -0.055496256799, -0.025608964264, 0.031884659082, 0.021277545020, 0.037879683077, -0.004238278605, -0.034287657589, 0.008437304758, -0.039843637496, -0.010089514777, 0.048901990056, -0.032225053757, 0.002721095923, 0.060465339571, 0.027501190081, -0.023129181936, -0.018356928602, -0.036927592009, -0.055054534227, -0.000593824661, -0.005889797118, -0.014680888504, -0.002323935507, 0.002575391205, 0.005026749801, 0.024583104998, -0.005448124371, -0.003321343102, 0.027377560735, -0.046546932310, -0.011741839349, 0.024931667373, -0.035558559000, -0.003745117690, -0.020715752617, -0.045731980354, 0.010613580234, -0.019176222384, 0.034085828811, 0.010796755552, -0.035506796092, 0.045812830329, -0.012706239708, 0.037615776062, -0.034520342946, 0.002096680459, 0.017578590661, -0.022962985560, -0.037096783519, -0.019740985706, -0.018937190995, 0.003061959287, 0.028847586364, -0.006806316786, -0.007767550182, 0.019060272723, -0.020574973896, -0.017434217036, 0.008185596205, -0.003743340494, 0.014670200646, -0.048625417054, 0.005960139446, -0.000891629723, -0.037640947849, -0.016030836850, -0.035663623363, 0.043029773980, 0.017624078318, -0.020841753110, -0.004514299333, -0.000628566428, -0.013848133385, -0.032849933952, 0.012867632322, -0.000474337925, 0.000642382773, 0.031259071082, 0.018151689321, -0.033553235233, -0.008534853347, -0.061180450022, 0.005687642377, 0.021858312190, -0.020941905677, 0.002567369258, -0.033701617271, -0.027997715399, 0.003458959516, -0.037371985614, 0.015769030899, -0.039936646819, -0.021491413936, -0.132680222392, 0.026813108474, -0.042442940176, 0.007617178839, 0.012523076497, -0.055815510452, -0.010535612702, -0.010823444463, -0.028994482011, -0.032949130982, -0.025655455887, -0.010608179495, -0.033870805055, 0.035208515823, -0.035845737904, -0.020869992673, 0.016221683472, 0.021006241441, -0.001675051753, 0.020146578550, -0.000071783506, 0.011722899042, -0.040807668120, 0.007143767085, -0.038933414966, 0.020331231877, 0.023343563080, -0.002700997982, -0.017980689183, 0.030873011798, -0.031751226634, 0.016047405079, -0.045846760273, -0.004889627453, -0.019339418039, -0.054137125611, -0.028574936092, 0.008998114616, 0.050964873284, 0.000486681092, 0.002511436818, -0.016223099083, 0.009284058586, -0.072044700384, 0.008397129364, -0.002639504848, -0.011161920615, -0.016885198653, 0.001325202291, 0.008917801082, -0.067155398428, 0.040495049208, -0.060246620327, 0.037043184042, -0.001326928963, -0.007496864535, -0.029489142820, -0.005238277372, -0.012483224273, -0.009198527783, 0.005866056774, -0.003686427139, -0.053426258266, 0.032435994595, -0.027212817222, 0.029375810176, 0.001250487287, 0.030880820006, 0.048169244081, -0.047042388469, 0.022772485390, 0.018029918894, 0.041200261563, -0.000136375267, 0.045347910374, -0.074668660760, -0.006981291808, 0.002853549318, 0.032345533371, 0.023791898042, 0.020926615223, -0.035134814680, -0.045147079974, 0.030341865495, -0.029625993222, 0.004226144869, 0.015905320644, 0.036381166428, 0.009304711595, 0.022036233917, -0.039965871722, 0.047131009400, 0.028286257759, -0.031552698463, -0.046025205404, -0.037390030921, 0.037312291563, 0.019859047607, -0.007051687222, 0.005998311564, -0.018308343366, -0.014026499353, -0.012991580181, 0.040435608476, 0.052476059645, -0.013311701827, 0.052268266678, -0.018431836739, 0.047739185393, -0.070193000138, 0.026860365644, 0.012324768119, 0.020346770063, 0.084887810051, -0.046786319464, 0.024570334703, 0.014333844185, -0.017104856670, -0.029753908515, -0.039740957320, -0.015078036115, -0.006616849452, 0.012071725912, 0.007855544798, 0.048184484243, -0.039214558899, 0.006703260820, 0.043358165771, -0.002847057534, -0.002595733618, -0.006264231633, 0.025778891519, 0.009816114791, 0.033584170043, -0.057301551104, 0.073931194842, 0.003109921003, 0.009617112577, 0.000515102874, 0.027015322819, 0.041001915932, 0.024544034153, -0.033884473145, 0.000133999754, -0.008406499401, -0.045180764049, 0.016624398530, 0.023264063522, 0.000215191889, -0.037813432515, 0.015377689153, 0.016983758658, 0.033539034426, -0.003998780623, -0.006419513375, 0.098194397986, -0.014748378657, 0.033116798848, -0.007681405172, -0.000988128129, -0.023529479280, 0.018227938563, 0.009113028646, -0.031560964882, 0.054522581398, 0.023187292740, -0.001989559736, 0.005939241499, 0.051660288125, -0.034213911742, 0.001871811925, 0.035778906196, 0.001259890967, -0.030689612031, -0.013279203326, 0.052268739790, 0.058074206114, 0.057094287127, 0.004883887712, 0.020003238693, -0.025241822004, 0.054537016898, 0.032308511436, -0.027015632018, -0.016676070169, 0.044951464981, -0.010885683820, 0.010636701249, 0.012990552932, 0.009036140516, 0.006352438126, 0.020574230701, -0.043698765337, 0.037631720304, 0.020916379988, 0.047148726881, -0.009147545323, -0.032365806401, -0.033746588975, -0.021578203887, 0.000280879962, 0.045140717179, 0.004498491064, -0.010823141783, 0.031316865236, 0.041378311813, -0.012679676525, -0.034196987748, -0.023633943871, -0.033014476299, -0.024141205475, 0.028809409589, -0.000398057979, -0.008020796813, -0.023183347657, -0.004886593670, 0.015563246794, -0.007412405219, -0.008622728288, 0.041065070778, -0.001103736111, 0.034733414650, 0.005998502485, -0.001303825062, -0.030733501539, -0.034444224089, 0.010479159653, -0.066891871393, 0.002763017314, 0.081500783563, -0.018916811794, -0.008721477352, 0.006401981693, -0.008552200161, -0.005530418828, -0.012703513727, 0.027222087607, -0.026378275827, -0.000577235420, -0.022321917117, -0.036970008165, 0.014257283881, -0.029625860974, -0.066266871989, -0.015299884602, -0.024223761633, 0.037403762341, 0.026817448437, -0.020078923553, -0.059970874339, 0.044106956571, -0.054166536778, -0.008300793357, -0.022906141356, -0.001854505972, -0.050377320498, 0.031340725720, 0.039418298751, -0.047713100910, 0.051227714866, 0.030902113765, -0.049760784954, -0.008069703355, -0.041682492942, 0.002316116588, -0.008538861759, 0.009690186009, -0.039272222668, -0.067749477923, -0.006856841967, -0.022435775027, 0.008200564422, 0.055753413588, -0.020165383816, -0.014275633730, 0.025700047612, 0.014571957290, 0.002950330731, 0.016460523009, 0.023860314861, 0.009826345369, 0.017540084198, -0.048652436584, 0.020317161456, -0.048392836004, 0.032408449799, -0.017781281844, 0.008202427998, 0.029239973053, -0.003699645400, 0.018520578742, -0.098288916051, 0.017868826166, 0.031872335821, 0.012004053220, 0.023871002719, 0.028303615749, -0.017375886440, 0.022451395169, -0.011354140006, 0.012161300518, -0.040644317865, -0.010190182365, 0.029338775203, -0.013829276897, 0.002996991621, 0.052790608257, 0.018875017762, 0.010250427760, -0.057029992342, 0.035757880658, -0.042427465320, -0.014911246486, 0.033499691635, 0.043955206871, -0.014875098132, 0.047498401254, -0.064293995500, 0.040239766240, 0.005772370379, 0.014663036913, 0.017890762538, -0.001968620345, 0.014663395472, 0.002798037603, 0.025352654979, -0.013001216576, -0.003583185142, 0.024446796626, 0.048016935587, 0.045951876789, 0.025545824319, 0.008928868920, -0.034944467247, -0.001345547847, -0.000834750070, 0.034429054707, -0.051795795560, 0.028929203749, 0.014089250937, -0.017589841038, 0.024285560474, 0.029257612303, 0.011641263030, -0.014117187820, 0.003550962545, -0.014795877971, 0.019175283611, -0.021785773337, 0.052286397666, 0.011629162356, -0.004190044943, -0.009394638240, 0.015579629689, -0.002671569120, -0.018606994301, 0.006761674769, 0.009744033217, -0.016143597662, 0.035109285265, 0.025070432574, -0.029019376263, -0.030364660546, 0.040365908295, -0.003449328709, -0.040961533785, 0.015286694281, 0.031755272299, -0.038599602878, 0.007574676536, -0.008030476049, -0.035362344235, 0.004130215384, -0.012883543037, 0.033439688385, 0.067865155637, -0.000855606049, 0.038483936340, 0.014373014681, 0.029930105433, 0.021700605750, 0.014705415815, -0.015448681079, -0.006159091834, 0.003147028619, 0.027982905507, 0.010444693267, 0.019764667377, 0.038088850677, -0.043281599879, -0.011271784082, -0.011807003058, 0.008827243932, 0.016475064680, 0.013623028994, 0.022657966241, -0.017608406022, 0.002008111449, 0.004110843409, -0.000423825986, 0.015037301928, -0.066277310252, -0.020690051839, 0.023799395189, 0.025409968570, 0.039303090423, -0.007035722490, 0.000054788241, -0.056950185448, -0.005605911836, -0.003264594357, -0.031576458365, -0.028578529134, 0.028117902577, -0.012281198055, 0.009439015761, 0.033141240478, -0.016918394715, 0.015428370796, -0.022265955806, -0.022052971646, 0.053618486971, 0.017443407327, 0.056743692607, 0.024257194251, 0.056344565004, -0.017533453181, -0.004528759979, 0.035182747990, -0.051701191813, -0.019037073478, 0.010981664993, -0.049223154783, -0.042068522424, 0.022466694936, 0.012531986460, 0.041550207883, -0.045149337500, -0.050839427859, -0.016449077055, -0.033248454332, 0.050772223622, -0.010214613751, 0.031642209738, -0.028810974211, 0.018928095698, 0.000234897176, -0.013506487012, 0.013347781263, 0.003890517168, -0.014155543409, -0.005655620713, 0.019049659371, -0.024298768491, -0.001890008105, 0.004740481731, -0.011003362946, 0.002315217163, 0.004322469700, -0.018078969792, -0.009429989383, -0.004443347920, -0.022330140695, 0.034193597734, 0.010976674967, -0.014216335490, -0.006974808872, -0.005339856725, 0.017753522843, 0.012523361482, -0.014358646236, 0.018640482798, 0.003545410000, -0.006798756775, -0.012439537793, 0.004569126293, 0.016198603436, -0.020826863125, -0.013563649729, -0.011275520548, 0.020680423826, 0.014822818339, 0.036101095378, 0.002648454858, -0.005886753555, -0.013404160738, -0.026078373194, 0.007972965948, -0.009561683983, -0.007780632004, -0.004732049536, -0.002578904387, 0.007432501297, 0.028623221442, 0.009535405785, -0.016196945682, -0.032536912709, -0.004492744338, 0.003534879303, -0.013521115296, 0.000716325652, 0.003287088359, -0.006892535370, -0.000642233877, -0.000377662625, 0.013039261103, 0.008011825383, 0.040390130132, 0.000339878316, -0.000569447409, 0.002332786797, -0.045775003731, 0.005976861808, -0.016426563263, -0.034810341895, -0.000842203095, 0.007065851707, 0.010494685732, -0.021870130673, 0.004319238942, -0.013444223441, -0.007984159514, -0.019906295463, -0.029403846711, 0.009479163215, -0.013458612375, -0.022633858025, 0.013297899626, 0.002102416242, -0.012997708283, -0.014119344763, 0.006650862750, 0.001550321118, 0.011874234304, -0.008441876620, -0.000447763596, -0.012620979920, -0.029717493802, -0.027694864199, -0.001066188677, 0.029579447582, -0.027808140963, -0.014963563532, -0.037687372416, 0.006996104028, 0.002467528451, -0.001642887597, 0.010449578054, -0.002163750352, -0.007244256325, -0.029596315697, -0.012883948162, -0.050720620900, 0.010280407034, -0.026499144733, -0.007247569505, -0.009899317287, 0.010104842484, 0.016053237021, -0.026182778180, -0.017904011533, -0.004696912598, -0.010300651193, 0.002611924428, -0.023117017001, 0.005581308622, 0.016034644097, -0.002750332700, 0.005675811786, 0.034363243729, 0.011755811982, 0.029924860224, -0.004099369049, -0.009285267442, -0.004083134700, -0.044749733061, 0.029233768582, -0.014889407903, -0.013999865390, -0.001462210435, 0.021623162553, 0.001847613836, 0.014123186469, -0.016700072214, 0.004278997891, -0.023631757125, -0.002282984322, -0.011588756926, -0.005596303381, -0.009031729773, -0.023755023256, 0.017690837383, 0.018744437024, -0.034694869071, 0.000325717643, 0.013810086064, 0.017428547144, 0.017330851406, -0.012196470983, -0.017753427848, 0.036105342209, -0.000879361702, 0.016192216426, -0.013163165189, 0.031897030771, -0.007944731973, 0.000612683187, -0.012856180780, -0.015042712912, 0.008394099772, 0.020258581266, 0.004945177585, 0.003386704251, 0.001426953124, -0.037662744522, 0.020426481962, -0.041396014392, 0.009951376356, -0.004239444621, -0.000170853018, 0.000220947055, 0.014098784886, 0.026088956743, 0.005690418649, -0.020833645016, 0.019967660308, -0.000205978606, 0.003354416462, 0.000362361723, -0.010600477457, 0.027034906670, 0.004861466587, 0.006470568944, 0.016074124724, 0.012927025557, 0.015019261278, -0.009893853217, 0.017531257123, -0.003682511626, -0.010103954002, -0.017499910668, -0.000534616469, 0.013609834947, -0.006392262410, 0.012343681417, -0.019215593114, -0.014203190804, 0.004931620788, -0.008526026271, 0.011996398680, 0.010630450211, 0.003914582543, -0.027215080336, -0.011845133267, -0.026143925264, 0.025083858520, -0.026444856077, 0.030347619206, -0.005993289873, -0.014699166641, 0.010394282639, 0.007850586437, -0.024349903688, 0.018298413604, -0.005097413436, 0.024759938940, 0.003075685585, -0.004866612144, 0.009490564466, 0.010803814977, -0.000628953974, -0.009866773151, 0.002871088916, 0.050575785339, 0.003467876930, 0.001330742612, -0.014376251027, 0.009221501648, -0.002755473135, -0.004183040466, 0.029671031982, 0.011637703516, -0.020913757384, -0.031687133014, -0.004726140294, 0.007565204520, 0.000846425770, 0.006318825297, 0.020454376936, -0.005480253603, 0.006057410501, -0.009921302088, -0.018272411078, 0.008465567604, 0.010264965706, -0.009592215531, 0.011810516939, -0.004365274683, 0.005607048981, 0.001820319449, 0.004494403955, 0.005708491430, -0.017554983497, -0.000901725958, -0.026647148654, 0.006995404605, 0.019793346524, 0.006771453191, -0.011890049092, -0.037545613945, -0.033027738333, -0.036942567676, -0.017855498940, -0.004804349504, -0.007612798363, 0.037763047963, -0.040249485523, 0.004034081008, -0.018464181572, -0.000226046774, -0.015632124618, 0.013636999764, -0.023781485856, -0.012463521212, -0.001105984091, 0.005391386338, -0.027953373268, -0.013308537193, -0.000791184430, 0.030366193503, 0.002913698088, -0.010700599290, 0.001236218144, 0.015460871160, 0.015616836958, -0.002482059179, 0.002923752880, 0.015149095096, 0.003889320651, -0.006602710579, 0.007157742046, 0.007322435267, -0.017166245729, -0.020651292056, 0.026981100440, 0.005435676314, 0.011326570064, -0.023872299120, -0.011817878112, -0.012450602837, -0.015670508146, -0.006094589829, 0.029577435926, -0.007176978514, 0.022555144504, -0.010076606646, 0.000117605487, 0.011114723049, 0.022388480604, 0.036993563175, -0.014099078253, -0.002531510079, 0.018223810941, 0.019628114998, 0.003800193081, 0.002394150244, -0.020377134904, 0.007882308215, -0.006605444010, 0.000055221764, 0.015391335823, 0.002156769391, 0.006154816132, -0.007886160165, -0.001312937820, 0.016367595643, -0.012178922072, -0.008353906684, -0.006968778558, 0.020684538409, -0.015330952592, 0.007207557559, 0.004479900468, 0.002092491370, -0.004293164238, 0.031468089670, -0.016388544813, 0.001081016497, -0.001874280977, 0.034083385020, -0.026278333738, -0.005686756689, -0.019200103357, 0.000084120657, 0.027128050104, 0.001904744073, -0.030761579052, 0.017307963222, -0.000780851697, 0.001728183241, -0.027990968898, 0.021045517176, 0.006759752054, -0.010745017789, -0.008428142406, -0.013944445178, 0.011581080034, -0.010387698188, 0.026436896995, 0.007166931406, 0.025945227593, 0.002117937431, -0.004594128113, -0.023221952841, 0.001419727923, -0.035347420722, 0.033878121525, -0.039251010865, 0.015817362815, -0.001185849891, 0.012657121755, 0.004019112792, 0.031148413196, 0.034142058343, -0.005066077691, -0.014385732822, -0.007126516663, -0.004604381975, 0.019083300605, -0.002868775045, -0.025324260816, -0.013582861982, 0.039162620902, -0.004951082170, -0.006126577500, -0.026266952977, -0.020486539230, 0.003628737526, -0.011736440472, -0.014290879481, -0.014759329148, 0.001369122649, -0.000372281327, 0.009412926622, 0.008522250690, -0.013837084174, 0.002735452494, -0.027955014259, -0.034574270248, 0.018508750945, 0.002488010330, -0.016941620037, -0.006599941291, -0.008874498308, 0.000210548576, 0.016971690580, 0.012548039667, 0.000853719190, 0.003036889713, 0.012447066605, -0.041795928031, 0.000207919002, 0.013046898879, -0.000779825146, -0.008949917741, -0.000006138852, 0.000300179963, -0.030323741958, 0.001037366805, -0.027426255867, 0.003567907959, 0.007488861680, -0.021057732403, 0.006439967081, -0.018110910431, 0.006879073102, -0.013433749788, 0.002733582631, 0.003071306739, 0.006670699455, 0.025142425671, -0.007220542058, -0.002588496311, -0.010011316277, -0.041934777051, -0.003237601370, -0.002155167982, 0.001769486465, 0.003177506151, -0.003859479679, 0.005562415812, -0.013210537843, 0.023494455963, -0.001201109029, -0.011458300054, -0.010138050653, 0.017838742584, -0.013975062408, -0.006500595715, -0.029306352139, -0.006190520711, 0.029616218060, -0.025285594165, -0.013526365161, 0.004650575109, -0.013393532485, -0.025116361678, 0.007867609151, 0.001564369071, -0.024213047698, 0.011965098791, -0.014700481668, -0.010247439146, 0.029573783278, -0.010933472775, -0.024862743914, 0.031361728907, 0.007866101339, 0.015661826357, -0.004895174410, 0.003408851102, 0.023072764277, 0.004321838729, -0.005448591895, -0.048782240599, -0.028174273670, 0.000355764845, -0.006881426554, -0.005072412547, -0.005334587768, -0.005971575622, -0.014093171805, -0.008172281086, -0.018480351195, 0.000768691069, -0.005221894477, 0.012761674821, -0.007142167538, -0.013783969916, -0.016980573535, -0.020735273138, 0.008530490100, -0.009525980800, -0.021118253469, -0.002216791501, 0.009018614888, 0.002133491915, -0.014736616984, -0.027951793745, 0.012270779349, 0.002280402463, -0.043990880251, 0.007069095038, 0.007173278835, -0.009610911831, 0.016121877357, 0.018957138062, -0.005332418717, -0.029804857448, -0.008729333058, 0.017574792728, -0.015455454588, 0.001192409894, -0.038995105773, -0.006066423375, 0.028404623270, -0.003966261167, -0.005488857627, 0.020250558853, -0.019915856421, 0.008487887681, 0.025766788051, 0.003552397015, -0.022616123781, -0.008321212605, -0.031620364636, -0.016484757885, 0.008902408183, -0.014621988870, -0.020478293300, 0.029270041734, -0.022859269753, 0.005196844228, -0.018716663122, -0.000946085958, 0.008808284067, -0.010140916333, 0.014901490882, -0.032666217536, -0.019018299878, -0.005020930897, 0.022932490334, -0.018810123205, 0.020780324936, -0.015861075372, 0.012435346842, -0.015303117223, -0.012712230906, 0.017890112475, 0.012705398723, -0.013487705030, -0.007438924164, -0.031366780400, 0.009657570161, 0.008917161264, -0.007712922990, -0.000520147732, -0.005365821533, 0.003280590288, -0.013360396959, -0.017929324880, -0.025693137199, -0.025383777916, 0.008414754644, 0.014827005565, -0.011822295375, 0.018798358738, -0.022767359391, 0.024796072394, -0.000590390817, 0.001084489515, -0.014022693038, -0.002768932143, -0.003583074082, 0.014782456681, -0.010084468871, -0.003867936321, -0.019951885566, 0.018080988899, -0.003163864370, -0.005247588735, 0.006838445086, 0.005262983497, -0.011328883469, -0.002864449052, -0.001641873852, -0.014545596205, 0.005739634391, 0.000490732782, -0.012153799646, -0.000988173648, -0.005310232751, -0.002099317964, -0.007956151851, 0.019263377413, 0.010275032371, -0.001186177717, 0.012050694786, -0.005805454217, 0.011487762444, -0.009419177659, -0.021925717592, 0.002895796904, -0.014660778455, -0.001818159129, 0.003443854628, 0.005868717097, 0.005861549173, 0.010706588626, -0.018090713769, 0.000910985691, -0.004255070351, 0.008772583678, 0.020482394844, 0.006022109184, 0.015321637504, -0.004061622079, -0.012236165814, 0.010673682205, 0.001788591850, 0.003654875560, 0.007237949874, 0.015559630468, -0.005699214991, -0.006734658964, 0.002324417466, 0.005653585307, -0.002946582856, 0.011658436619, -0.007755900733, 0.005246285349, -0.014782214537, 0.022154144943, -0.003558666678, 0.005199135747, -0.004249878228, 0.006488461979, 0.000903444074, 0.003235060954, -0.015078094788, 0.004217056558, -0.007830874994, 0.002622764325, 0.012702487409, -0.017834432423, -0.002644009655, 0.011368995532, 0.000252394821, 0.000066078275, -0.006139315199, -0.003440361004, -0.007792246994, 0.001145881601, -0.009508849122, -0.008814414032, 0.007396563422, 0.005817190278, -0.001910328283, 0.015842253342, 0.004276224878, 0.004608315416, -0.002313407371, -0.004027649295, 0.015003525652, -0.011548751965, -0.021838635206, 0.000659215206, -0.014415323734, -0.002570707118, -0.001350128674, -0.019967066124, 0.008800771087, 0.018836196512, -0.000140955352, 0.000486019679, 0.003636021400, 0.007239612751, 0.016918303445, 0.016454108059, 0.013302945532, -0.019892744720, -0.021421113983, 0.000970109366, -0.002139402786, 0.010995841585, -0.006671744864, 0.001151879318, 0.001973675098, -0.001313022338, 0.002797460416, -0.020586077124, 0.006664463319, 0.000621343381, 0.011255159043, -0.002259538975, -0.024549676105, 0.025960484520, 0.016212960705, -0.005099418107, -0.004212394357, 0.006808623672, -0.014258977026, 0.014919977635, 0.006415368058, -0.006557129789, -0.031545024365, 0.004048930481, 0.000127370498, -0.002735874383, -0.002555202693, -0.000946317799, 0.003913633991, 0.001805359032, 0.000384437444, 0.001878559939, -0.010081934743, 0.002347001340, -0.016165634617, -0.005658511072, -0.005119689275, -0.000820906484, -0.013775175437, 0.019687226042, 0.008871207014, 0.012224630453, 0.018621889874, 0.004305243492, 0.009184021503, -0.001010663575, -0.009501537308, -0.003987107892, 0.019705617800, 0.005563985556, 0.005579810124, -0.005198057741, 0.027785917744, 0.010912795551, 0.009762151167, 0.004576274194, 0.005583780818, 0.010099271312, 0.018331181258, -0.001004233374, 0.022173266858, -0.008023730479, -0.011337623931, 0.024462079629, 0.005432166159, 0.014401414432, 0.005204135552, 0.003062830539, 0.003267785534, 0.005853438284, 0.000933328993, -0.025829384103, -0.006788950879, 0.009097343311, -0.006706171669, 0.002147136722, 0.006333044264, 0.021433992311, -0.005363645498, -0.007596014533, -0.025899829343, 0.003293407150, -0.009613607079, 0.010883476585, -0.003326599021, -0.006827858742, 0.005453480873, 0.010926909745, -0.001463072374, -0.016199348494, -0.002073572250, -0.002043751301, 0.002944720909, -0.002048347145, -0.000262342190, 0.005844088271, -0.009512716904, -0.008243985474, -0.007813834585, 0.006946262904, -0.000902041385, 0.011263407767, 0.007325638551, 0.007784454618, 0.014382685535, -0.014414690435, 0.005236513913, 0.005293059628, -0.002305669943, -0.004534829874, -0.001984263770, 0.000815636944, -0.013121151365, -0.005131501239, -0.009151951410, -0.004114827607, 0.009737221524, 0.015000187792, 0.003287977073, 0.018476765603, -0.001008142717, -0.006629852112, 0.027284294367, -0.018638096750, 0.019985444844, -0.001643496798, -0.008697380312, -0.001129604061, -0.005634699017, 0.022461362183, -0.002844438422, 0.002737856703, 0.007232359610, -0.010108745657, 0.008144771680, 0.011728659272, 0.017663508654, 0.000084366773, -0.002082383959, -0.011795554310, 0.001680965070, 0.024940302595, 0.001325027901, -0.003846089588, -0.005099815782, 0.006317495368, -0.004222090822, 0.000958304096, -0.005260074977, 0.007197333965, -0.004036263563, 0.004143298138, -0.002765233861, -0.000621186337, 0.012226305902, -0.003361707320, 0.005683573429, -0.009857861325, 0.006034763530, 0.006988008507, 0.001689544413, -0.004259660374, -0.013480881229, -0.000220527392, 0.003824297572, 0.000487636804, 0.005327228457, 0.012528158724, 0.003390571335, -0.001148478361, -0.001702448586, -0.005405474454, -0.002625460038, -0.006457312498, 0.008641496301, -0.008132494055, -0.002973572817, 0.001373710693, 0.006990266498, -0.002692708280, 0.018624670804, 0.005120809190, 0.006384087261, 0.012232552283, 0.007512622979, -0.009684803896, 0.018303902820, -0.009641517885, 0.013304679655, -0.007648680359, 0.004070010036, -0.004267236684, 0.010521468706, 0.019502317533, -0.004069467541, -0.007163037546, 0.003311921610, 0.000576781575, 0.010327815078, -0.008209775202, 0.000438293326, 0.002846552990, -0.009329252876, 0.002635881305, -0.015114591457, 0.015806481242, 0.025475671515, 0.000014323728, 0.003219812177, 0.005485401955, -0.015595005825, 0.002580676461, -0.010152370669, -0.014146955684, -0.014202716760, 0.008378682658, -0.013654690236, 0.002470025793, -0.000471298175, -0.010019752197, -0.005661966745, -0.003106751246, -0.000225450669, 0.006176869385, 0.009579422884, -0.001341010677, 0.000301899563, -0.003702366492, 0.006496479735, -0.008921594359, -0.002417387208, 0.023382894695, 0.005276519340, -0.009282493964, -0.002413294045, -0.009473770857, 0.007604946382, -0.002001587069, 0.005261643790, -0.009385855868, -0.003199714469, 0.001357291476, 0.005307631567, 0.015321651474, 0.016965499148, 0.018658811226, 0.006949219387, -0.003330345964, -0.003547081491, 0.008541181684, 0.023409442976, -0.014801136218, 0.009934168309, -0.005589985289, 0.002032377524, 0.011509458534, 0.010422054678, 0.009804657660, -0.004583998583, -0.007290261798, -0.009614970535, 0.002754700137, -0.003838163568, 0.003404286690, 0.007816362195, 0.008043817244, 0.010633292608, -0.008311999962, 0.010985001922, 0.011291779578, 0.021176580340, 0.002516175155, -0.007890078239, -0.002877082676, -0.006271152757, -0.005104927812, -0.004767797422, -0.014598763548, 0.010419209488, 0.002043335233, -0.008752460591, -0.002808319172, -0.001418500324, 0.001813950250, -0.001758113503, 0.003366470104, 0.007625199854, 0.000450876571, -0.008474459872, 0.000556088577, 0.017182867974, -0.005009291694, -0.002912346739, 0.000698517135, -0.004462476820, -0.001928463462, -0.003736093175, -0.013026601635, -0.012880421244, 0.006775057875, -0.001037368202, -0.011754117906, 0.011131057516, 0.007018343080, 0.016238041222, -0.013398999348, -0.014909180813, 0.002941564424, 0.013330889866, 0.010741896927, 0.018721750006, -0.006623849738, 0.008233400062, -0.019178438932, 0.015006664209, -0.010807615705, 0.003546115709, -0.001541056088, -0.011552586220, 0.013607591391, 0.013191389851, 0.016490645707, 0.011475426145, -0.015768684447, -0.016673432663, -0.000053016513, -0.001498921425, -0.000655657845, -0.023818161339, 0.006572174840, -0.003604752244, 0.005531594623, 0.005691514816, 0.012989388779, 0.016534565017, -0.009713346139, -0.007637144066, 0.003107543569, -0.000702983350, -0.012898039073, 0.010654120706, -0.007975328714, 0.013574400917, -0.001753136050, 0.009646535851, -0.001869146363, 0.006126424763, -0.016814474016, -0.004274471663, 0.017133865505, -0.005425065290, -0.002923609689, -0.002713788301, -0.001844391227, 0.010010983795, 0.013525756076, 0.005089894403, 0.000617395795, -0.014472264796, 0.000822564820, -0.002777777612, -0.013125387020, 0.001562577090, 0.005867711268, 0.002822582610, 0.007629219443, 0.009064146318, 0.013444040902, 0.010781686753, -0.004317449406, 0.004903785419, 0.009526098147, 0.008197354153, 0.002081976039, 0.000575307931, -0.000627539644, 0.015501281247, -0.009765947238, 0.008898002096, -0.012972542085, 0.011579427868, 0.005106962286, -0.002920941217, 0.011408776045, 0.007901120931, 0.024351812899, 0.008371974342, -0.025250244886, -0.016395526007, 0.007889014669, 0.000774484186, -0.002019962994, 0.006078461185, -0.001591966487, -0.002509349259, -0.016874456778, 0.011554164812, 0.014450582676, 0.026983994991, -0.001343538519, 0.001587117673, -0.002589071402, -0.004351320211, -0.010958403349, 0.004933018237, -0.007369832601, -0.002150537446, -0.002024669433, -0.002016463550, 0.002812941326, -0.000565226772, -0.015588076785, 0.001220476814, 0.007483889814, -0.011226095259, 0.000067356770, -0.004465559963, -0.009368767962, 0.013304924592, -0.010562220588, -0.000228897028, 0.005550539587, -0.017015961930, 0.006686643232, 0.004396121483, 0.003551268019, 0.002823011484, 0.015419634059, 0.011673687026, 0.004919332452, -0.010378658772, 0.000530498335, 0.029420223087, -0.013959702104, 0.004633341450, 0.001676056418, 0.015092941932, 0.014284388162, 0.013834930956, -0.010405041277, 0.006939213257, -0.010944562964, -0.016084058210, -0.012704030611, -0.000065923530, 0.012378085405, -0.000124409460, 0.014675208367, 0.006956531666, 0.006426658481, -0.014878631569, 0.004541657399, -0.002805226948, -0.005704026669, 0.010282268748, -0.003581142752, -0.010137249716, 0.009108292870, 0.009135759436, 0.002841231879, -0.016626466066, -0.003477695165, -0.007050840650, -0.018907710910, -0.000462992961, -0.044630840421, -0.003871207824, -0.021275203675, 0.054673481733, 0.012862369418, 0.103033110499, -0.015952441841, 0.058274034411, -0.024011513218, -0.002912701573, -0.004634044133, -0.008415713906, -0.020989121869, 0.001285870327, 0.014438048936, 0.013905887492, -0.018030328676, 0.030309317634, 0.027991691604, -0.024122612551, -0.023003112525, -0.014427594841, -0.038790546358, -0.012791979127, -0.033565953374, -0.019343459979, 0.054315418005, 0.005965768825, 0.029740523547, 0.023693913594, 0.004099104553, 0.002779583447, -0.005629515275, -0.036331061274, 0.012777867727, -0.019634028897, 0.025956902653, 0.021453505382, -0.006358657032, 0.075849309564, -0.012180961668, -0.003549936926, -0.011205296963, -0.020281599835, 0.001579398522, 0.019758466631, -0.005045922007, 0.003891171888, 0.005261257291, -0.024870427325, -0.048263646662, 0.008413394913, -0.006691521034, -0.020369166508, 0.027972662821, 0.030078755692, 0.010329854675, -0.019280014560, -0.028688108549, -0.019247205928, 0.008849078789, 0.031520117074, -0.001292152330, -0.017208226025, -0.011438609101, -0.027761852369, -0.023505784571, 0.014549393207, -0.010164759122, 0.069545313716, 0.023880500346, 0.036342568696, -0.013345347717, -0.015818519518, -0.006780751515, -0.013064296916, -0.005683056079, -0.016488764435, 0.014486422762, -0.002210102044, -0.015961261466, -0.001514351927, 0.037426166236, 0.009989848360, -0.006198109593, 0.010703444481, -0.029440633953, 0.002001131885, -0.006404825486, 0.018490327522, 0.048867870122, 0.010075667873, -0.004157871939, 0.027825972065, -0.002869727556, 0.048148099333, -0.004752713256, -0.002355724107, 0.036032136530, -0.012222973630, -0.011925301515, -0.004205152392, 0.034667838365, 0.061446089298, -0.065584190190, 0.003988571465, -0.001509033376, 0.013590848073, -0.014128793962, 0.010581016541, 0.025341970846, 0.039000354707, 0.015255699866, -0.010209148750, -0.049431558698, 0.025829840451, 0.024930853397, -0.011790374294, 0.052156366408, -0.011655310169, 0.036548439413, -0.007750513032, 0.021751405671, -0.022842099890, 0.004182917532, 0.016531044617, -0.009191668592, 0.021616460755, 0.040657810867, -0.018060872331, 0.035923492163, -0.005771131255, -0.012638477609, 0.094097793102, 0.010746886022, 0.035389732569, 0.038867507130, 0.020466582850, -0.002140742727, 0.043217994273, 0.062686197460, -0.063238166273, 0.021439250559, 0.035623244941, 0.055107861757, -0.020880553871, 0.009793110192, -0.034362785518, 0.008926075883, 0.053110677749, -0.001500066603, 0.021274067461, 0.021308690310, -0.021339492872, -0.017268383875, 0.016593704000, -0.021512212232, 0.037043035030, 0.031333409250, 0.010381253436, 0.022002823651, -0.031470552087, -0.019225342199, -0.028561580926, 0.020755922422, 0.043247811496, 0.067734323442, 0.035752329975, 0.002480174648, 0.010734407231, -0.051523998380, 0.017493573949, 0.015509934165, 0.051454667002, 0.017697760835, -0.019246442243, 0.020255256444, 0.010279399343, -0.071113631129, -0.026731461287, 0.004995907657, 0.005454949569, -0.002076745033, -0.010683584027, -0.001278705546, -0.014148498885, 0.017203237861, -0.009446985088, -0.006251913961, -0.052432917058, 0.040053658187, 0.001303478959, 0.008321997710, -0.018854325637, 0.043512772769, -0.010216367431, -0.000424137193, -0.025474408641, 0.007956573740, -0.025331178680, 0.034244541079, 0.021637290716, -0.017934320495, -0.011270481162, -0.011681240052, 0.021564166993, 0.006646947004, 0.004333555233, 0.009590064175, -0.033981803805, 0.008419602178, 0.018111651763, -0.015716491267, 0.004447111860, -0.005723029841, -0.000268547243, -0.012526071630, 0.015052646399, 0.013510513119, 0.009806708433, -0.009979731403, -0.052893266082, -0.031972113997, 0.018091296777, 0.000157681134, -0.004019496031, -0.014025961980, -0.022599499673, -0.037167802453, 0.032481975853, -0.033740371466, -0.022141015157, -0.017363494262, 0.016256952658, 0.038593132049, -0.038543798029, 0.005265117623, 0.009825929068, 0.014563027769, -0.026941735297, 0.018926903605, -0.020388264209, 0.011397340335, -0.029002733529, -0.037484142929, -0.033063657582, 0.032493684441, 0.040540479124, -0.043283738196, 0.019725838676, -0.006776913069, -0.024730890989, 0.013532906771, -0.017695633695, 0.010593319312, 0.014888069592, -0.019311824813, 0.024163980037, 0.029658038169, -0.006233093329, 0.032903291285, -0.043581288308, -0.002824870171, -0.028469147161, 0.009106534533, -0.011848633178, -0.014065030031, -0.024211199954, -0.000831065350, 0.010884317569, 0.021412622184, -0.021738478914, -0.013140226714, -0.009806641378, -0.002455700189, -0.007204314694, -0.004397159908, 0.005436428823, -0.043722443283, -0.001257936819, -0.007899853401, 0.000240622699, -0.027352700010, 0.008129105903, 0.008919009008, 0.010354002006, -0.048185765743, 0.014654106461, -0.010706315748, -0.036993853748, -0.033805880696, 0.013504140079, -0.026996513829, 0.005683516618, -0.020050853491, -0.020675623789, -0.047376647592, -0.009209542535, 0.019699679688, -0.005147075746, -0.004683107138, 0.017829673365, -0.001486010267, -0.005857859738, -0.027035379782, -0.003534613643, -0.009213907644, 0.012086655013, -0.040291566402, 0.021510191262, 0.058547597378, 0.041558500379, 0.021304037422, 0.020639285445, 0.002672593575, -0.052272878587, -0.001209100476, 0.053203057498, -0.046265840530, -0.028423935175, -0.032499983907, 0.026447890326, -0.002100121463, -0.030922075734, 0.020358109847, -0.003143314505, -0.015816517174, -0.008608855307, 0.013959733769, 0.038771655411, -0.036234445870, 0.033783111721, -0.022966368124, 0.035443734378, -0.020557414740, 0.049328483641, 0.020900592208, -0.014646778814, -0.002390825190, -0.012659771368, 0.024671256542, 0.033431999385, 0.011957314797, 0.029018694535, -0.035766605288, -0.017654210329, 0.010354740545, -0.013085006736, 0.001749103423, 0.015048444271, 0.034194659442, -0.032115425915, -0.011058541946, -0.024410637096, -0.053293142468, -0.045241519809, 0.002877303632, 0.009445292875, -0.004222686868, 0.016766546294, -0.015951275826, -0.032305769622, -0.007852054201, 0.012507267296, 0.059970594943, -0.006409227848, 0.011666201055, -0.026670064777, -0.009922385216, -0.025805290788, -0.013482511975, -0.007974401116, 0.002130863955, 0.015438628383, 0.009446897544, -0.005800294690, 0.019159333780, -0.007561963983, 0.009123054333, 0.006508260500, 0.003604320344, 0.019569935277, 0.037113200873, 0.011775551364, 0.049888353795, 0.006867068820, -0.024473372847, 0.012588304467, 0.030193386599, 0.045020911843, -0.016808811575, -0.017346102744, 0.049143988639, -0.013582822867, -0.020897237584, -0.026733316481, 0.023393325508, -0.062729723752, 0.000895736564, 0.015506222844, 0.004432801623, 0.045725908130, 0.005279094912, -0.026076070964, -0.032410673797, -0.007510707714, -0.015992386267, -0.014062461443, -0.005548429675, -0.014694664627, 0.020720358938, 0.016047375277, 0.058656714857, 0.009786555544, 0.048624549061, 0.013478779234, 0.017385119572, -0.023805089295, 0.007324019447, 0.008201603778, -0.003548883600, -0.010188207030, 0.007619200274, 0.051639340818, -0.012259831652, 0.034918792546, -0.058523960412, -0.016677170992, 0.015667883679, 0.003061555326, 0.024360811338, 0.005959018599, 0.042635928839, 0.002045345260, -0.028601011261, 0.013421670534, 0.025648185983, 0.011238100007, 0.003961937036, 0.000465043500, -0.028397826478, -0.018925115466, -0.012748492882, 0.003288313048, 0.001301149954, 0.000022149421, -0.019181722775, 0.028705090284, -0.037856191397, 0.038722880185, -0.020558511838, 0.030994409695, -0.005373325199, 0.057630114257, -0.012392412871, 0.002553673927, -0.020489687100, -0.003478667699, 0.053078610450, 0.025511777028, 0.018147749826, -0.031431026757, 0.029524438083, 0.029119700193, -0.011744054034, 0.056530192494, -0.036400593817, -0.006264914293, -0.012044295669, -0.021334597841, -0.011284272186, 0.007770093624, -0.018754487857, -0.043069243431, -0.003995337989, -0.010677892715, 0.048738993704, 0.065675877035, -0.005020535551, -0.006232511252, 0.006282256451, 0.013004382141, -0.011384615675, -0.003711814061, -0.002518269233, 0.010019289330, -0.002584084170, 0.051799196750, -0.021335396916, -0.024158533663, -0.015219129622, -0.044621702284, 0.012639828026, 0.027807515115, -0.020671270788, 0.008999996819, 0.008930267766, -0.006480164826, -0.001808493980, -0.001621426200, 0.056840319186, 0.007011111826, -0.004213212989, 0.001589855296, -0.025634776801, -0.010381675325, 0.017322501168, -0.008277593181, -0.031428135931, -0.010296043009, -0.015463844873, 0.024752758443, -0.016642646864, 0.040610890836, 0.011020267382, 0.045295886695, 0.010716041550, 0.039004586637, -0.007869742811, -0.013798753731, -0.031209563836, 0.034987989813, 0.037796407938, 0.012975902297, 0.015400177799, 0.015536968596, -0.015148715116, 0.007827884518, -0.002566742478, 0.008869236335, -0.003886268474, -0.020473178476, 0.002018108265, 0.057695709169, -0.045951720327, -0.006792993750, -0.024710847065, -0.072189666331, -0.003437399399, 0.007135586347, 0.057490304112, 0.033936299384, 0.009690345265, 0.047079000622, -0.016984043643, -0.002989712870, -0.030426807702, -0.020879676566, -0.018273113295, -0.005072181113, -0.002510755090, 0.016020273790, -0.046662822366, -0.043819915503, -0.025939628482, -0.015920724720, -0.013783870265, 0.041647061706, -0.032570030540, -0.035837475210, -0.034754354507, -0.034286398441, 0.034764125943, 0.017481956631, 0.040579963475, -0.002717225114, -0.034883406013, 0.001594480942, -0.006888912059, 0.011487946846, 0.004540898371, 0.039113957435, 0.004648987204, 0.026598222554, 0.013034636155, -0.013898069039, -0.017271371558, -0.011177425273, 0.010111252777, -0.013839195482, -0.004231132567, -0.027744948864, 0.012848598883, -0.002134800190, 0.013142840937, -0.001483906875, -0.006200178061, -0.013559227809, -0.019653039053, 0.036976184696, -0.009699506685, 0.001270462992, -0.012109258212, 0.011746073142, 0.009095435962, -0.005753564183, -0.014996645041, -0.007683312520, 0.014343794435, 0.019776307046, -0.008623155765, 0.003868665081, 0.024496693164, 0.010690284893, 0.005283244886, -0.010752766393, -0.002725618659, -0.008899420500, -0.003757379251, -0.020750420168, -0.002167779719, 0.019704002887, 0.022340228781, 0.018076954409, 0.017673315480, -0.020250957459, -0.005838308949, -0.011999418959, 0.011573692784, -0.000208282654, -0.011638811789, 0.022180074826, -0.026990734041, 0.016994632781, 0.003466520691, 0.000291838951, -0.014537569135, -0.005136627704, -0.004448848777, -0.006036132574, 0.010679953732, 0.001383519615, -0.014550858177, 0.010131744668, -0.002503446536, 0.020219758153, -0.004564951640, 0.027400339022, 0.015924500301, -0.016329346225, -0.006067091133, -0.004269915167, 0.021301066503, -0.014800122939, 0.015355424024, -0.020424643531, -0.009236341342, -0.023744469509, 0.008462537080, -0.009124188684, -0.014918271452, -0.011551026255, -0.033802691847, 0.030426926911, -0.000235584899, 0.006790693384, -0.023094540462, -0.015364428982, -0.007339924574, -0.020307101309, 0.002293678233, 0.012551841326, 0.017387051135, 0.000489569560, -0.009261166677, -0.018558390439, 0.014510525391, -0.016395313665, -0.014919103123, -0.016697473824, 0.011498210020, -0.026976324618, -0.000517101667, -0.000051371546, -0.012799085118, 0.004956379998, 0.033491734415, 0.001028121100, -0.003522956278, -0.009703187272, -0.003511025803, 0.007628771942, 0.001305879210, -0.000245843345, -0.003975416999, 0.008195204660, -0.003003784455, 0.023974832147, -0.003513781121, -0.002291215351, -0.018396468833, -0.019207136706, 0.014730896801, 0.006675800774, 0.015064960346, -0.016508542001, -0.008266154677, 0.025128504261, -0.000614455028, 0.015052642673, 0.034909866750, 0.020983951166, 0.011248965748, -0.015754122287, 0.003333815141, 0.004265670665, 0.009671508335, 0.010142469779, 0.016954356804, -0.011490299366, -0.008984691463, 0.011421738192, 0.023919636384, -0.008750989102, -0.027479305863, -0.008892025799, -0.016772845760, 0.007846003398, -0.012548929080, 0.012506939471, -0.006119701080, 0.002651660936, -0.004481238779, -0.027556687593, 0.001756489044, -0.013252322562, 0.034605436027, 0.012815770693, -0.005733815487, 0.020237999037, -0.007746077143, 0.014010885730, -0.003713398473, -0.009508671239, -0.012428594753, -0.019606160000, 0.011597204022, 0.008639593609, 0.003802761203, 0.019038645551, 0.009511929937, 0.002313250210, -0.002445332007, 0.012506217696, 0.003844157560, 0.004901149310, 0.022875446826, -0.001270819688, 0.009718674235, 0.003073201049, 0.002921445062, 0.023651782423, 0.008334192447, -0.002996614203, 0.016594253480, -0.007010562811, -0.006901825778, -0.000689135515, -0.022640835494, 0.022279707715, -0.023219417781, -0.008666967042, 0.001877872040, 0.036157362163, 0.016745846719, 0.014938687906, 0.007949395105, -0.029505815357, -0.006113258190, -0.026932569221, 0.010323659517, -0.018389815465, -0.001378792338, -0.018488502130, 0.011048185639, -0.004082468338, 0.011693495326, -0.016490513459, -0.010480904020, -0.008967389353, -0.012726997025, 0.012089557014, -0.010774106719, -0.001740122912, -0.007545270957, 0.014173048548, 0.007888430730, 0.001340433024, 0.010104821064, 0.005994675681, 0.028846172616, 0.021024944261, -0.002341774059, 0.008895994164, 0.002535036532, -0.007050618995, -0.004200871103, 0.004088003654, 0.010770008899, -0.013224916533, 0.003857773961, -0.008686944842, 0.014755111188, 0.034389231354, 0.023151990026, -0.010483941063, 0.007549212314, 0.008561138995, -0.013913090341, 0.018162790686, 0.019621297717, -0.009102641605, -0.011334381998, -0.006803376600, 0.020417544991, -0.021147189662, 0.004092955496, 0.005705606192, -0.015824442729, -0.010923519731, 0.005733282305, 0.014077978209, 0.014874824323, -0.000890773488, 0.004544842057, 0.000235533356, -0.025087973103, 0.026666289195, 0.007823769934, 0.006582011469, 0.014872942120, -0.018448177725, -0.003461032407, -0.025286873803, 0.008130096830, -0.010777823627, 0.013355944306, -0.012367977761, 0.005631405860, -0.004797033966, 0.018025560305, -0.010208322667, -0.004248746671, -0.003134264844, -0.019886186346, 0.011364619248, 0.018208028749, 0.000137244017, -0.017836049199, 0.010023751296, -0.003864504863, 0.020579198375, -0.003051168285, -0.005376022775, 0.004395736381, 0.000036679347, -0.014570719562, -0.002850706223, -0.018697246909, -0.018365520984, -0.024804214016, 0.001238121302, -0.001892536995, 0.005551855080, 0.014806423336, 0.006187492982, -0.017060237005, 0.019372764975, 0.019214881584, 0.002436020179, 0.000051725183, 0.006184824277, -0.001004476449, 0.008205320686, -0.023581374437, 0.006453402340, 0.001868062071, 0.007920390926, 0.009562209249, -0.023419527337, 0.009229669347, 0.004267523065, -0.008260847069, -0.018600124866, 0.009102011099, 0.015841627494, 0.018477266654, -0.012787575833, -0.005038286094, 0.018702747300, -0.015845460817, 0.027185464278, 0.023569583893, 0.021503565833, -0.003932293039, 0.002254662570, -0.005340265110, -0.026080524549, 0.011729850434, 0.016760505736, 0.013636201620, 0.009293464944, 0.009249689057, 0.007294887211, 0.021975250915, 0.004245662596, -0.015575239435, -0.009012812749, -0.021321216598, 0.014202812687, 0.003986401483, -0.007038153242, -0.011413842440, 0.001753165387, -0.009815828875, 0.015143830329, 0.017616098747, 0.007678849157, -0.002681666287, 0.007453633938, 0.014407697134, 0.004031450022, -0.034754656255, -0.013758881018, -0.017910275608, 0.000842329173, 0.008827807382, 0.018548313528, 0.000658697449, -0.013937949203, 0.008532812819, -0.001576087205, 0.026145424694, -0.014147735201, -0.006996693555, 0.012091728859, 0.018394978717, 0.028802305460, 0.012222908437, 0.001428598189, -0.002208201215, 0.022215019912, 0.013303624466, -0.004594578873, -0.002824685071, 0.005750939250, 0.001742193825, 0.010716093704, -0.020850084722, -0.002481926000, 0.001375926193, 0.011780230328, -0.005167667288, -0.003835383570, 0.016898201779, 0.022104589269, 0.027331264690, -0.008241467178, -0.013053778559, -0.032507412136, 0.003508762922, -0.037126641721, 0.005041060038, -0.034218244255, 0.013696962968, -0.016098994762, 0.004883525893, 0.007885871455, 0.017145004123, -0.016470752656, -0.016354361549, -0.008554259315, -0.015164863318, 0.025035748258, 0.006910691969, 0.008884078823, -0.003760954831, 0.000729822030, 0.016899354756, -0.007606103551, 0.016129605472, -0.007560248487, 0.020591262728, -0.003845926374, -0.023046083748, -0.002504593460, 0.010482216254, -0.003637519199, -0.012448382564, -0.009958703071, -0.003432922997, -0.010324064642, -0.001245938474, -0.022677358240, -0.026208240539, 0.011927164160, 0.005899270996, 0.013240612112, 0.006911220960, -0.020292082801, -0.004660161678, 0.011428126134, 0.001267761225, 0.018514234573, -0.013753157109, 0.000819671724, -0.005795653444, -0.014954688028, 0.012581164017, 0.002254154999, 0.008968514390, -0.012373139150, 0.017305975780, 0.011252351105, 0.003359508235, 0.020196484402, 0.006974321790, 0.025032060221, -0.015866501257, 0.000425331964, 0.005946109071, 0.012708707713, -0.011375841685, -0.031457394361, 0.006040946115, -0.013381876051, 0.010851107538, -0.031789392233, 0.035942375660, -0.007686888333, 0.001217529178, 0.012534549460, 0.015696987510, -0.023854104802, -0.024361925200, -0.006613899022, -0.015637341887, 0.020619021729, -0.001809611800, 0.014953125268, 0.006034477148, -0.007041067816, -0.019220961258, -0.006459161639, 0.008083064109, 0.011217247695, 0.018936496228, 0.006307036150, -0.011653186753, 0.014064539224, 0.000136583898, -0.000615111087, -0.009909172542, -0.002791412175, -0.010642378591, -0.014901112765, 0.005340472329, -0.003440309083, -0.009365119040, -0.000470176223, 0.008733968250, 0.003027003957, 0.027760768309, 0.018013812602, 0.001050163526, 0.008648201823, 0.001802472747, 0.010539002717, -0.004479721189, 0.001352441381, -0.014682644047, -0.004353124183, 0.009827055968, 0.004796687514, -0.015395519324, -0.021290566772, 0.002294120379, -0.011087206192, 0.011089659296, 0.001444205525, 0.005527623463, 0.021696683019, -0.015226013958, 0.032243445516, 0.008060501888, 0.022699592635, -0.013811117969, 0.010963272303, -0.006721166428, -0.014881028794, 0.006682233419, -0.018430521712, 0.011270998977, -0.000590345706, 0.015216716565, 0.021346520633, 0.014281384647, 0.007047004532, 0.002043665154, -0.009795926511, -0.007502237801, 0.023100683466, 0.010984800756, -0.017874002457, 0.012221285142, -0.001784028020, 0.010003327392, 0.005510247778, 0.000444880949, 0.011126614176, 0.032582733780, 0.012920976616, -0.007635845803, -0.005335709546, -0.011100750417, 0.002472661436, -0.012281682342, -0.004793044180, 0.012372335419, -0.001571537228, 0.017859216779, -0.030596936122, -0.006483420264, 0.019945126027, 0.019067967311, 0.011214705184, 0.016657046974, -0.002013171092, 0.006875624415, -0.000561709225, -0.023792333901, 0.000922184496, 0.008292789571, -0.002456544433, 0.007981395349, -0.001853441703, 0.000346283545, 0.000137824303, -0.005744316150, -0.006888055708, -0.004685203545, 0.031749952585, 0.015436911955, 0.021950855851, 0.017940960824, -0.000069123831, -0.016334516928, 0.020769391209, -0.013772813603, 0.020782347769, 0.008520773612, -0.002480797470, -0.004303968977, 0.013253527693, 0.015697345138, -0.002658140380, -0.020841009915, -0.012270001695, 0.002961465856, 0.021365115419, -0.002918160753, -0.012234196067, 0.013538702391, 0.000595062913, 0.010174684227, -0.011325382628, -0.005907240789, -0.008475114591, -0.000480785733, 0.006796822883, -0.018265018240, 0.010721901432, -0.013357611373, -0.009669020772, 0.006049263757, -0.005407399498, 0.015609127469, -0.013244318776, 0.011218716390, -0.002252209233, 0.010094009340, -0.019698211923, -0.012210339308, 0.017410872504, -0.007359140553, -0.011654724367, 0.000319514249, 0.005297885276, -0.003644704353, -0.015038306825, -0.012076039799, -0.012142846361, 0.003222756786, -0.009377296083, -0.020928613842, 0.007246911060, -0.006176853552, -0.005266801454, -0.007601805031, -0.022350182757, -0.004025068600, -0.012921296060, 0.021618099883, -0.010956557468, 0.024659393355, 0.021537933499, -0.024865085259, -0.012665467337, 0.013815329410, -0.016838822514, 0.005890222732, -0.020852439106, -0.016566943377, 0.021071800962, -0.005378169473, -0.012636696920, -0.010649072006, -0.014521420002, -0.019761584699, 0.003831668058, -0.019033566117, 0.006045372225, 0.011285829358, 0.048917070031, -0.027257254347, -0.020522821695, 0.027793496847, -0.008451104164, 0.007605006453, -0.005487151444, 0.011272738688, 0.008445507847, 0.013015707955, 0.036796331406, -0.003293921007, -0.000422390789, -0.015507543460, 0.016535298899, -0.027464590967, 0.005279498175, -0.026904955506, -0.008631457575, 0.030770983547, 0.015302096494, -0.000691698224, 0.011324685998, 0.012719387189, 0.012525416911, -0.015017894097, -0.008751512505, 0.008954282850, 0.005579185672, -0.031107276678, -0.002495432040, -0.004712135065, -0.012344898656, -0.003588277381, -0.051901988685, -0.004250773229, -0.013553142548, 0.006854400039, 0.006969755050, 0.000894221594, -0.002699909033, 0.002763359109, 0.010422596708, 0.003407489508, 0.005532920361, -0.012821044773, 0.008094219491, 0.012799271382, 0.001879703021, 0.011257240549, 0.014863270335, 0.007083375938, -0.026130346581, -0.006678339560, -0.017318833619, -0.001073821331, -0.001043540542, -0.036377437413, 0.009533918463, 0.007667501457, 0.003585414030, -0.005088684149, 0.034291721880, -0.013037702069, 0.021473521367, 0.009951122105, -0.015131555498, 0.001339259674, 0.005154220387, 0.009931971319, -0.009005580097, 0.004541124683, 0.025802906603, 0.017785130069, 0.012513910420, -0.013271693140, 0.002422904596, -0.015591363423, 0.001754562254, -0.009690984152, -0.008460058831, -0.000077347904, 0.002634624019, 0.002616530284, -0.003132135607, 0.007020935882, 0.016828583553, -0.000086000189, 0.004029850475, -0.035004694015, -0.006018377375, 0.014265792444, -0.035909630358, 0.004580697976, -0.009020467289, 0.012778386474, 0.023154733703, -0.000381344929, 0.006823575124, -0.013159873895, 0.002287640702, -0.002459223149, 0.005469461903, 0.015578096732, -0.003265451873, -0.024514142424, -0.013725962490, -0.005871783476, 0.008929387666, -0.010849235579, 0.004113496281, -0.019228259102, 0.005971932784, 0.039168726653, 0.013791788369, 0.012883349322, -0.060529634356, -0.028471929953, -0.003651935374, -0.016207296401, 0.001426376170, 0.011006905697, 0.003238161560, -0.000408321590, 0.014186918736, 0.022414546460, 0.008163483813, -0.003918186761, 0.000153691144, 0.001593088382, -0.006438300479, 0.017549594864, 0.028497958556, 0.021823234856, -0.013465750962, 0.000316917314, 0.000131944820, -0.000267316384, 0.003202007152, 0.013474244624, 0.018938137218, 0.000764529512, -0.006698105484, -0.023231808096, -0.040743336082, 0.007367152255, -0.036339297891, -0.032971460372, -0.013814320788, 0.015485738404, -0.004698431119, -0.039911672473, 0.010351833887, 0.046043407172, 0.027370719239, -0.005114471074, 0.002528059995, -0.001402021735, -0.031623929739, 0.013271367177, 0.023899009451, 0.029470875859, -0.026933280751, -0.032845266163, -0.018979875371, 0.022746801376, -0.014431335032, 0.002605005633, 0.008855472319, -0.023225782439, -0.035217367113, -0.013942224905, 0.002806909382, -0.002776574809, -0.002449670108, -0.030338469893, 0.001700534835, -0.036027461290, -0.038105040789, 0.010093565099, -0.022827867419, -0.009807617404, 0.000897815509, 0.003183451016, 0.003372748382, -0.000276791136, -0.009218436666, 0.001069855294, 0.013598982245, -0.021731931716, -0.011294695549, -0.009077071212, -0.006998420693, -0.023634253070, 0.003901935648, -0.001689068158, 0.031982999295, 0.016793977469, -0.022949421778, -0.005011051893, -0.010778405704, 0.024654624984, 0.006028821692, 0.011829282157, -0.017638124526, -0.021915331483, 0.009351531044, -0.005414868705, -0.022684078664, 0.004037281498, -0.004744288977, -0.019644688815, 0.000768736878, -0.006097197998, -0.000649989757, -0.017683999613, 0.008603653871, 0.025465440005, 0.008475076407, -0.008804873563, -0.034603446722, 0.002089018468, -0.024838456884, 0.023370008916, -0.006516609341, -0.010481269099, 0.010056575760, -0.025454508141, -0.020375646651, 0.023833476007, 0.005923622288, -0.007901436649, 0.000271369296, -0.030221259221, 0.004556134809, 0.001867966726, -0.018547693267, -0.003398116212, -0.024332044646, -0.002957660938, -0.007224997506, -0.007633549161, -0.011479855515, 0.007587085944, -0.009495927021, 0.012935150415, -0.011557274498, 0.000274749444, 0.022961100563, -0.031980156898, -0.028126135468, -0.005589215551, 0.008701045066, -0.012537512928, 0.007382827345, -0.004874945153, -0.000908222806, 0.001220532344, 0.006689216476, -0.002252143808, -0.012232180685, 0.015677237883, -0.013859234750, -0.019051147625, 0.003805489046, 0.026589047164, 0.008538790047, 0.016525063664, -0.011862465180, -0.030523248017, 0.009625534527, -0.028465101495, -0.022475894541, 0.015873910859, -0.003581143450, -0.016191845760, -0.003089163918, 0.003959365655, 0.010709236376, -0.010138646699, -0.012649253942, 0.006661114283, -0.028059482574, -0.002973007271, -0.009846022353, 0.007476597093, -0.002881237073, 0.002202943200, 0.005254467018, 0.011801575311, -0.011795431376, -0.000103391569, -0.012848075479, 0.025336826220, -0.030402237549, -0.009128725156, -0.008648212999, -0.027158599347, -0.003020990873, 0.021634239703, -0.009108151309, -0.029123289511, -0.017242209986, 0.038534879684, -0.018440548331, -0.000958145189, -0.013731677085, 0.018733410165, 0.008430526592, -0.035082168877, -0.011787077412, -0.014214166440, 0.026680169627, 0.041317608207, 0.007774641272, 0.033247511834, -0.004219725728, -0.010573958978, 0.005935717374, -0.010075335391, 0.000071017479, 0.009006188251, 0.023391576484, -0.007803637069, -0.020328391343, 0.017158228904, -0.019561432302, 0.010224438272, 0.017725147307, 0.020048623905, 0.026559451595, 0.017228860408, -0.011377784424, -0.013925360516, 0.023699443787, -0.047606971115, -0.012498617172, 0.007613518741, -0.012514972128, -0.033215880394, -0.041198715568, 0.008430538699, 0.020937025547, 0.010350748897, -0.002245170763, 0.012917191721, 0.029935827479, -0.011796737090, -0.049265779555, -0.025460537523, -0.031023012474, -0.001197390608, 0.023256165907, 0.014210588299, -0.010977163911, -0.036939341575, -0.024399105459, -0.016973361373, -0.009327540174, -0.008721067570, -0.000939550810, -0.007425653283, 0.003387224162, -0.021471505985, 0.020434193313, 0.009744333103, 0.007212504279, -0.010023523122, -0.011421982199, -0.003360548988, 0.009436070919, 0.006432884838, 0.033669508994, -0.015814963728, 0.007136147935, -0.024292606860, 0.032098319381, 0.009206430055, -0.022709807381, 0.010467236862, 0.015082386322, 0.006737194490, 0.012478759512, 0.006291788537, -0.000115087794, -0.027025546879, 0.003403281793, -0.006884495262, -0.012904357165, 0.015547159128, -0.005000476725, 0.005237643607, 0.027989204973, 0.008485922590, 0.028112251312, 0.013044030406, -0.022463774309, 0.005909931846, 0.020874368027, -0.016360104084, -0.018246972933, 0.001792382798, 0.014022382908, -0.023618297651, -0.014066849835, 0.009165704250, 0.041417341679, -0.000422971265, 0.039043769240, 0.012343306094, 0.018617989495, 0.019888050854, -0.016465848312, -0.014529610984, -0.048221338540, 0.023035399616, 0.022233562544, -0.034158479422, 0.013663273305, 0.005002908874, -0.017271568999, 0.005046838894, -0.003014920279, -0.002948686015, -0.010816161521, -0.023649834096, 0.013420915231, 0.002555665793, 0.033402632922, 0.003125516232, -0.009168013930, 0.003154446371, 0.007945571095, -0.019447464496, 0.005566603504, -0.006086678244, 0.024161454290, -0.010266556405, 0.012467023917, -0.012609592639, 0.016013182700, -0.020290169865, -0.019582470879, 0.012090295553, 0.020455615595, 0.023746125400, 0.035517085344, 0.023451685905, 0.003502561245, 0.014431091025, 0.015148707666, 0.006500634365, 0.024673331529, -0.011250698008, -0.024102857336, -0.010312447324, -0.002679845085, 0.005020192824, -0.014849532396, -0.017604557797, -0.029443401843, 0.001619900344, 0.030372342095, -0.025856480002, -0.013740264811, 0.011973757297, 0.023476677015, 0.012472026981, -0.004753878806, -0.020183194429, 0.017414195463, -0.008392062970, 0.013629150577, -0.024766167626, -0.019777370617, 0.005737166852, 0.000134089947, -0.021592190489, -0.038037795573, -0.015783274546, -0.003209628165, 0.015884786844, -0.001189381815, 0.015904454514, -0.015588478185, 0.016960619017, 0.012046998367, -0.005093661137, 0.015635920689, -0.014624512754, 0.003669555532, 0.024099364877, 0.011910156347, 0.002682061633, -0.012559218332, 0.031999211758, 0.008869423531, 0.006389581133, -0.037311486900, 0.011335405521, -0.011820923537, 0.005565278698, -0.041721716523, 0.009339294396, -0.008243714459, -0.035149086267, 0.031876660883, -0.017992947251, -0.027719253674, 0.003318023169, -0.045689485967, 0.001540379366, -0.001827108208, -0.036586191505, -0.037339441478, 0.006012033205, -0.002379738027, -0.013484948315, -0.002961644670, -0.039829883724, -0.026944968849, -0.000110250097, -0.013843059540, -0.018543718383, -0.020921658725, 0.010543376207, -0.006130610593, 0.014127617702, -0.004532199353, -0.006912231445, 0.005255588796, 0.007381719537, 0.000844717491, 0.004150308669, -0.024370670319, -0.012105449103, 0.005326049402, 0.012492955662, 0.003455313854, 0.009569197893, -0.005719672423, -0.009564602748, -0.012473047711, 0.009233733639, -0.019430389628, -0.013630971313, -0.007276528515, 0.017272152007, -0.003498910926, 0.004570046440, -0.022320296615, 0.015040833503, -0.027549261227, -0.018044270575, 0.013850987889, 0.015878522769, -0.013811764307, 0.005818985403, -0.011832247488, 0.001784243155, 0.027057105675, 0.040328431875, -0.005561036058, -0.022061245516, -0.009231407195, -0.004414228257, -0.018957832828, 0.040910996497, -0.023329511285, 0.019021801651, -0.023045985028, 0.010791394860, 0.007146037184, 0.029446706176, -0.013120148331, 0.001846522791, -0.009690030478, 0.003268057480, 0.016894133762, -0.005192414857, -0.000861230772, 0.007751919795, 0.001295170980, 0.007884184830, -0.016761045903, -0.030492432415, -0.027630427852, -0.020615091547, -0.036118678749, 0.000753556611, 0.019917933270, 0.028516333550, -0.010112359188, -0.002724280115, 0.004800393712, 0.018341632560, -0.000903853041, 0.023600568995, -0.038970660418, -0.021508468315, -0.033563442528, -0.013535828330, -0.000387889391, 0.011447587050, 0.019165961072, -0.006566077005, -0.041214480996, 0.036025736481, -0.031711202115, -0.029570357874, 0.000140364908, 0.002765506273, 0.003637518734, -0.018097903579, -0.011685081758, 0.013654803857, -0.038834486157, 0.004712491296, 0.024344608188, -0.002981405240, -0.009889069013, -0.007371057291, -0.006942714565, -0.026395520195, 0.010249999352, 0.010658881627, 0.046275526285, -0.021696286276, 0.003186821938, -0.001354895066, -0.007922167890, 0.015092335641, -0.005747786257, -0.002983207814, 0.020542336628, 0.022130919620, 0.005590159446, 0.009046427906, -0.026332797483, -0.013126779348, 0.007653520443, -0.007044306025, 0.004949557129, 0.020671926439, -0.008116975427, -0.011968550272, 0.015499300323, 0.002672913019, -0.003183320165, -0.007768076379, -0.061200872064, -0.013637811877, -0.013418592513, -0.012462881394, 0.019392931834, -0.005871948320, -0.000416999275, 0.031396586448, 0.004521952011, -0.015323644504, 0.016738008708, 0.034551523626, -0.006287474651, 0.001645624172, -0.024566210806, 0.049530986696, 0.018117858097, -0.005615202244, -0.028425702825, -0.010743037798, -0.036065421999, 0.014406822622, -0.008567919023, -0.042628217489, -0.007876830176, -0.010020099580, 0.007798569743, 0.002142707352, 0.007998997346, 0.004447714426, 0.003916305955, -0.003615709720, 0.020130103454, -0.003108099569, 0.001247370848, -0.022751798853, 0.004074815661, -0.012431017123, 0.027219440788, 0.031628657132, 0.031656835228, -0.043288420886, -0.019013514742, -0.022467553616, -0.028277523816, 0.021720143035, -0.007465727627, -0.030320079997, 0.017026530579, 0.040658477694, -0.002048493130, -0.000521896291, -0.021106909961, -0.005302080885, 0.001796717290, -0.050991419703, -0.000501891889, -0.006813467480, 0.007379150018, 0.003828067798, 0.002130768262, 0.011005202308, -0.006248002872, 0.020681858063, -0.005702365655, 0.018347814679, 0.058056280017, -0.007323431782, 0.010363715701, 0.004433617927, -0.000574695936, 0.026242500171, -0.038060601801, 0.004757393152, -0.024085540324, -0.009088139981, -0.004973862786, -0.016513681039, -0.042872320861, 0.010666962713, 0.012216742150, -0.002689983463, -0.040219280869, -0.017080727965, -0.024710291997, -0.007589683868, -0.032842829823, 0.001698532840, -0.023779725656, 0.032595828176, -0.004994379357, 0.002422492485, -0.017214676365, -0.001172550954, 0.010077307001, 0.001174785662, -0.013357935473, 0.037105869502, 0.003795019584, 0.000870439573, -0.019367335364, -0.033751599491, 0.036932609975, 0.009377725422, -0.015260302462, -0.015900451690, -0.031763318926, -0.010277898051, -0.004329052288, 0.018984166905, -0.010835470632, -0.004466443323, 0.021493308246, 0.048644334078, -0.024477533996, 0.022787177935, -0.026067564264, -0.005412188824, -0.034985024482, 0.035037975758, -0.025717008859, -0.009478243999, 0.014938155189, -0.017994072288, 0.031748220325, 0.022218471393, -0.035870518535, 0.004805150907, -0.058811325580, -0.023746479303, 0.030493957922, 0.028990320861, -0.003891369561, 0.005690724123, -0.010886668228, 0.050658453256, -0.008772083558, 0.018346408382, 0.011685498059, -0.038441557437, -0.059488315135, -0.029640328139, -0.027267830446, 0.013655422255, 0.024357102811, -0.014748743735, -0.013951442204, -0.013517145067, 0.014725631103, 0.025578506291, 0.014841183089, 0.011468381621, -0.025906503201, 0.024377560243, 0.003048710758, -0.016809074208, 0.000855150400, 0.006707123015, -0.004455619026, 0.010969681665, 0.018453659490, 0.045796182007, 0.022896649316, -0.017135232687, 0.001549069537, -0.014920718037, 0.018776213750, 0.004648225382, 0.009893409908, 0.019608318806, -0.022620569915, -0.013696094044, -0.043822638690, 0.027713499963, -0.035167232156, 0.002112705028, 0.019085565582, 0.066842921078, -0.010758339427, 0.004753249232, -0.005412072875, -0.008654900827, -0.000293298654, -0.000153430243, 0.005686770193, 0.023220008239, -0.002129531233, -0.025246817619, 0.040214456618, 0.025630727410, -0.008153530769, 0.018113577738, -0.001721735578, -0.035180460662, 0.019693814218, 0.025355756283, 0.022519072518, 0.012868206017, -0.004492779262, 0.003228217829, -0.001823155093, 0.013887959532, 0.011646943167, -0.026494449005, 0.015735186636, -0.014984828420, -0.010562648997, -0.003781537525, -0.016555178910, -0.013063425198, -0.001213285839, -0.015747791156, 0.022000258788, -0.010850727558, -0.020804688334, 0.003763034241, -0.027653954923, -0.008083079942, -0.030607361346, -0.016413502395, 0.016420939937, -0.020116634667, 0.007993180305, 0.013975283131, 0.004875193816, -0.009051631205, 0.014540572651, 0.005151466932, 0.011577178724, 0.000082242455, -0.016703350469, 0.011445740238, -0.000325480942, 0.016544381157, 0.015131921507, 0.005901271012, 0.010369325988, -0.007827813737, -0.002383364132, -0.004268453456, 0.004389381036, 0.007713648956, -0.031238894910, 0.002442681696, 0.009876621887, -0.007217596285, -0.009103314020, -0.018477236852, 0.016732975841, -0.017259944230, -0.017670029774, -0.033012531698, -0.023994637653, 0.010150684975, 0.011369944550, 0.015935305506, -0.012142855674, 0.022918151692, -0.032516974956, 0.006820729002, -0.011110264808, -0.011733752675, -0.006811228581, 0.039429806173, -0.023252477869, 0.003147894982, -0.038013979793, -0.022618122399, 0.005960511509, 0.049157004803, -0.026782160625, 0.000756219728, -0.029647244141, 0.018859742209, -0.038298487663, -0.044650882483, 0.014391305856, 0.032646242529, 0.006158721633, -0.045287970454, 0.010916149244, -0.028230207041, -0.032069109380, -0.018867364153, 0.007320293225, -0.005412255879, 0.041543662548, 0.023163687438, 0.012250809930, -0.038630951196, -0.028337730095, -0.015955066308, -0.005303531885, 0.043825574219, 0.007360149641, 0.028254663572, -0.051209632307, 0.002686148742, 0.019236166030, 0.017203157768, 0.017025286332, -0.001531569171, -0.010548823513, 0.020645663142, -0.048491578549, 0.036527216434, -0.042781054974, 0.002535883104, 0.010175305419, 0.006989071611, 0.013177990913, 0.013226651587, 0.003118948312, 0.005641558673, -0.001561732264, -0.059990838170, 0.022777328268, 0.011803883128, -0.015594786033, 0.033294588327, -0.003585662693, -0.049857966602, -0.042653493583, 0.004529504571, -0.016256712377, -0.045842327178, -0.019052190706, -0.002275672741, -0.044404167682, 0.017141345888, -0.016679391265, -0.031398955733, -0.005057918373, 0.025996845216, -0.033232901245, 0.034940026700, -0.045411229134, -0.005873855669, -0.005572836380, -0.022294400260, 0.044803969562, 0.019430775195, 0.022233409807, -0.033463019878, -0.024219732732, -0.012516929768, -0.001751300879, -0.020781848580, -0.011436470784, -0.005914726760, 0.042956843972, -0.008674797602, -0.032349269837, -0.083388328552, 0.001178207109, 0.027905834839, 0.018910106272, 0.021008862182, -0.012620761059, 0.026927212253, -0.018068259582, 0.030896764249, -0.003963187337, -0.009046828374, 0.013083865866, -0.013239030726, -0.030679492280, 0.030053831637, -0.032036915421, 0.029298897833, -0.018638849258, 0.004039996769, 0.018412606791, -0.012864245102, 0.006649696734, 0.024379981682, 0.038483310491, 0.014641236514, -0.000730862899, -0.017656993121, 0.020572736859, 0.026241010055, -0.016373546794, 0.004027781542, -0.008019969799, -0.030563782901, -0.007784482557, -0.001861932920, 0.014224338345, -0.007901575416, -0.012705638073, -0.028572043404, -0.018243342638, 0.008649780415, -0.016118343920, -0.022654235363, 0.021912014112, -0.010202511214, 0.018877459690, 0.012353222817, -0.024750087410, -0.001707844902, -0.010673062876, -0.022963590920, 0.047118335962, 0.024839371443, -0.003890643129, -0.013770652935, -0.015318390913, -0.031672615558, -0.008345406502, 0.007224972825, 0.044718991965, 0.006430289242, 0.032439984381, -0.007955461740, 0.003397941589, -0.036366868764, -0.013442606665, 0.037506476045, 0.049739599228, 0.015957195312, -0.016313811764, -0.001749525778, -0.024200852960, 0.007657384034, 0.005697610322, -0.011851977557, -0.001498502912, 0.046818777919, -0.035558525473, -0.046420149505, -0.026311954483, -0.001854290953, 0.038513947278, -0.036976169795, 0.015079516917, -0.031843118370, 0.008532502688, 0.007386228535, -0.025885127485, -0.023253208026, -0.013120164163, -0.054753605276, -0.002573025646, -0.005570674781, 0.020400242880, 0.014541197568, 0.002860047389, 0.034904524684, -0.001551703899, -0.034476071596, -0.038633838296, -0.043342910707, 0.018591249362, 0.033726591617, -0.028327884153, 0.013965101913, -0.016743209213, -0.003446223680, -0.047588851303, -0.021112980321, -0.039222747087, -0.062162525952, -0.029396975413, -0.041461352259, -0.022859543562, -0.047124780715, 0.053009159863, -0.002807064448, -0.009611726739, -0.015225037001, -0.021432949230, 0.002906221198, -0.026930348948, 0.002174832392, -0.031478859484, -0.015325953253, -0.002165508457, -0.007433177903, -0.021617272869, 0.023033188656, -0.036071244627, -0.001817647484, 0.030461143702, 0.027886183932, -0.005112438463, 0.025402175263, 0.009274390526, -0.001102728886, -0.017861958593, -0.009735969827, -0.024357251823, -0.008907934651, -0.006650434341, -0.024902826175, 0.012169095688, 0.028628883883, 0.008966173977, -0.070915058255, 0.006221609190, 0.017933204770, 0.042306900024, -0.025508042425, -0.010998110287, -0.002287000651, 0.021855695173, -0.037278231233, -0.022506225854, -0.031766608357, 0.030782850459, 0.024262556806, 0.041817892343, 0.025818336755, -0.040183417499, -0.040819801390, -0.057124745101, -0.002437886782, 0.009217152372, 0.002718742471, -0.046220850199, 0.016384420916, -0.039020076394, 0.043074816465, -0.036488179117, -0.006042057183, -0.011672602966, -0.021217426285, 0.011982101016, -0.023786231875, -0.030402503908, -0.024028379470, 0.033633124083, -0.016014127061, 0.007847894914, 0.025389794260, -0.037981018424, -0.004079622682, -0.015523247421, -0.022760508582, -0.013929490931, -0.006904628128, -0.018580850214, -0.025371860713, -0.026178183034, -0.004805247765, 0.009121038020, 0.006741936319, -0.041546046734, 0.015883378685, 0.034620471299, 0.036865971982, -0.058522440493, -0.010545104742, -0.005294381175, 0.002373803407, -0.024822952226, 0.009913960472, -0.039681524038, -0.026860119775, 0.002442642115, -0.006802464370, -0.006389483809, -0.026415046304, -0.007370907813, -0.008067398332, 0.038422983140, 0.018321568146, -0.026986770332, -0.000636730285, -0.023108566180, -0.003046485828, -0.011173862033, -0.028755266219, 0.009135826491, 0.017553176731, -0.042865876108, 0.021244436502, 0.009636436589, -0.018312368542, -0.015084966086, -0.042925603688, -0.000623459055, 0.000060214268, -0.038195144385, 0.015508749522, -0.025265103206, 0.018593594432, -0.012635538355, 0.013408964500, -0.043138474226, -0.018831042573, 0.007757646032, -0.005557680503, -0.013544509187, -0.004400766920, 0.037350166589, -0.043081697077, 0.054308865219, 0.017130719498, -0.002351850504, 0.008095137775, -0.028077863157, 0.013153155334, -0.003788032569, -0.015313007869, -0.039739735425, -0.010524733923, 0.006159012672, -0.001877536066, 0.011338401586, 0.026050135493, -0.007602943573, 0.043192584068, -0.030576862395, 0.033138576895, 0.005454527680, 0.016193063930, 0.004919060040, -0.046183321625, -0.010853717104, 0.013866793364, -0.013570178300, 0.033524129540, -0.046814069152, 0.034750528634, -0.023968264461, 0.016093144193, 0.013193873689, 0.012398984283, 0.014395434409, 0.012377493083, -0.017784178257, -0.005015307572, -0.034357752651, -0.046523094177, -0.019304685295, -0.016269810498, -0.022737063468, -0.029187848791, 0.011467396282, 0.031058974564, 0.019617199898, -0.063713684678, -0.055419955403, -0.040586743504, 0.014416791499, 0.003087802557, 0.037446074188, -0.005418025423, -0.023707373068, -0.021418578923, -0.005874931347, 0.021802898496, -0.023837501183, -0.003471926553, -0.028233626857, -0.004746114369, -0.003136902116, -0.019070517272, 0.006600628607, -0.057471714914, -0.013901473023, 0.014715055935, -0.052698813379, 0.032427892089, -0.019523229450, -0.022029714659, -0.038284607232, -0.027877433226, -0.000460526586, -0.028533538803, 0.008338478394, 0.011207715608, -0.041052080691, -0.049516756088, -0.047326792032, -0.028021866456, 0.040367294103, 0.006287502125, 0.031342715025, 0.025982689112, -0.011068431661, -0.003130180528, -0.019284166396, 0.037244133651, -0.011486597359, -0.015825962648, -0.000829713943, -0.025019768625, 0.017122948542, -0.022731721401, 0.018683418632, -0.003009789623, -0.001016765716, -0.006359111983, -0.039836440235, 0.025022378191, 0.009669662453, -0.031310282648, -0.015507359058, -0.016466995701, 0.011525641195, 0.006369879935, 0.031114956364, 0.041166450828, 0.006032942794, -0.062914267182, -0.005959133618, -0.024019340053, 0.001040573698, 0.030387204140, -0.032790966332, 0.037662118673, 0.004171007313, -0.006109640934, 0.027061630040, -0.005589700770, -0.004051180556, 0.011391140521, -0.015201228671, -0.017258299515, -0.013283027336, -0.016609486192, -0.027109632269, -0.010133276694, 0.047835629433, 0.008024653420, -0.011743573472, 0.073915399611, -0.033042009920, -0.025690114126, -0.000489802216, -0.018805392087, 0.009556469508, -0.043577741832, -0.017843492329, 0.047943569720, -0.009062158875, -0.059909999371, -0.008940968663, 0.021377831697, -0.003056693589, 0.027445115149, -0.021464338526, 0.010001991875, -0.010277653113, -0.013367545791, -0.019965844229, 0.037561029196, -0.019739404321, -0.037580184639, -0.006111267954, -0.040547028184, -0.016859842464, -0.007620230317, 0.096645683050, -0.024193193763, 0.037897117436, 0.036669999361, -0.022410139441, 0.006722890306, 0.010356664658, 0.010996567085, 0.010275587440, -0.006988223176, 0.029632644728, 0.000383524981, 0.009618416429, 0.013540890068, 0.015579852276, -0.033433232456, -0.018175246194, -0.028164958581, -0.003200080246, -0.023860996589, -0.018402779475, 0.025007029995, -0.010667246766, -0.003722412745, -0.002690215129, -0.023405732587, 0.038012705743, 0.009166062810, -0.042680166662, -0.027546802536, -0.021309427917, -0.014073452912, -0.028583591804, -0.019995074719, 0.018542973325, -0.035337649286, 0.002306003124, 0.082574136555, -0.046315409243, 0.000068588255, -0.010813064873, -0.033249173313, -0.009774383157, -0.020444391295, 0.001562786172, -0.019118674099, 0.018877586350, -0.048413321376, -0.012365673669, 0.021905828267, -0.005302775186, 0.010201989673, -0.003603316611, 0.041179407388, -0.030978702009, -0.032508265227, 0.023218013346, -0.015048806556, -0.027369294316, 0.009492269717, -0.036993671209, 0.007406562567, -0.011586552486, -0.004264302552, -0.065986506641, 0.018148735166, -0.031890183687, -0.021747013554, -0.043165661395, -0.037945110351, -0.014338391833, 0.003110653488, -0.025599949062, -0.021020893008, -0.021018516272, 0.011211366393, 0.031238228083, -0.018634412438, 0.017958646640, -0.021146360785, -0.026574064046, -0.019582098350, -0.015895638615, 0.001105634845, -0.032455194741, -0.041818048805, -0.005619631149, -0.008627718315, -0.034461759031, 0.005089295097, -0.068952143192, -0.035133417696, -0.065648809075, 0.009477384388, -0.004477723036, -0.022134587169, -0.016474090517, -0.043433699757, 0.025263629854, -0.044599793851, -0.005077790003, -0.011611523107, -0.041557442397, -0.027715340257, -0.031866118312, 0.010793717578, 0.015579054132, -0.018185909837, -0.026580549777, 0.009097499773, -0.039776999503, 0.013717862777, 0.010945071466, -0.027150144801, 0.028274869546, -0.012762420811, -0.045477863401, -0.016761759296, -0.044063787907, -0.012742326595, -0.001443039859, -0.012901652604, -0.009614657611, -0.002604045905, -0.008928875439, 0.009127641097, -0.025979213417, -0.017226949334, -0.035973049700, 0.020403249189, 0.023763114586, -0.024944346398, -0.012350379489, 0.040588613600, 0.009669261053, -0.014120616950, -0.009001431987, 0.009450244717, 0.000876978913, 0.009051441215, -0.036767933518, 0.018296506256, -0.030589072034, -0.016555976123, -0.030530210584, -0.051948197186, -0.022897625342, 0.006681902334, -0.021162167192, -0.008995937183, 0.012708346359, -0.006744582672, 0.019380811602, -0.032962694764, -0.021837109700, -0.031390614808, -0.025557098910, -0.050317928195, -0.012905040756, -0.050206542015, -0.015164231881, -0.051050335169, -0.035536635667, 0.015627777204, -0.025844445452, -0.018391901627, 0.004578321707, 0.016239760444, -0.035373475403, -0.017115248367, 0.040325775743, -0.051833242178, -0.007683767471, -0.022162558511, -0.047260466963, -0.014184003696, 0.001552033587, 0.023815987632, 0.024952314794, 0.032705217600, -0.025113208219, 0.003507048590, 0.000185483994, -0.028212266043, -0.010869533755, 0.018890429288, -0.057778205723, -0.007876299322, -0.000634950935, -0.032697577029, -0.035464975983, -0.032273575664, -0.018710289150, -0.028650004417, 0.046033047140, -0.041483219713, -0.026534521952, 0.011918914504, -0.000272596692, -0.007642265409, -0.022988121957, 0.006218893919, -0.002345730551, -0.000865060196, -0.066119879484, 0.006133595947, -0.050557922572, -0.040800087154, -0.043632686138, 0.011324008927, -0.004937699996, -0.061521913856, -0.021308666095, 0.021414270625, -0.027550525963, 0.005932461005, 0.016614643857, -0.021376436576, 0.005291120615, -0.024550208822, 0.004988717847, -0.034507829696, 0.005614788271, -0.027821552008, -0.020341826603, -0.020508660004, -0.046350337565, -0.014001936652, 0.004380873870, 0.015393462963, -0.006633402780, -0.013076663949, -0.027159383520, -0.008613204584, 0.008360629901, -0.018891800195, -0.030082955956, 0.042253401130, 0.008032105863, -0.001360537834, -0.004532995634, 0.037655331194, 0.048399772495, -0.000986805884, -0.029432449490, 0.005680430215, 0.010565347038, 0.012644614093, 0.007697842084, 0.005610731430, 0.002389383269, 0.005017967429, 0.000099696983, -0.008410026319, -0.006058346946, -0.009314271621, -0.005930710118, -0.002531561768, -0.007315428462, -0.007925637066, -0.000038284164, -0.015373609029, -0.014176857658, 0.009861792438, -0.007784591988, -0.004438753705, -0.014291384257, -0.001648795325, 0.004206073470, -0.003000971163, -0.002667778172, 0.004665276967, -0.009736249223, 0.000354564429, 0.002787969308, -0.007472323254, 0.004833539017, -0.007848816924, -0.002985305618, -0.001176141435, -0.000169871855, 0.007013101131, 0.002207375597, -0.001005723141, -0.001440951251, 0.006010809448, 0.008003698662, -0.001971294871, -0.003786022775, -0.008287688717, 0.003595939139, -0.000878385268, 0.012524642050, -0.004450886510, 0.003573528957, -0.007791449316, -0.005093245767, -0.002163802739, 0.001716674888, 0.008245371282, 0.006945282687, 0.002809619997, -0.012986142188, -0.001571533619, -0.004955158569, 0.008378013968, -0.002344795736, -0.003004172351, -0.005797719583, 0.002333749318, 0.002432611538, -0.004432395101, 0.008784760721, 0.005637419410, 0.008348268457, 0.005202652421, -0.010390355252, -0.009798980318, 0.002056212397, -0.004325365648, 0.009445250034, 0.012997241691, 0.001903127995, -0.001789673697, -0.003067332087, -0.005278545432, -0.009747207165, 0.009359100834, -0.000696322939, 0.001364105847, -0.004025815986, -0.004588377662, 0.006061539520, -0.007339606993, 0.004408934619, -0.010183800012, -0.000065314023, 0.001284970320, 0.000562794274, -0.007099491544, -0.004140901379, 0.009635820985, 0.003170797369, -0.001214522053, -0.001480355510, 0.003360810457, -0.008716345765, -0.002343638800, -0.006980671547, 0.001872842317, 0.001064247452, 0.001122912508, -0.002083615633, -0.001149941701, -0.003792907810, -0.010650393553, 0.000510315003, 0.000024064895, 0.008954446763, -0.003265682608, -0.004889792297, 0.014694205485, 0.003468099050, -0.001899038325, -0.007219599094, -0.005768779665, -0.003167650895, -0.002126814332, 0.003194192657, 0.001137915882, 0.005033915862, -0.001842745580, 0.006968959235, -0.009666578844, -0.015198118053, 0.007610952947, 0.006717210636, -0.012201177888, -0.001039238065, 0.011281622574, -0.005586131010, 0.003370392602, -0.011674293317, -0.012345265597, -0.012121098116, 0.008202563971, -0.009112410247, -0.003695443738, -0.005986855365, -0.004135086667, -0.001696737250, -0.000086369495, -0.005196468439, 0.009426599368, -0.010420959443, -0.008741722442, 0.020155765116, -0.011626362801, -0.001632962492, -0.002685750835, -0.004347946029, 0.004438309465, 0.008288918994, -0.009343633428, 0.006593158934, 0.004048765171, 0.005146801472, 0.001108643599, 0.005644017365, 0.006137346849, -0.007142108865, 0.005365122575, 0.006829444319, 0.004292349797, 0.005599852651, 0.009582063183, 0.002405293286, -0.015646629035, 0.000965795596, -0.013054800220, 0.014239879325, -0.008676885627, 0.011483327486, -0.006614804734, -0.010279437527, 0.017718557268, 0.004813228268, -0.000284681097, -0.001673566177, -0.008308732882, 0.002134280512, -0.004086581059, -0.000346198707, -0.013897664845, 0.006410965696, 0.001073588501, -0.006382684689, -0.010469491594, -0.003893904155, 0.016004564241, 0.002901241183, 0.002620825078, -0.000008267065, -0.004089172464, 0.007249161135, 0.002454900881, 0.011871814728, 0.002753819106, -0.003826567903, 0.014649000019, -0.002978105098, 0.000956560485, -0.011848815717, -0.002537764842, -0.012000524439, 0.003866271116, -0.001414933940, -0.000963862229, -0.014486422762, -0.013453874737, 0.004056718200, -0.002785952995, 0.000340655883, -0.004760530312, -0.007376405410, 0.005080834962, 0.003751752200, -0.005618796218, 0.015267851762, -0.004079385195, 0.010864883661, -0.002860218519, -0.001632099389, 0.003413962433, 0.010101499967, -0.005751076154, 0.006080117542, 0.010446667671, 0.003507586895, 0.008602935821, -0.004090206232, -0.005195496604, -0.000646432571, -0.009759060107, 0.009359404445, -0.006206263322, 0.008922547102, -0.005364411045, 0.005252437200, 0.015126301907, 0.002310339594, 0.004113645758, 0.004168057814, -0.001475233468, 0.000758399081, 0.000195841072, -0.009083715267, -0.005394014996, -0.002702215221, 0.001547507942, -0.005343049765, -0.013999164104, -0.001780840801, 0.022749071941, 0.004990911111, 0.004067021888, 0.010165238753, -0.004099681508, -0.004202550743, -0.009902588092, 0.015678867698, -0.007155988831, 0.003706268501, 0.009069859050, -0.001880024676, -0.007726681419, -0.005843720865, -0.013317332603, -0.005322295707, 0.001977987820, 0.000623099622, -0.006236049347, -0.003597803647, -0.013433697633, 