//Numpy array shape [3, 3, 64, 128]
//Min -0.343771725893
//Max 0.317976176739
//Number of zeros 0

#ifndef W27_H_
#define W27_H_

#ifndef __SYNTHESIS__
model_default_t w27[73728];
#else
model_default_t w27[73728] = {0.012438256294, 0.001674685744, -0.029540784657, 0.007314162795, 0.021175656468, 0.018677107990, -0.056693281978, -0.034988105297, -0.014026901685, 0.001433553523, 0.018064092845, -0.013116111979, -0.015534977429, -0.040727689862, -0.005194313359, 0.001475253492, 0.010941713117, 0.003302386729, 0.032430484891, 0.041736852378, -0.015534900129, -0.051174990833, 0.023539150134, -0.011711588129, 0.008652599528, -0.023005513474, -0.025800457224, 0.006692074705, 0.005473136902, -0.004844263662, -0.012622768991, -0.020441953093, 0.000412187597, 0.015069790184, 0.020577501506, -0.014998190105, -0.025063239038, -0.008519064635, 0.008814027533, -0.013077952899, -0.018224554136, -0.004506245721, -0.012074437924, -0.013770990074, -0.011663313955, 0.034532956779, 0.055710244924, -0.047101411968, -0.029009519145, -0.020802497864, -0.019276853651, -0.015465574339, -0.028697645292, -0.000993264606, -0.001552982023, -0.002897428116, -0.020892793313, 0.007087812759, -0.009881857783, 0.001683058450, 0.029579700902, -0.022077411413, -0.018422907218, -0.003485345049, -0.049742639065, 0.009202788584, -0.002866667928, -0.018130073324, -0.023345829919, 0.011479307897, -0.012777433731, -0.009908435866, -0.010503524914, -0.029388861731, -0.011202368885, -0.036591000855, 0.031476087868, -0.034209914505, -0.014223204926, -0.003275588853, -0.010457210243, -0.051394656301, 0.009912533686, -0.010915089399, -0.008541350253, -0.034406974912, -0.031847093254, -0.006342551205, -0.021012013778, -0.033561356366, -0.013131747022, -0.024237159640, -0.001707741409, 0.001118311309, -0.004751745146, 0.017299404368, -0.001197685138, 0.000971182948, -0.034241877496, 0.015488386154, -0.018399572000, -0.026661498472, 0.010309834033, -0.014147662558, 0.005890448578, 0.012122773565, -0.025992084295, -0.046685140580, 0.009452423081, -0.015256613493, -0.027807544917, 0.010187685490, -0.029678711668, 0.001108844648, -0.013157046400, -0.026661893353, -0.039259225130, 0.016353717074, -0.000526275544, 0.012197829783, -0.019103104249, 0.010937762447, -0.009369788691, 0.003336764406, 0.003707744647, 0.043547149748, -0.003312700428, 0.014428338967, 0.020849468186, -0.004566717893, 0.003576396964, -0.009145261720, -0.039782389998, 0.032012507319, -0.009822549298, 0.020886667073, 0.021692560986, 0.041352037340, -0.023629589006, -0.024494389072, 0.035164207220, -0.053882014006, 0.019454834983, 0.028094636276, 0.005011686124, -0.047602795064, 0.020984791219, -0.000738407485, -0.002333749551, 0.047769494355, -0.055847760290, -0.030945548788, 0.025205405429, -0.039320062846, -0.001752028125, 0.000030607920, 0.021248765290, -0.024672986940, -0.000423167367, 0.018278516829, 0.020264063030, -0.005852176808, 0.029064051807, 0.003919872921, -0.039968680590, -0.015670757741, -0.003531952854, 0.032587449998, 0.044261451811, 0.041867684573, -0.022162435576, 0.027290930972, 0.025481941178, 0.048834227026, 0.026510801166, 0.035698063672, -0.082524858415, 0.032997470349, -0.036262929440, 0.024009404704, 0.001908459235, -0.002368506743, -0.028154592961, 0.007095826324, -0.003214601427, 0.014420148917, -0.005867178552, -0.010759168305, -0.015459498391, -0.005321646109, -0.002028364222, -0.015076669864, -0.019938377663, -0.023975603282, -0.036597970873, -0.002295085229, 0.003578740172, 0.008075402118, 0.023329917341, -0.053743440658, -0.031477656215, 0.035645604134, 0.010459052399, 0.006136029959, -0.040922246873, -0.017433285713, 0.007531849667, -0.008084115572, 0.007200925145, -0.045231647789, 0.020740212873, -0.000762436131, -0.004998843651, -0.036833778024, -0.004767511040, -0.000633670948, -0.017475038767, -0.000525458541, 0.048577733338, 0.008619283326, -0.026541545987, -0.048662453890, -0.022396197543, -0.009600223973, -0.016807500273, -0.063564717770, 0.006834618747, 0.000839496264, -0.026088148355, -0.083979360759, -0.044650286436, -0.025777418166, -0.007156861946, -0.031846292317, 0.008206995204, -0.036009185016, -0.043253637850, 0.029167164117, -0.005050172564, -0.001351152197, -0.032679103315, -0.076881036162, -0.057711102068, 0.011165088974, -0.013025966473, -0.025560518727, -0.017273282632, -0.063977271318, 0.017081927508, -0.032933477312, -0.035413835198, -0.039870370179, -0.007540577091, 0.016356050968, -0.030000220984, -0.047756660730, 0.049177203327, 0.015074796975, -0.039647359401, -0.021303655580, -0.021594671533, -0.017992405221, 0.019963189960, 0.016340505332, -0.041330326349, -0.025750031695, 0.025630794466, -0.017819052562, -0.033742371947, 0.051889970899, 0.014028759673, -0.018712129444, -0.010304852389, -0.026452811435, -0.021025560796, -0.059107527137, 0.005291332025, 0.024672312662, 0.012692318298, -0.021854963154, -0.039871443063, -0.010775385424, 0.000628892565, 0.026088029146, -0.013833279721, 0.014894492924, -0.016723308712, -0.038272183388, -0.016555767506, -0.014187349938, -0.045490268618, 0.011773512699, -0.007136378903, 0.015918686986, -0.050692241639, -0.029628796503, -0.022229259834, -0.028196157888, -0.000732506334, -0.067769162357, -0.028533682227, -0.001533989445, -0.055102709681, -0.001806760440, -0.005938569549, -0.060880791396, -0.021526439115, -0.006794030778, 0.015426901169, -0.028186734766, 0.000937743112, -0.020126653835, -0.017293918878, -0.039936393499, -0.021420674399, -0.023595377803, -0.034336302429, 0.038819063455, -0.004782479722, -0.070358492434, -0.017463348806, -0.018999274820, -0.014543415047, -0.001366506214, 0.021415945143, -0.020429637283, 0.010622149333, -0.037621520460, -0.002459941898, 0.033640388399, -0.008267326280, -0.022461565211, -0.005495494232, -0.006110965740, 0.053492881358, 0.008344659582, 0.004800034687, 0.002882882021, 0.066023804247, -0.018331423402, -0.007440751884, -0.009823035449, 0.037256218493, -0.022561591119, -0.006262782495, -0.016124466434, -0.010991775431, 0.020896788687, -0.026309980080, 0.029452484101, -0.015972418711, 0.018143432215, -0.013295713812, 0.017859430984, -0.011374417692, -0.015812398866, 0.007189364638, -0.031104808673, -0.015225049108, -0.017149696127, 0.018380267546, 0.010663064197, 0.013090987690, -0.028020719066, -0.030063254759, -0.046619050205, 0.014451400377, 0.013354375027, -0.001018453273, 0.010684045963, -0.025599291548, 0.008195310831, -0.007048639469, -0.075298897922, 0.006317067426, -0.002446937608, -0.009398288094, -0.032582513988, -0.022194135934, -0.026604769751, -0.016109684482, -0.027184819803, -0.024403024465, -0.040372297168, -0.004348380957, -0.033897154033, -0.021472429857, -0.007877640426, -0.013403390534, 0.025194408372, 0.019294833764, 0.005061993841, 0.011952517554, 0.033431731164, -0.005643412936, -0.015992807224, -0.038612827659, -0.073181174695, 0.010194702074, 0.014249399304, -0.012441690080, -0.014890816063, -0.002524907468, -0.007501005661, 0.015422049910, -0.003069681814, -0.046558432281, -0.008810441010, -0.018978206441, -0.005552465562, -0.004719411489, 0.000901385385, 0.028284946457, 0.017063464969, -0.006944388151, -0.002022078261, -0.013841156848, -0.006678171922, -0.002666943707, 0.009478905238, -0.052086476237, -0.005595936906, 0.042776670307, -0.026956824586, 0.003902950324, 0.005202636588, -0.000803490693, 0.003912103828, -0.049159400165, 0.019523739815, -0.012456089258, 0.006595063023, -0.006760093849, 0.022396489978, -0.047815375030, -0.036294665188, -0.005612261593, -0.018331049010, 0.025803208351, -0.047864858061, -0.010567715392, -0.015716833994, -0.019017392769, -0.068554364145, 0.000071537332, 0.032244309783, -0.035109143704, 0.005233556964, 0.014277907088, 0.057032674551, -0.022297199816, 0.022655701265, 0.020733030513, -0.022382773459, 0.004048575182, 0.031885784119, -0.014900085516, -0.015376677737, -0.011415512301, -0.015914887190, 0.000967693515, 0.013267450035, 0.003432787023, -0.000347381516, -0.028938831761, 0.030814955011, -0.000805378717, -0.018182363361, -0.009847292677, -0.008904518560, -0.009463504888, -0.004679061938, 0.004844613373, 0.001400544308, -0.009516142309, -0.035076946020, -0.035361032933, -0.016642186791, -0.012108955532, -0.024241978303, -0.018066376448, 0.000235652609, -0.011143576354, -0.015842396766, 0.020921995863, 0.046619996428, -0.007026983891, 0.001376502565, 0.002951748436, -0.037721589208, 0.013926772401, -0.016127889976, -0.010755307041, -0.001915975125, -0.020072821528, 0.004415827338, -0.049747064710, -0.028567586094, 0.016276439652, 0.004559640773, -0.016957238317, -0.003642792813, -0.006565264426, 0.037837997079, 0.023703657091, 0.006770801265, -0.019652845338, -0.019465355203, -0.017025854439, -0.034673672169, -0.063764236867, -0.014812659472, -0.008817604743, 0.006014986895, 0.028715789318, 0.021772187203, 0.036622881889, -0.007369356230, 0.037856817245, -0.000385582796, -0.012542531826, -0.004706257489, -0.006276167464, 0.008962652646, -0.032843951136, 0.000166907979, 0.018228515983, -0.009932010435, -0.005314855836, -0.008039227687, -0.014095025137, -0.004651418421, 0.021740494296, -0.017353972420, 0.015093068592, -0.029227593914, -0.007588442881, 0.031913846731, 0.019698629156, -0.028108268976, 0.001615458052, -0.018986726180, -0.021854590625, 0.006067349575, 0.022358154878, 0.010103811510, -0.005669432227, -0.041263874620, -0.036837484688, -0.029794044793, 0.036157634109, -0.075563199818, 0.025001754984, -0.031135087833, 0.003832292743, -0.022405497730, -0.017650181428, 0.014659134671, -0.046347986907, -0.004467222374, 0.010647105053, -0.052078355104, -0.021550884470, -0.012829112820, -0.026172114536, 0.004762134980, 0.012087696232, -0.012274228968, -0.034350581467, 0.017556052655, 0.018180260435, 0.023180307820, -0.017025766894, -0.030203647912, -0.028135636821, -0.025023819879, 0.037517443299, -0.037811078131, 0.013483586721, -0.009748305194, 0.004406425636, -0.044213861227, 0.026650153100, 0.021446701139, 0.031651783735, -0.042908381671, -0.008709338494, 0.002037498867, -0.051283080131, -0.093221396208, 0.001275155810, -0.012687005103, -0.020881012082, 0.033143553883, 0.029074195772, -0.037163961679, 0.031017316505, 0.018456954509, -0.053457859904, 0.030080575496, -0.003018525196, 0.040989276022, -0.003938056529, 0.084715694189, 0.012608406134, -0.024604873732, 0.046059485525, -0.019783278927, 0.035139195621, 0.000939194520, 0.029214078560, -0.026662256569, 0.061117045581, 0.025353888050, 0.051717445254, -0.071866773069, -0.091346882284, -0.026654433459, -0.037564069033, -0.089436948299, -0.064508616924, -0.013165035285, -0.014787713997, 0.025688100606, -0.039299540222, -0.028651159257, -0.037416927516, -0.029373019934, 0.046272601932, -0.030431818217, -0.001449814183, -0.017805187032, 0.019616210833, 0.035593558103, 0.004169950262, 0.017091015354, -0.087966404855, 0.069605708122, -0.023564932868, -0.037211276591, 0.048928216100, 0.016715526581, -0.012483373284, -0.037829417735, -0.038721218705, 0.030182415619, 0.004061403219, 0.055838152766, 0.020431632176, 0.023739315569, -0.024734733626, -0.025421686471, 0.043903864920, 0.014994410798, -0.020533857867, -0.007573373616, 0.024237141013, 0.036618448794, -0.038378350437, -0.047553323209, -0.048569962382, 0.015229146928, -0.040626257658, 0.024421852082, -0.034371219575, 0.007539907470, 0.004668071866, -0.002232943429, 0.014111355878, 0.070876315236, 0.037069249898, 0.008612322621, 0.011750627309, -0.012136435136, 0.034696608782, -0.012606307864, -0.041479978710, -0.045364189893, 0.007614404894, 0.045864328742, 0.062486238778, 0.054113708436, 0.010756314732, 0.029425330460, -0.036411724985, -0.043234899640, -0.065943419933, -0.005977112800, 0.039384197444, 0.094522543252, -0.088426284492, -0.011182723567, -0.036072995514, 0.057600792497, -0.012462138198, 0.007546268869, 0.019052032381, -0.032241079956, -0.027062872425, -0.045268584043, 0.009467439726, 0.030863942578, 0.030057756230, -0.002902552951, 0.075358487666, 0.004916145932, 0.036272149533, 0.008579851128, -0.006463441532, 0.004026594106, 0.024514358491, -0.032579183578, 0.021333288401, 0.042826630175, 0.060169994831, -0.004048533738, 0.057703137398, -0.008165963925, 0.003015330527, 0.046784885228, 0.030263274908, 0.020066013560, -0.016014732420, -0.058815795928, 0.024826398119, 0.002816098044, 0.036292292178, -0.004229853395, 0.021050648764, 0.014934259467, 0.021829094738, 0.025795267895, 0.050618510693, 0.026222558692, 0.040787704289, -0.014127439819, -0.011835937388, -0.042438440025, 0.055209059268, 0.011653735302, 0.007764746901, 0.092438653111, -0.052037060261, 0.000916320365, -0.034710261971, 0.026374885812, 0.023745860904, 0.014282892458, 0.019104003906, -0.028962444514, -0.003288966836, 0.023599337786, 0.016039097682, -0.075109042227, 0.064818024635, 0.012848448008, -0.017500108108, -0.006606661249, 0.055265106261, -0.062257997692, 0.034521378577, -0.077818423510, -0.022786559537, 0.016576094553, -0.051156774163, -0.002229343867, -0.002824377269, -0.009967631660, -0.054014336318, -0.004713405389, 0.100017361343, -0.106582470238, -0.007640255615, 0.018840614706, 0.030498951674, 0.026718942448, -0.028186555952, 0.001919604838, -0.008375425823, -0.037611894310, 0.020249338821, 0.038597051054, 0.017164837569, 0.019005497918, -0.100522577763, 0.003959544469, -0.010213331319, -0.052430324256, 0.101226396859, -0.021505123004, -0.051738381386, -0.015913099051, -0.083366528153, 0.054202698171, -0.005554167554, 0.063229717314, 0.076934047043, 0.049135752022, -0.078453838825, -0.046403896064, 0.021222807467, -0.018898356706, 0.020581331104, -0.013505135663, 0.112404227257, 0.029619291425, -0.033569570631, -0.038530420512, -0.105371512473, 0.011309449561, -0.005848283414, -0.059274572879, 0.029396850616, -0.166046261787, 0.009062983096, 0.056388866156, 0.020554738119, -0.030372161418, 0.017580380663, -0.028281560168, 0.026221686974, 0.014454634860, -0.043260406703, 0.018963729963, -0.054569456726, 0.010392161086, 0.020555749536, 0.009094499983, -0.092389889061, 0.051963169128, -0.057069309056, -0.050762217492, -0.041996728629, -0.034307509661, -0.013608929701, -0.079483874142, -0.016956031322, -0.038055915385, 0.017295423895, -0.027067352086, -0.111235149205, 0.023545373231, -0.068539686501, -0.063122756779, -0.051727630198, 0.005882157013, -0.048499353230, 0.002063758206, -0.032440055162, -0.021400189027, -0.025892255828, 0.002919686958, -0.061390507966, 0.025440549478, 0.042076535523, -0.053132757545, -0.006783020217, -0.019242933020, -0.041143268347, -0.074070110917, -0.032549023628, -0.000243111295, -0.094455190003, -0.018174715340, -0.048734493554, -0.017043337226, -0.008524018340, 0.056428659707, 0.025025906041, -0.075550623238, -0.010732201859, -0.017452292144, -0.018095705658, -0.039539072663, -0.026601543650, -0.024710083380, -0.024879243225, -0.122624911368, -0.053773142397, -0.010650642216, -0.038393311203, -0.009766559117, -0.033340014517, -0.015468726866, -0.029178973287, -0.015393995680, -0.047053758055, 0.008061678149, -0.078021585941, -0.054253779352, 0.001038828748, -0.037191297859, -0.027694502845, -0.115862339735, 0.036190450191, -0.052141182125, 0.031237628311, -0.009934243746, -0.061438184232, -0.020015986636, 0.024892250076, -0.027195140719, 0.039546974003, -0.005371305626, 0.018388835713, -0.009892056696, -0.016934445128, -0.047341562808, -0.022283177823, -0.008848761208, -0.069740951061, -0.067769058049, 0.041797224432, -0.010275067762, -0.001872368273, 0.036823678762, -0.035725984722, 0.001861410914, 0.026545701548, -0.007840143517, -0.064101412892, -0.031451988965, -0.012781905010, -0.031139986590, -0.022505138069, -0.019731195644, -0.049443710595, -0.031516492367, 0.054413653910, -0.005577620119, -0.036080788821, -0.009402741678, -0.114494174719, -0.100860670209, 0.007050974295, 0.020878825337, -0.032752733678, 0.016404053196, -0.067103281617, -0.022982623428, -0.002089382382, -0.053269032389, 0.022495828569, -0.092705339193, -0.083649009466, -0.097171530128, 0.039235725999, -0.021528337151, -0.004796566442, 0.025917554274, -0.071257442236, -0.073330707848, -0.076102763414, -0.033546950668, 0.023252379149, 0.023669136688, -0.016629371792, -0.113069333136, -0.012488584965, -0.054883521050, 0.007808994967, 0.027823977172, 0.010890456848, -0.034314196557, 0.004611377604, -0.034960228950, -0.002881865948, 0.011826829985, 0.043457299471, -0.026024617255, -0.060776758939, -0.062404721975, -0.033637054265, -0.055314842612, 0.081878863275, -0.026326430961, -0.098533771932, -0.010044421069, 0.027536876500, -0.082354806364, 0.055644232780, -0.009976730682, -0.086844630539, -0.058576807380, -0.073750130832, -0.071034722030, -0.025189338252, 0.009226648137, -0.029857236892, 0.054556112736, 0.056262977421, -0.047294814140, -0.010412460193, -0.003568588058, 0.066458843648, 0.001889092498, 0.084844619036, 0.017500462011, 0.074287213385, -0.054295934737, -0.097201265395, -0.057048521936, 0.019116234034, -0.037487160414, 0.084408588707, -0.074236638844, -0.004670414608, 0.077132016420, -0.028292544186, 0.024215571582, 0.001548622502, 0.012814542279, -0.039147879928, 0.021217187867, 0.001492535113, 0.043508999050, -0.040981821716, -0.002279914683, 0.058655943722, -0.011973467655, -0.022787684575, -0.040893584490, -0.066543698311, -0.032050184906, -0.002986951498, -0.026529941708, 0.020876426250, 0.043956596404, -0.046909835190, -0.077425412834, 0.014617118053, -0.046609759331, -0.048951569945, -0.094641871750, 0.024158369750, -0.016629828140, -0.003558770288, -0.059075895697, 0.043120041490, -0.071775361896, -0.005382312462, -0.016072079539, -0.060351718217, -0.009669991210, -0.020052380860, 0.015039171092, -0.010648720898, -0.038745146245, -0.011530975811, -0.052135623991, -0.016126997769, -0.071234963834, -0.030307188630, 0.011160453781, 0.021236287430, -0.021829251200, -0.086096435785, -0.054866626859, -0.060055617243, -0.000269877521, 0.010088139214, 0.033003065735, -0.074648208916, -0.037685297430, -0.063235245645, 0.017790241167, -0.072788186371, -0.018693564460, 0.042594883591, -0.031319577247, -0.058330483735, -0.069981448352, -0.008498645388, 0.010513081215, 0.020037068054, 0.049443326890, -0.089764587581, -0.075238063931, -0.016380123794, 0.038708031178, -0.006685847417, -0.060473009944, 0.027754802257, -0.010297244415, 0.000811228761, -0.126590356231, 0.050018396229, -0.026445159689, 0.005465195049, 0.006025145296, -0.060794439167, 0.023530080914, -0.019801853225, -0.013914028183, 0.045004848391, 0.031282868236, -0.023089217022, 0.009423500858, -0.077627316117, -0.046454235911, 0.028590353206, 0.062796182930, 0.056201338768, -0.018815914169, -0.007281568833, -0.034994918853, 0.027714969590, 0.017181789503, -0.043393425643, 0.042733833194, 0.027677595615, -0.016643883660, 0.014267620631, -0.007438444532, 0.003531372407, -0.060969542712, -0.050151418895, -0.048444852233, 0.057385709137, -0.062423467636, -0.005024150480, -0.050788350403, -0.029625739902, -0.008853954263, -0.064679361880, 0.017181830481, 0.008980478160, 0.003608217929, -0.049247924238, 0.027923772112, -0.012166989036, 0.029272697866, -0.068286366761, 0.049792464823, -0.011540322565, -0.028146177530, -0.058193501085, 0.019014867023, -0.002901563887, 0.023840837181, -0.028155768290, -0.072308927774, -0.020974390209, -0.054877217859, -0.002722739475, -0.054121613503, -0.010360496119, 0.052928227931, 0.020241556689, -0.031986214221, 0.044962216169, -0.032711796463, 0.027748193592, -0.028945531696, 0.007351403125, -0.007054901682, 0.019674791023, -0.012163538486, -0.016653398052, 0.005098090973, -0.038028478622, 0.000440390926, 0.038277417421, 0.019453240559, -0.010980199091, -0.015827938914, 0.023463476449, 0.036504000425, -0.000861408305, -0.024873802438, -0.037545323372, -0.032401539385, -0.083787754178, -0.050818476826, -0.024731429294, 0.032544955611, 0.017294442281, 0.006018684711, -0.008805962279, -0.020011719316, -0.010085536167, 0.017489509657, 0.000669933273, -0.022282408550, -0.000016209910, -0.007078500465, -0.008754567243, -0.040739726275, -0.024891683832, -0.000894969911, -0.006861580070, 0.002638061764, 0.021146390587, -0.018838748336, -0.000222738730, -0.027595154941, -0.022901562974, 0.040857400745, -0.000301111664, -0.010073184036, 0.018723703921, -0.029915617779, -0.038392815739, 0.006400000304, -0.065269134939, 0.020208617672, 0.032082986087, -0.003175650025, 0.011918765493, -0.006071192678, 0.029694192111, -0.048924665898, 0.027430213988, 0.008505520411, -0.009437537752, -0.043095838279, 0.028007531539, 0.022780857980, -0.004434313159, 0.039423387498, 0.015710592270, -0.043454565108, 0.025285225362, 0.002985120285, -0.008296297863, -0.016855403781, 0.047751601785, -0.005291337147, 0.003952215426, 0.000196100475, 0.015380067751, -0.053560320288, -0.053561151028, -0.006672210991, -0.068325668573, -0.015751924366, -0.083717904985, -0.041578169912, 0.013426471502, 0.006876118015, -0.012713826261, 0.026250993833, -0.031529460102, -0.052105247974, 0.028460461646, 0.012375660241, 0.027059413493, 0.018539732322, -0.011802059598, -0.016515254974, -0.022525478154, 0.008104891516, 0.011829904281, 0.002176485257, 0.012707993388, 0.037194117904, -0.024396108463, -0.027673669159, 0.009854188189, -0.055027153343, 0.038275361061, 0.013142398559, 0.002703277860, 0.014231349342, 0.003039229894, -0.048907801509, -0.012369939126, 0.017198974267, -0.031197700649, 0.016276489943, 0.008139321581, 0.027699949220, 0.030580013990, -0.014063280076, 0.018039735034, 0.017946783453, -0.025820840150, 0.007418870926, -0.030755290762, -0.021881753579, -0.016659453511, 0.017376720905, -0.024925084785, 0.040170054883, 0.007518332452, -0.033112663776, -0.018580757082, -0.015175501816, 0.023082043976, -0.066318571568, 0.028760662302, 0.018944852054, -0.011010688730, -0.002305459930, -0.027897551656, 0.016735171899, -0.009205920622, -0.020457308739, -0.071885861456, -0.025828974321, -0.055918771774, -0.055105589330, -0.021335460246, 0.001810966409, -0.025243539363, 0.022996164858, -0.006822049152, 0.044034253806, 0.027651412413, 0.025830840692, 0.001074815984, 0.003601711476, 0.031824361533, 0.014777977020, 0.013040415011, 0.015200563706, -0.037541378289, 0.012388733216, 0.042311012745, 0.028507601470, -0.020343771204, -0.018949564546, 0.037462685257, 0.026095116511, 0.041581712663, 0.011533258483, -0.002155081835, -0.012916815467, 0.014296514913, -0.015197072178, 0.001846583444, 0.001772391959, -0.056127566844, -0.003850932000, 0.020319906995, 0.014367882162, 0.013290263712, 0.045522507280, 0.019055485725, -0.001084605348, -0.010308433324, -0.001237594872, -0.037089351565, 0.001277505420, -0.019060781226, 0.009640264325, -0.011077975854, -0.015843311325, -0.036601755768, -0.033870499581, 0.011254628189, -0.010463208891, 0.014956625178, 0.005695882719, -0.016655270010, -0.040645696223, 0.005439088214, -0.050167482346, -0.044572867453, -0.052770022303, 0.013686290942, -0.012399958447, -0.021344628185, 0.004374062177, 0.023706611246, -0.022118387744, -0.029976198450, -0.029390128329, -0.015547907911, -0.017067877576, -0.007064028643, -0.002330047544, 0.052000295371, 0.043578777462, 0.008952377364, -0.013779957779, 0.003069370054, -0.014323784970, 0.030328869820, -0.001004194026, -0.045861843973, 0.050817754120, -0.005995034240, -0.011015703902, -0.001445387956, 0.006554486230, -0.058749377728, -0.003786610439, -0.029348049313, 0.007834115066, 0.013009589165, 0.036430355161, -0.046649564058, 0.046521898359, -0.010157184675, -0.027272561565, -0.000639834092, 0.024657677859, -0.011607706547, -0.048154957592, -0.032727871090, -0.006822451018, -0.005778323393, -0.072924144566, 0.009271414950, -0.004909644835, -0.017047787085, -0.011964679696, 0.104548342526, 0.069954998791, -0.016158815473, -0.004198167473, -0.008694358170, -0.035289023072, -0.030553182587, 0.008801563643, 0.071394726634, 0.010153110139, -0.023092897609, -0.031299460679, -0.003234812291, 0.045555390418, 0.000742212287, -0.031949743629, -0.016913279891, 0.051490522921, -0.013582441956, -0.009534054436, -0.025278741494, 0.012788949534, 0.038821574301, 0.010628973134, -0.036953870207, -0.003449456068, -0.034587841481, -0.011903129518, -0.042210292071, 0.006560931448, 0.025590997189, -0.007369223982, -0.037164676934, -0.041820608079, -0.036033798009, 0.007785496302, 0.015660878271, 0.043805059046, -0.032295554876, 0.027843602002, 0.011097789742, -0.043501526117, -0.003746316303, -0.048012126237, 0.045785501599, -0.002631362993, 0.020626593381, 0.024197569117, -0.028563285246, -0.003692876315, 0.011026001535, 0.031439956278, -0.011493016966, 0.001910436549, -0.036283802241, 0.001171784825, 0.005907848477, 0.005076118279, 0.026368785650, -0.028617827222, -0.030157031491, -0.028058068827, 0.003891395871, 0.013443699107, 0.027193216607, 0.043602008373, -0.037681125104, 0.008765486069, 0.001711030374, -0.004243450705, -0.000135759794, -0.001296693226, 0.065983116627, -0.014721395448, 0.027747169137, -0.011379851028, 0.008420987055, -0.064966365695, -0.013317267410, 0.020281247795, -0.006941745523, 0.032853312790, -0.062667459249, 0.007456100080, -0.002631557174, 0.034307010472, -0.003900021547, 0.011353577487, 0.054299786687, 0.014394138940, -0.041962407529, -0.019379526377, -0.031457297504, -0.018311658874, 0.038139536977, -0.009013731964, -0.038203846663, -0.022137623280, 0.000657688361, 0.008177471347, -0.035214126110, 0.021561957896, -0.018733939156, -0.000229305137, 0.031376354396, 0.016013875604, 0.006490722299, -0.014930913225, 0.031837895513, 0.016137247905, 0.065764337778, -0.040946088731, -0.025093320757, -0.025993511081, 0.035454064608, 0.018064809963, -0.041857313365, 0.001592816785, 0.023940751329, 0.020802682266, -0.004573967773, -0.011057214811, -0.004828276578, 0.029157243669, -0.033154059201, 0.003528986592, -0.023262511939, 0.029161525890, 0.033648125827, -0.028650285676, -0.024089597166, -0.018866954371, -0.009111518972, -0.021633287892, 0.014953946695, -0.030421195552, -0.021823579445, 0.003940958530, 0.002573351841, 0.011486671865, -0.015340592712, 0.008289440535, 0.059780295938, -0.035823751241, -0.028766576201, 0.008191849105, 0.035123914480, 0.031713590026, -0.012278456241, -0.009637694806, -0.010666994378, -0.025083169341, -0.017800748348, -0.043981712312, -0.047059491277, 0.032732095569, -0.018450491130, -0.002032546792, -0.002001478104, -0.022991307080, 0.013197834603, -0.022785609588, 0.016190776601, -0.002975783544, -0.007234905846, -0.006169503089, 0.009588725865, 0.008573164232, -0.022752985358, 0.029522567987, -0.025540603325, 0.001658810419, 0.012508727610, 0.019512014464, -0.005536054261, 0.018391907215, 0.002921720967, 0.053227003664, 0.056045360863, -0.003110578982, 0.030517844483, 0.040168944746, 0.012744200416, 0.012618962675, -0.022132745013, -0.021055066958, -0.007363732439, -0.007511610631, -0.028523510322, 0.014867520891, 0.019975828007, -0.001968112541, 0.063267305493, 0.018101904541, -0.026661368087, 0.026188461110, -0.010295636952, 0.006070894189, 0.035155497491, -0.048323027790, 0.056115157902, -0.012791089714, 0.019086973742, 0.012976907194, -0.015853337944, -0.013464144431, 0.021141944453, -0.010380225256, 0.020652182400, 0.007141306996, -0.006124200299, 0.033402077854, -0.025576807559, -0.006762399338, 0.017094699666, 0.039955619723, 0.006655653939, -0.016750438139, -0.021992122754, -0.027916952968, -0.025206003338, 0.002530561294, 0.037160366774, -0.019593203440, -0.038018342108, 0.010092630982, 0.014051620848, -0.020011084154, -0.005182310473, -0.040322519839, -0.031278211623, 0.062833964825, 0.042925212532, 0.002550789388, 0.031858555973, 0.011789087206, 0.018871247768, 0.023291042075, 0.056910797954, -0.015580754727, -0.048603322357, 0.002656282391, -0.018587429076, 0.036834150553, -0.022578122094, 0.055788874626, -0.002620510058, -0.021540740505, 0.050550039858, 0.001897100359, -0.001417297171, -0.011739255860, -0.037663221359, -0.055922776461, 0.062396340072, -0.041197750717, 0.052986573428, 0.014280079864, 0.025857685134, -0.000988500076, 0.006224804092, 0.016590695828, 0.004387130961, -0.022828277200, 0.058270759881, -0.028170781210, 0.036380164325, 0.004943509120, -0.004575395491, 0.023814925924, -0.025449123234, -0.008229860105, -0.005802863277, -0.031770274043, -0.028573028743, 0.056831285357, 0.001626222744, 0.027970155701, 0.059968151152, 0.021086620167, 0.033045865595, -0.004473322537, -0.013587593101, -0.019633991644, -0.048179861158, -0.007739039604, 0.047858316451, 0.019476285204, 0.027433179319, -0.005745072383, 0.007080850657, 0.002148154425, -0.000615345896, -0.020463464782, -0.034962859005, 0.034936688840, 0.028507243842, -0.037101823837, 0.026430800557, -0.001052906387, -0.007498463150, 0.062335751951, 0.007159069180, 0.027924973518, 0.012381841429, -0.017532730475, 0.032087624073, 0.002111325273, -0.006378545891, 0.027245210484, 0.029769057408, 0.007709570695, 0.018960449845, 0.007247248199, -0.017805805430, -0.022566199303, -0.011627365835, 0.001045589219, 0.006725883577, -0.002204688499, -0.054945573211, 0.024916250259, 0.016738627106, 0.004125856329, -0.021999629214, -0.064500428736, -0.021336562932, 0.009914229624, -0.006660479121, -0.064961217344, 0.003804103471, -0.027731720358, 0.072076641023, 0.024643441662, -0.043476689607, -0.040566515177, -0.065856352448, 0.034812726080, -0.133668765426, 0.016474055126, -0.027986491099, -0.006853523199, 0.033600900322, 0.014336703345, 0.001086738892, 0.018747312948, -0.032646294683, -0.046038273722, 0.009186116047, 0.075681939721, -0.006938500330, 0.079261355102, -0.017776282504, -0.015593272634, -0.071442216635, -0.019986242056, 0.010757844895, 0.002607201692, -0.014309803024, -0.003390045604, -0.025497298688, -0.002374971285, 0.024373155087, 0.003054429311, 0.042770318687, 0.019284488633, -0.012741032057, -0.002025528811, -0.008757120930, 0.034229397774, -0.029876995832, 0.011158003472, -0.008775359951, 0.039478939027, 0.063112460077, 0.040515892208, -0.025880981237, 0.051508732140, -0.001155812875, -0.052657715976, 0.045742817223, 0.046682983637, -0.013060285710, 0.012514586560, -0.009095580317, 0.037068869919, 0.031793676317, 0.043959740549, 0.022747065872, -0.044921819121, 0.019166680053, -0.000192036561, -0.009165590629, -0.082344733179, -0.003492689691, 0.030977064744, 0.050393521786, 0.026477361098, -0.037637550384, -0.024798577651, 0.003302002326, 0.080364838243, -0.074276737869, -0.025685107335, 0.006895700935, 0.000590293144, -0.003549805377, 0.011844133027, 0.047804038972, -0.054198227823, -0.017294703051, 0.019182004035, 0.059017587453, 0.047978110611, 0.042773187160, 0.007397182286, 0.041704781353, 0.048281714320, -0.040947690606, 0.009406576864, -0.011632913724, -0.049899488688, -0.006676518824, -0.016554581001, 0.028308827430, 0.055076643825, 0.023896340281, 0.031133852899, 0.060755308717, -0.026527147740, -0.009141854942, 0.027695981786, 0.008860004134, 0.018998529762, 0.003425116651, 0.016593454406, 0.003838974284, -0.009074379690, 0.049658905715, 0.042812414467, 0.005787051748, 0.043828740716, 0.003194132354, -0.016091383994, 0.036706261337, 0.032482761890, -0.024372294545, 0.027347177267, -0.011959484778, 0.016745254397, 0.034902866930, 0.023185597733, 0.033921509981, -0.009509677999, 0.036313220859, 0.012377305888, 0.004422710743, 0.020106760785, 0.002308879048, 0.021521508694, 0.058364886791, 0.047660253942, 0.021731764078, -0.029076883569, 0.017969321460, 0.004031782970, -0.025291971862, 0.006708705798, 0.022224914283, 0.076489023864, 0.047691654414, -0.034508898854, 0.022747440264, -0.006585057359, -0.014224441722, 0.011355201714, -0.024370715022, -0.022694742307, -0.004990585614, 0.054052568972, 0.048393748701, 0.084064222872, 0.031883116812, 0.022180909291, 0.010272801854, -0.056640550494, -0.041574977338, -0.046770300716, 0.049501225352, 0.005398512818, 0.004855372012, 0.031308732927, 0.095490872860, -0.029930405319, -0.028458330780, 0.016214461997, -0.034602552652, -0.023348057643, 0.037879511714, 0.000105516505, -0.017146840692, -0.035415966064, 0.033005174249, 0.042903471738, 0.021713595837, 0.023034112528, -0.003725324990, 0.014275692403, 0.034784071147, -0.023169202730, -0.005076581147, 0.034239299595, 0.097941346467, 0.010184712708, -0.069978639483, -0.035559702665, -0.000106215623, 0.044137097895, -0.040306888521, 0.034633751959, 0.044353198260, 0.022323090583, -0.007122218143, 0.063794285059, -0.001197479083, 0.041107732803, -0.053353201598, -0.003962853458, -0.036686282605, 0.074286639690, -0.014298073947, -0.002421316691, -0.001506217755, 0.021410275251, -0.063423797488, 0.051897939295, 0.004146537744, -0.024931844324, 0.005207928363, -0.002511680592, -0.016175588593, -0.063491590321, -0.013078694232, 0.051360942423, 0.025252545252, 0.018663752824, 0.003471882083, -0.037057287991, -0.001558477525, 0.030321298167, -0.000091391055, 0.016208833084, 0.001798931626, -0.032176863402, -0.005718163215, 0.039933759719, 0.039881613106, -0.004137481563, -0.059958998114, 0.024002505466, -0.027487758547, -0.031287100166, -0.016468374059, 0.009955658577, 0.066149078310, -0.038215313107, 0.039149332792, 0.028215695173, -0.011826051399, 0.016044924036, -0.051100213081, -0.006945767906, 0.043777219951, 0.011938138865, -0.016727197915, -0.028963774443, 0.059641864151, 0.026570569724, -0.006972222589, 0.060869686306, 0.019558884203, -0.068179160357, -0.008595803753, -0.021697046235, 0.060498476028, 0.062282685190, 0.028732115403, 0.037183962762, 0.012258961797, 0.007280030753, 0.019056560472, 0.038789033890, 0.070154413581, 0.018119825050, -0.033111218363, -0.003157288069, -0.003991281148, 0.071865044534, 0.037016037852, 0.029413489625, 0.019622504711, 0.029796943069, 0.004854797851, -0.025462718681, -0.014205590822, 0.028863679618, 0.036364655942, -0.008080106229, 0.003986950498, 0.016464425251, 0.014926803298, 0.007288502995, 0.019400278106, 0.066408745944, 0.036858897656, 0.013892605901, 0.043290246278, -0.003686206182, -0.005647319835, 0.028358126059, -0.018841838464, -0.005882929079, -0.032139394432, -0.026873735711, 0.006268895231, 0.032440222800, 0.033007632941, -0.005182789173, 0.058614503592, 0.032654911280, 0.008338154294, 0.026473905891, 0.008478187025, -0.011176603846, -0.011969988234, 0.050207778811, -0.018941525370, -0.002941432642, -0.011524804868, 0.018424928188, 0.005402495153, 0.068057894707, 0.033103790134, 0.017438266426, -0.002144328784, 0.031439900398, -0.038036830723, 0.028540955856, 0.034621879458, 0.103798717260, 0.015994055197, 0.044711291790, 0.067661091685, -0.055039100349, 0.018344132230, 0.035312164575, 0.026542669162, 0.051716413349, -0.069595627487, 0.016492763534, 0.136181324720, 0.002065097447, 0.049246095121, 0.048206374049, 0.080467700958, -0.029822118580, 0.009037313052, 0.023207642138, 0.003741774941, 0.025097137317, -0.007294840179, 0.040465820581, 0.053662251681, 0.059331525117, 0.000830498699, 0.054149091244, -0.051855549216, -0.013216432184, 0.115863062441, -0.021782670170, -0.004146980122, 0.020271992311, 0.025938164443, 0.071108728647, 0.020458986983, -0.010490203276, 0.046678829938, 0.063356690109, 0.022596806288, 0.051009364426, 0.025222178549, -0.032050307840, 0.001417981810, 0.081744551659, -0.013218310662, 0.062049176544, 0.049497026950, 0.117716856301, 0.026626702398, -0.001651433879, 0.056093405932, 0.033368498087, 0.061103917658, 0.042305346578, 0.037121273577, 0.017428228632, 0.004464711994, 0.024229595438, -0.018255474046, 0.014504356310, 0.026087392122, 0.022878730670, 0.018125189468, 0.061781030148, -0.016931079328, -0.008333900943, -0.020294167101, 0.017963619903, -0.005161944777, 0.017999978736, 0.010587668046, 0.002546605654, 0.047871883959, -0.008954589255, 0.033663291484, 0.007189962547, -0.041971374303, 0.037216786295, 0.030654003844, -0.045211400837, -0.020507369190, 0.081489644945, -0.004564695526, -0.026302849874, -0.008592889644, -0.028988216072, 0.032108552754, 0.044682055712, 0.030063794926, 0.009755176492, 0.010545894504, 0.063026823103, -0.035503532737, 0.043708868325, 0.026713840663, 0.006238557398, 0.004030226264, 0.009791300632, -0.005097352434, -0.015317710117, 0.028041029349, 0.061372634023, 0.020468780771, 0.024601651356, 0.042843591422, -0.003981583286, 0.039939668030, 0.070463404059, -0.015837876126, 0.013654349372, -0.033743500710, 0.010351952165, -0.022192168981, -0.004628613591, -0.002577288775, -0.065188072622, 0.083924919367, -0.031374640763, 0.045817110687, 0.004295110237, -0.013682734221, -0.000869634212, -0.021422483027, 0.018184700981, 0.014169971459, 0.062149565667, -0.006136931945, 0.002665805863, 0.058104094118, 0.031745623797, 0.042652308941, -0.025952795520, 0.012871019542, -0.069905497134, 0.065123736858, 0.077415056527, 0.011271340773, 0.025236582384, -0.016104469076, 0.026660477743, 0.047438822687, 0.031468629837, 0.039744235575, 0.012916211970, -0.004785685800, -0.027765575796, -0.005984400399, -0.008459422737, -0.006498388480, 0.019775331020, -0.005231273361, 0.066715598106, 0.017138987780, 0.003129091579, 0.050709821284, 0.029544671997, 0.050277356058, 0.070695161819, 0.032663702965, 0.078153535724, 0.037680447102, 0.038402773440, -0.082849822938, 0.003567069536, 0.096095420420, 0.022955583408, 0.033545654267, 0.080034889281, -0.027316266671, 0.002680525417, 0.015787942335, -0.044768553227, 0.018544901162, 0.040650371462, -0.003632239532, 0.024766886607, 0.012129493058, -0.029452752322, 0.098989218473, -0.061161976308, 0.080080069602, 0.089793674648, -0.111298821867, 0.007285637781, -0.019237618893, -0.055709630251, -0.056330125779, 0.059887114912, -0.024513987824, 0.036919370294, -0.047176964581, -0.049656409770, -0.023095484823, 0.030365893617, 0.021326243877, 0.005200606771, 0.018247924745, -0.016446966678, 0.011408985592, -0.009005174972, 0.000660199206, 0.091803088784, 0.040307831019, 0.048377577215, 0.034253176302, -0.023257527500, -0.010622417554, -0.002286003903, 0.014378588647, 0.027195742354, 0.041253965348, 0.036837331951, -0.005603034049, 0.122377596796, 0.017734564841, 0.071299917996, -0.020522641018, 0.064791366458, 0.028992505744, 0.041290719062, 0.073061957955, 0.073139518499, -0.023994352669, 0.052376966923, -0.012740925886, 0.109040081501, -0.045979119837, 0.018938427791, 0.037751857191, 0.080159693956, 0.025079671293, 0.043327502906, -0.076773874462, 0.001831305912, 0.036668825895, 0.120720334351, 0.029596848413, 0.014719507657, -0.012291220948, 0.023065615445, 0.037241443992, -0.006274432410, 0.054349523038, 0.102028474212, -0.019499115646, 0.122831061482, 0.015341164544, -0.010523692705, 0.003067112528, 0.022490859032, -0.006610903423, -0.026173036546, 0.002974574454, 0.008139985614, -0.003908437677, -0.002339319792, -0.005991663784, -0.001559827360, 0.030623620376, 0.001819959260, -0.010272103362, -0.014784899540, -0.000990823843, 0.004343410023, 0.006563003175, -0.001374357962, -0.006057984661, 0.007519917563, -0.028550507501, -0.033123578876, 0.038123890758, -0.027642376721, -0.013681584969, 0.005173780490, -0.013959665783, -0.014899654314, -0.001408985001, 0.005309385713, 0.003250000067, 0.006552872714, -0.012551506981, 0.019340485334, 0.024406796321, 0.019906045869, 0.019268374890, 0.012330722995, 0.029424084350, -0.003314692061, -0.021739639342, 0.004575675353, 0.003893820103, 0.000516277796, -0.028230676427, 0.018775779754, -0.001964009367, 0.016148008406, 0.023734858260, -0.012010435574, 0.047028526664, 0.008810950443, -0.007315944415, 0.011072201654, -0.004767865874, 0.019660532475, 0.008093288168, -0.005885838997, 0.002016990911, -0.002222665818, -0.018080485985, 0.015664916486, -0.001801294973, 0.001359219197, 0.035053987056, 0.009109628387, -0.014589896426, 0.009335511364, -0.007146316115, -0.014150407165, -0.010043569840, 0.024254748598, -0.029110211879, -0.001211091992, 0.027850864455, 0.029907276854, -0.012547386810, -0.023318119347, 0.002385866828, 0.003166399430, 0.026153188199, -0.016006810591, 0.019779458642, -0.001126536634, -0.038462579250, 0.005648980383, -0.010255427100, -0.000825974334, -0.009641358629, 0.017872396857, -0.008816597983, 0.015602591448, -0.016862878576, 0.004722140264, 0.020383169875, -0.009254702367, 0.003984836861, 0.003620790783, -0.024421453476, 0.019789377227, 0.005755016115, 0.003513308940, -0.013153636828, -0.012684149668, -0.032634988427, 0.010551424697, 0.009146176279, -0.018884368241, -0.013688378967, -0.009253383614, 0.013760831207, 0.016204040498, -0.016028750688, -0.027272792533, 0.007336598821, 0.016148431227, 0.003986658063, -0.011099497788, -0.010973601602, -0.006195519585, 0.011535044760, 0.008622834459, -0.013091293164, -0.004679454956, -0.014571096748, -0.007231824100, -0.007479385007, 0.005746869370, 0.012458747253, -0.013068605214, -0.011008329690, -0.002899781335, -0.028786001727, 0.005611329339, -0.009634821676, -0.011873902753, -0.012683425099, 0.003105772426, -0.009509887546, 0.016934273764, -0.020657267421, 0.001323949080, 0.003488881746, 0.000118236261, 0.006281940732, 0.002745892387, -0.003847003914, 0.004668690730, -0.017314283177, 0.000089624700, -0.007893303409, -0.015442208387, -0.007127039600, 0.015148064122, 0.030412677675, 0.018092192709, -0.018317587674, -0.000250892685, 0.032009840012, -0.010366548784, 0.003466996131, 0.021475253627, 0.002393307164, -0.008844750002, 0.006773768459, 0.000841376139, -0.023050405085, 0.008129739203, -0.006515764166, -0.004469674546, 0.003101861337, 0.004438869189, 0.011091105640, 0.011085579172, 0.005736362655, 0.000558689935, 0.013194142841, -0.034437630326, 0.010959827341, -0.003412106074, 0.014308631420, -0.009405557066, 0.003402614268, -0.002699472941, 0.000333797158, 0.019111642614, -0.007799522486, 0.001769113005, -0.015149405226, -0.020333021879, -0.012367320247, 0.003734039841, -0.030187480152, -0.019579235464, -0.006233416498, 0.008162546903, -0.005525267683, -0.017112597823, -0.001313571353, 0.008033072576, -0.002720843069, -0.013452964835, -0.016620714217, 0.001871853019, -0.008992148563, -0.005927783903, 0.009737293236, 0.005667596124, 0.025737568736, -0.012168533169, -0.013207077980, -0.001656375010, -0.035767320544, -0.035473745316, -0.008090251125, -0.004724434577, -0.005200223066, 0.008645616472, -0.019556574523, -0.012530752458, -0.024422058836, -0.011769015342, 0.009388786741, -0.026208752766, -0.014309675433, 0.004485863261, 0.007856090553, -0.043060783297, -0.028339872137, 0.028305236250, 0.009447616525, 0.010284475982, -0.015110926703, -0.016402434558, 0.013525879942, 0.002505159006, 0.017463866621, -0.012565811165, 0.000644834538, 0.012531151064, 0.006000910420, -0.002190562896, 0.014379118569, -0.011355178431, -0.001484224224, -0.004742731340, -0.001328775194, -0.002506277524, 0.003073707223, -0.005541095510, -0.019911220297, 0.015862062573, 0.007028173655, -0.012680559419, -0.022402174771, 0.000259783876, -0.020866204053, -0.004413271789, -0.013734027743, 0.020832037553, -0.008238819428, -0.003601421136, 0.015096597373, 0.027724327520, -0.009862993844, -0.009305807762, -0.003895260161, -0.015486714430, -0.007069171872, -0.005974723026, 0.009899428114, 0.007295743562, 0.010948639363, -0.021107988432, -0.002668682486, 0.008192777634, -0.004404961132, -0.020192423835, 0.025191312656, -0.005301948637, 0.015344892628, -0.002319101477, 0.004514010623, -0.003080622526, -0.016672307625, -0.028308430687, -0.007128333207, -0.008902292699, 0.011710734107, -0.001069460297, -0.019315185025, -0.015257228166, -0.037873290479, 0.010913247243, 0.019123073667, 0.007400983013, -0.012303253636, -0.017212618142, 0.015403269790, -0.006191171240, 0.003916991875, 0.008993091993, -0.003031920176, 0.002253693296, -0.016820698977, 0.009319664910, 0.002669215668, -0.013891723938, -0.006332110148, -0.019246002659, -0.005828639027, -0.008605733514, -0.016203254461, -0.005499529187, -0.006728295237, -0.013658446260, -0.006116728764, 0.012035435066, 0.025426553562, -0.004340021871, -0.021251039580, -0.013348021545, -0.019541764632, 0.010135338642, -0.015643699095, 0.017768796533, 0.011836845428, -0.010362666100, -0.038329333067, -0.030194379389, -0.002385931322, 0.000800068548, -0.015823513269, -0.020683709532, -0.001223995001, 0.017516776919, 0.027119923383, 0.023404251784, -0.010993096046, 0.018920363858, -0.014772463590, -0.006289705634, -0.008816439658, -0.008367151022, 0.014870125800, -0.023996882141, 0.012351767160, 0.006061359309, -0.008865799755, -0.010100804269, 0.033988371491, -0.004491016734, -0.016103917733, -0.004887084477, 0.010763056576, 0.025823649019, -0.025726364926, 0.008345665410, 0.007856658660, -0.005148101598, -0.007192102727, 0.006300470326, 0.008455567062, 0.009372049011, 0.029965423048, -0.010819406249, -0.012398858555, -0.001405538642, -0.021855099127, -0.015279840678, -0.003561847610, 0.012109547853, -0.018977804109, -0.021922871470, -0.000333186908, 0.001606534468, 0.013171464205, 0.009288067929, -0.019230239093, 0.025123240426, 0.009816368110, -0.016045350581, -0.018155340105, -0.018018312752, -0.016814932227, -0.003760744818, -0.000273740035, -0.003808080452, 0.014738515951, -0.000946557615, -0.012531620450, -0.008272543550, -0.011724574491, -0.013439563103, -0.012312107719, -0.032527312636, -0.017462546006, -0.011715120636, 0.004518467467, 0.016324862838, -0.007055178750, -0.007111994550, -0.002543812850, 0.003476311453, 0.001587832929, -0.026434320956, 0.006488118786, -0.001531218993, 0.011662181467, -0.008387614042, 0.006241614465, 0.010945338756, 0.003485713620, -0.014367605560, 0.003832031274, -0.014265095815, -0.012061931193, -0.014667521231, -0.047306470573, -0.006965769455, 0.007253414020, -0.021631386131, -0.012987130322, 0.012695999816, -0.005511080846, 0.000594387064, -0.016027698293, 0.000121513476, -0.033125471324, -0.003577799769, 0.001398475491, -0.010718682781, 0.004756425042, -0.034859284759, 0.011687563732, -0.017242688686, -0.018536064774, -0.003934145439, -0.011573457159, -0.011950783432, -0.011443301104, 0.027185263112, 0.009056241252, -0.004440134391, -0.012578520924, -0.007130538579, -0.001581151271, -0.001367851859, 0.003570413915, -0.005890971515, -0.006030926015, -0.019980408251, 0.002952028532, 0.017137415707, 0.023090781644, 0.013456719927, -0.035110030323, -0.010159542784, 0.004586641677, -0.014932239428, -0.010751993395, -0.004215843044, 0.014718460850, 0.029258586466, -0.003665472846, -0.003017504467, -0.012577040121, -0.011127416044, 0.014335341752, -0.011935316026, -0.006352469791, 0.022801885381, 0.006604389753, -0.007315723691, -0.018194463104, -0.007880674675, -0.022092642263, -0.009478562512, -0.020080091432, 0.013852209784, -0.001848820830, -0.005129124969, -0.018366347998, -0.014348164201, 0.030423700809, -0.009078693576, 0.009815140627, 0.005889683031, 0.002667259425, -0.012366552837, 0.003164115362, -0.016636565328, -0.007323337719, -0.016179934144, -0.009168143384, -0.005828211550, 0.004302232526, -0.013881540857, -0.002606763504, -0.009676751681, -0.006752260495, -0.008458509110, -0.017141282558, 0.007525800727, 0.002637664322, -0.005822586827, 0.000804367766, -0.038813732564, 0.019931510091, -0.022379219532, 0.014641212299, -0.006281545386, -0.024460613728, -0.032831765711, -0.014687087387, -0.010846306570, -0.021838715300, -0.002887461567, 0.005971255247, -0.002240025206, -0.028924424201, -0.023897608742, -0.007754785009, 0.000443645811, -0.008844663389, -0.010049919598, 0.001872299938, 0.018085384741, 0.014797235839, -0.017737727612, -0.007088450249, 0.002524538198, -0.007205222268, -0.024149235338, -0.000780903909, -0.000145374594, -0.007957238704, -0.001733094570, 0.002510901773, 0.011124748737, 0.009389879182, -0.004097730853, -0.009058126248, -0.005764587317, -0.025143096223, -0.013718042523, 0.004443740007, -0.023032654077, 0.017979726195, 0.012063874863, -0.003385059070, -0.019307238981, -0.021948020905, -0.021925764158, -0.014668428339, -0.006638145540, 0.010507505387, 0.006438984070, -0.002338314662, -0.017946502194, -0.005324423779, -0.000685596839, -0.027644662187, -0.007198733278, -0.019844764844, -0.001443704590, -0.030644793063, 0.005304562859, -0.019306482747, -0.009965118021, -0.005592031870, 0.018378032371, 0.005970692728, -0.010691809468, -0.020867377520, -0.029705166817, -0.010909644887, 0.019743602723, -0.012746519409, 0.012061926536, 0.013860207982, -0.000641337014, -0.068159893155, -0.006813556422, 0.002764628502, -0.005392745137, -0.017889820039, 0.010791902430, 0.039652854204, -0.003499201499, -0.050226513296, -0.007342426572, -0.005521100946, -0.009852418676, 0.002452221466, -0.004400510807, -0.014642859809, 0.031104475260, -0.004191211425, -0.020792534575, -0.039221026003, 0.008755418472, -0.005230900366, -0.009193654172, 0.037654556334, 0.001967053162, -0.031023278832, -0.005426943768, -0.013347267173, 0.021542740986, -0.000724234793, 0.032586548477, -0.001563448342, -0.002740093507, -0.024852445349, -0.009311401285, 0.019105220214, -0.027044847608, 0.006743179634, -0.020980797708, -0.002193670487, -0.008385639638, -0.010771764442, 0.003733620048, -0.011301204562, -0.001219942817, 0.004534117412, 0.029726527631, -0.009555791505, 0.001626311918, 0.007533168886, -0.014951412566, 0.011862378567, 0.004003747366, -0.006411046255, -0.009153146297, 0.024180706590, 0.015796193853, -0.006194827612, -0.011097339913, -0.011390201747, 0.004657065030, -0.009948138148, -0.003103642724, 0.016874553636, 0.003174154321, -0.060307893902, -0.022087408230, 0.001256656018, 0.003130782163, -0.011045396328, 0.015182745643, 0.015697548166, 0.002963615814, -0.024804374203, -0.004881333560, -0.006054406986, -0.003575584618, 0.011202079244, -0.003697890788, 0.005892327987, 0.000094286675, -0.022444631904, -0.010594625957, -0.025260204449, -0.004855019972, 0.021737979725, 0.007368279621, 0.027162307873, 0.006834242959, -0.020697232336, -0.002189043676, -0.001347138546, -0.001231389586, -0.002750325948, -0.005221459083, -0.014482632279, -0.018792960793, -0.021342627704, -0.008001198992, -0.011265111156, 0.031950268894, 0.029882397503, 0.033181335777, -0.046615928411, -0.026928508654, -0.008593145758, -0.034938391298, 0.028542997316, 0.026901563630, -0.023222893476, -0.009653680027, 0.019845411181, -0.001585179125, 0.030986700207, -0.014290663414, 0.015270934440, -0.009664628655, 0.005449481308, 0.017504464835, -0.018558213487, -0.004666270223, -0.019900493324, -0.021523440257, -0.021146468818, -0.005346006714, -0.025047540665, 0.001948417514, 0.015724271536, 0.023674614727, -0.055244423449, 0.005715668201, 0.013195532374, -0.000633719726, -0.005491722841, 0.008166778833, 0.025310723111, -0.012999410741, -0.022290311754, -0.037106115371, 0.005407176912, 0.000185513942, -0.018145537004, 0.011067235842, -0.018912335858, -0.001942827250, 0.012645222247, -0.021205322817, -0.015344849788, 0.023347442970, 0.029270268977, 0.000888515904, -0.002103343373, 0.009183218703, -0.004777946044, -0.036392837763, -0.007514961064, 0.011440026574, 0.001923663076, 0.021674653515, 0.009863538668, 0.002841288224, 0.033170957118, -0.011646657251, -0.011533642188, -0.036043677479, -0.012783097103, 0.013311804272, -0.001004439895, 0.001397907152, -0.032099083066, 0.006765049882, 0.012343177572, 0.030202208087, -0.015379928984, 0.019752519205, 0.012415481731, -0.005372657906, 0.002711191773, 0.016417071223, 0.000071175986, -0.003381276038, -0.040451429784, 0.011278438382, -0.020629180595, -0.018114566803, -0.002285990864, -0.000480009039, -0.013991568238, -0.017098367214, 0.014367640950, -0.003534412012, 0.007456242573, 0.014575562440, -0.009831784293, -0.000904580171, 0.024206114933, 0.012656796724, -0.006254971959, -0.020994471386, 0.030808607116, 0.015640038997, -0.000785417564, 0.012202349491, -0.011241637170, 0.005258087534, -0.031445275992, -0.010206895880, 0.013017167337, 0.013148753904, -0.050756063312, 0.029277218506, -0.002441487508, -0.014154557139, 0.011149852537, 0.003312374232, -0.003093588166, -0.004898351151, 0.023180853575, -0.007772829384, -0.011717762798, 0.020977627486, 0.006581154652, 0.017771769315, 0.044222947210, -0.010275594890, -0.000852966099, -0.016814142466, 0.026939313859, 0.000520354137, 0.012984718196, -0.008999676444, 0.001231114264, 0.019447259605, 0.018151585013, -0.005658222362, -0.008387719281, -0.013439180329, -0.024123266339, 0.000915771641, 0.012070890516, -0.019957613200, 0.004727120511, 0.006227417383, -0.003051282139, 0.005107865669, 0.003149411641, -0.009562697262, -0.018851621076, 0.021122559905, 0.002244020812, 0.000686230313, -0.004009017255, 0.005282679107, -0.007765726652, -0.007911032997, 0.020496852696, 0.012681060471, 0.028758378699, -0.017238290980, 0.007075104862, -0.002975490643, -0.011984853074, -0.012646597810, 0.017645435408, 0.021752286702, -0.017103601247, 0.007389451843, 0.015194451436, -0.007100635208, -0.021035194397, -0.022818636149, -0.008047970012, -0.000503142714, -0.013084175996, 0.002232064959, -0.035494673997, 0.000589468225, 0.025716673583, 0.025817887858, 0.008354144171, -0.008590044454, 0.044906143099, -0.028095934540, 0.003984013107, 0.003000461729, 0.011323157698, -0.017406815663, 0.031809497625, -0.023202022538, -0.029852796346, -0.024201331660, 0.024916058406, -0.022410403937, 0.019545203075, -0.001510333153, -0.020730584860, -0.014081779867, 0.031101604924, 0.000768154918, 0.020034696907, 0.001332297339, -0.020770048723, -0.000816365296, -0.013241544366, 0.020093148574, 0.017993282527, 0.041015401483, 0.002726510167, -0.001224020845, -0.013081800193, -0.024177322164, -0.000890887575, -0.001333857770, 0.032352283597, 0.011320501566, 0.005110264756, -0.000332093419, -0.005200304557, -0.031848452985, 0.011654101312, 0.001029540668, -0.005777119659, -0.031494412571, 0.015039819293, 0.003538689809, -0.002777653746, -0.038394592702, 0.008593466133, -0.008149037138, -0.051512625068, 0.013115599751, -0.024224542081, 0.013650248758, -0.001833739108, 0.006013896316, -0.006004498806, 0.008875709958, -0.045566264540, 0.009317742661, -0.020613715053, -0.012037772685, -0.006797053386, 0.014553953893, 0.000766560144, -0.022046929225, 0.020244497806, -0.010452762246, -0.000956460543, -0.012796970084, -0.018135907128, 0.015242264606, 0.013277135789, -0.020033841953, -0.007225731853, -0.005604155827, 0.016127903014, -0.004942870233, 0.027528502047, -0.019091738388, -0.029484704137, 0.011190011166, 0.010674315505, -0.015505197458, 0.008978081867, 0.011641935445, 0.005857508630, -0.018163874745, -0.037393637002, 0.007789059076, 0.011907298118, 0.011466444470, 0.004560042173, 0.001435640967, -0.011974959634, 0.010476411320, -0.028065331280, -0.008927667513, -0.028567643836, -0.021584002301, -0.003236021148, -0.010492596775, 0.018027419224, -0.013969712891, 0.004017399158, -0.014380841516, -0.022603662685, -0.013093573041, 0.041603837162, 0.024603974074, -0.012639674358, 0.013813740574, 0.013827701099, 0.004125485197, 0.003343489952, -0.018325436860, -0.006676908582, 0.016371190548, -0.016356043518, -0.002125131432, 0.014832144603, 0.028569575399, -0.016796195880, 0.016837364063, 0.000458729686, 0.026215475053, 0.028995126486, 0.003664099379, 0.008553357795, -0.015412813053, -0.029951434582, -0.009741527960, -0.007701075636, 0.003872733330, 0.031474690884, -0.000238135894, 0.000880957989, -0.044744230807, 0.001412641141, -0.012813999318, 0.011066293344, -0.010522480123, -0.029567545280, -0.005126775708, -0.012306086719, -0.025456888601, 0.012865440920, 0.012379700318, -0.014970297925, 0.022277928889, -0.039470180869, -0.005369182210, 0.022846080363, -0.013603813946, 0.037200227380, -0.010329251178, 0.017470123246, -0.019042933360, 0.003833643859, 0.025781715289, 0.007433472201, 0.004320202861, -0.025846252218, 0.000728490530, 0.009354546666, -0.019419943914, 0.007590215653, 0.039719026536, -0.006214905530, -0.010292683728, 0.015714870766, -0.038878262043, 0.000716611627, 0.019966358319, -0.038892548531, -0.004277543630, 0.001769035123, -0.005034644622, -0.013113757595, -0.038272608072, -0.041905838996, 0.019497042522, -0.020012700930, -0.034846130759, 0.001229757792, 0.009993785061, 0.000072267743, 0.032378450036, 0.007681997959, 0.028097167611, 0.009498477913, 0.024083176628, 0.014273983426, -0.017552491277, -0.026978518814, -0.010615857318, 0.001729528303, 0.003129453864, -0.012784647755, -0.026956487447, 0.036424037069, 0.001979208086, -0.015463504009, 0.002517269691, 0.014313661493, 0.015785541385, -0.026019485667, 0.003194800811, -0.001632864471, -0.049527898431, -0.003706623102, -0.032689653337, -0.007803267334, 0.008731490932, -0.026621166617, 0.001377560082, 0.009431306273, 0.000972260721, 0.014236487448, -0.033783506602, -0.012062666938, 0.016357913613, -0.006113118026, -0.000854328391, -0.010847431608, 0.014985898510, 0.023798609152, 0.004455301445, 0.037523344159, -0.005395995919, 0.022070942447, -0.011162195355, 0.020981520414, -0.005310303997, -0.031363658607, -0.039652381092, 0.015859752893, 0.024888860062, -0.028647448868, 0.019512502477, 0.000380694779, 0.014283725061, -0.018351303414, -0.000620409846, -0.006495812908, 0.027847673744, 0.011718086898, 0.001752742217, -0.000146585153, 0.027973420918, -0.031473323703, 0.036209598184, 0.013599618338, -0.004958753474, 0.000878201274, -0.009646696970, -0.001440375345, -0.010737203993, -0.013299257495, -0.017656276003, 0.028582140803, 0.005493753590, 0.001689117053, 0.004068538547, 0.007815200835, -0.035551015288, -0.023930333555, -0.024415567517, 0.004158517811, -0.012903646566, -0.005925149191, -0.020442528650, -0.030826050788, -0.019238661975, 0.027313817292, -0.020553803071, 0.015855666250, 0.036453597248, -0.004204339348, -0.017499325797, 0.013539914973, 0.005167787429, 0.024657713249, 0.000113867063, -0.002459232928, 0.025413382798, 0.018096135929, -0.007309052628, -0.030262490734, 0.023009827361, 0.000860034139, 0.043522581458, -0.004467820283, -0.027062432840, 0.013653273694, 0.039424333721, 0.015850711614, 0.049276236445, -0.026801871136, 0.043985433877, 0.001391411060, 0.012174181640, 0.007361527067, 0.010106864385, 0.025853494182, 0.038697775453, 0.048818591982, 0.031054433435, 0.026087384671, -0.083822235465, 0.020952859893, 0.019854420796, -0.042918290943, -0.001335817622, 0.004951358773, 0.008715470321, 0.018026186153, 0.004161747638, 0.043273709714, 0.004792887717, -0.037340100855, -0.009150941856, 0.062203943729, -0.028326727450, 0.013226561248, 0.002122643869, 0.036340795457, 0.010814124718, 0.017643401399, -0.022817958146, 0.045690253377, 0.005948322825, -0.011908902787, -0.009403323755, 0.018218733370, -0.013181956485, 0.026784380898, 0.022423624992, 0.011906918138, 0.002755365800, -0.011754728854, 0.008172471076, 0.026682581753, 0.022374162450, 0.001848349813, -0.020864641294, -0.003184016561, -0.034948918968, 0.016091480851, 0.027523742989, -0.027525359765, -0.005675018765, -0.025630198419, -0.013841334730, -0.013941315003, -0.046316880733, -0.020323533565, -0.001060877112, 0.023707954213, 0.044314693660, -0.021710485220, -0.041777614504, 0.028215873986, 0.006331956014, 0.012688536197, 0.011777104810, 0.010028717108, -0.030275605619, 0.057680238038, 0.015922470018, -0.014623378403, 0.019449668005, -0.007494531106, -0.044521007687, -0.037350550294, -0.010199096054, -0.021344585344, -0.028806490824, -0.014128571376, 0.043582875282, 0.047727063298, -0.048394661397, -0.012832588516, -0.033767450601, -0.018220748752, -0.026330050081, 0.036521494389, -0.021210763603, 0.027214242145, -0.006000954658, -0.014896076173, -0.017965529114, -0.010499860160, -0.021602358669, 0.028871655464, -0.071308776736, -0.025928778574, -0.083287440240, -0.043265327811, -0.008806875907, 0.007859625854, -0.033838208765, 0.011569445953, -0.083842560649, -0.015782237053, 0.021853383631, -0.024981444702, -0.019996711984, -0.020431494340, -0.007121103350, 0.037014730275, -0.034537255764, -0.031021405011, 0.005423259921, 0.017435345799, -0.014289066195, -0.013351811096, -0.034386336803, 0.033493082970, 0.010224965401, -0.016035109758, -0.031333539635, 0.047514058650, -0.020581509918, -0.010278740898, -0.000517201261, -0.010957606137, -0.019971853122, -0.013209250756, 0.010699276812, -0.003681757720, 0.015841891989, 0.031944632530, 0.007078767754, -0.001551938360, 0.084126845002, -0.026548797265, -0.071823708713, -0.059221263975, -0.039684373885, 0.002765596611, -0.018530635163, -0.012353302911, 0.011118078604, 0.035711176693, -0.013653623872, -0.016597405076, -0.054480630904, -0.037099782377, -0.027644835413, -0.002138870070, 0.028904173523, 0.061679478735, -0.042542070150, 0.002476814901, -0.063941329718, -0.009237725288, -0.036269534379, 0.026217283681, -0.022981433198, -0.011911296286, 0.003769158619, 0.003511756426, -0.019585425034, -0.021570444107, -0.037310484797, 0.025703620166, -0.016940182075, 0.004071305972, -0.024444909766, 0.005018642638, -0.001155504608, 0.003137081629, -0.003393300809, 0.032882846892, -0.007448227145, -0.027572134510, -0.022310687229, 0.013673765585, -0.068159282207, -0.009100196883, -0.028810046613, -0.049709308892, 0.014054533094, 0.045330688357, -0.026110885665, 0.009320169687, -0.034250620753, -0.036325316876, 0.009647256695, -0.017346194014, 0.060228351504, 0.023956116289, -0.001917286776, 0.018981775269, -0.003275118768, 0.010615945794, -0.006498835515, 0.044534735382, -0.031223023310, 0.040910802782, 0.010726108216, -0.001449074131, 0.028404025361, -0.020611148328, -0.016644064337, 0.021914489567, -0.043451447040, 0.006423771847, 0.055013913661, 0.034200623631, -0.024610225111, 0.012712168507, 0.035313274711, -0.036206983030, -0.010266994126, -0.012007007375, 0.020577479154, -0.022370265797, -0.035171106458, -0.020673239604, 0.003733928548, 0.023715401068, 0.015940509737, 0.009979058988, 0.017298983410, -0.037287846208, 0.040941875428, -0.020781617612, 0.049563284963, 0.004183197860, -0.005288191605, -0.037731029093, 0.019534606487, 0.093936964869, 0.059082958847, -0.008083254099, -0.023633308709, 0.003662945703, -0.009749294259, -0.006428542081, 0.011690694839, -0.017274105921, 0.002950431779, 0.011365153827, -0.012528910302, -0.068033024669, 0.010581541806, -0.002631062409, -0.018118323758, 0.027168642730, 0.010450508446, -0.040717933327, -0.011242009699, -0.012138861232, 0.019471129403, 0.016679070890, 0.021883703768, -0.014599733986, 0.001468428643, -0.030674410984, 0.003261080477, 0.053285162896, -0.009231585078, -0.035953633487, 0.032816126943, -0.032022532076, -0.001205102075, -0.009092705324, -0.015926035121, -0.036671385169, 0.001482478227, 0.003340289230, 0.035836171359, 0.006498175208, -0.033387698233, -0.024407446384, -0.034938339144, -0.001504100044, 0.003012867179, 0.019615871832, 0.011926330626, -0.018236018717, -0.007736872882, -0.012428363785, -0.009143409319, 0.003549787216, -0.031756661832, 0.019442431629, 0.011020200327, -0.029113005847, -0.022174399346, -0.024787632748, 0.054592624307, 0.000554566388, 0.009404955432, -0.038537513465, -0.022102002054, 0.014572657645, -0.006499394774, -0.019878096879, -0.003856644267, -0.031329471618, -0.046453792602, -0.015987569466, 0.004861184396, 0.025433296338, -0.049965266138, 0.047539655119, -0.024210778996, 0.023885549977, 0.006178875919, -0.017261760309, 0.002562679118, 0.010683493689, -0.003354748245, 0.011523154564, -0.074619494379, -0.005475558806, 0.039493519813, 0.046173084527, -0.003246480599, -0.016500154510, 0.025046527386, -0.029399480671, -0.008057004772, 0.014750900678, 0.039633776993, -0.033195476979, -0.062866799533, -0.008414944634, 0.005682623945, 0.023378163576, 0.000536825974, 0.001395116211, 0.021165318787, 0.003502196865, -0.000314813748, -0.049506738782, -0.012999843806, -0.009730434045, 0.001938445144, -0.028242200613, -0.023520832881, 0.019238691777, -0.023689270020, -0.006731898524, -0.028359947726, -0.022302653641, 0.018685454503, 0.000746671867, 0.021305434406, 0.010356798768, 0.006120946258, -0.008511913009, -0.019139969721, -0.004628838506, -0.006483890582, 0.046059079468, -0.038518145680, 0.021264720708, -0.030298639089, -0.022286305204, -0.027848323807, -0.004997705575, -0.049783866853, -0.003465247341, -0.033202398568, -0.030418712646, 0.027516508475, -0.055504236370, -0.007224387489, 0.008620424196, -0.045090571046, -0.054039027542, -0.098233804107, 0.021141214296, -0.026961205527, 0.027365317568, 0.008696333505, 0.011804904789, -0.040665019304, -0.005918316543, 0.038962900639, 0.005030990113, 0.002226158045, -0.010761586018, 0.044541131705, -0.017217786983, -0.034782797098, 0.038896739483, 0.030217047781, 0.045409366488, 0.085619546473, 0.027282938361, -0.015122774057, -0.015616803430, -0.005784654524, 0.012129240669, 0.018208423629, 0.061427108943, -0.006801356096, 0.002711743116, -0.005017641000, -0.019304966554, 0.021741295233, -0.030598312616, 0.001071106992, 0.049024134874, -0.016890833154, -0.015729330480, -0.015532042831, -0.003306962317, 0.004954905715, 0.001429740456, 0.013652149588, -0.004457490984, 0.036635451019, -0.023734614253, 0.045918051153, -0.000566701172, -0.019026899710, -0.017788354307, 0.032331481576, -0.029954250902, 0.022308334708, 0.013138883747, -0.036077167839, -0.035505011678, -0.013423074037, -0.026095371693, -0.031955830753, -0.016622003168, -0.021884372458, 0.024414960295, -0.029010154307, 0.003551410744, 0.028353964910, 0.018324408680, -0.075898423791, 0.036680065095, -0.009137358516, -0.000407207670, 0.048412274569, -0.011766447686, 0.001720891567, -0.100184485316, -0.029150847346, 0.007389745209, -0.027298087254, 0.002417496638, 0.010045423172, -0.015509957448, 0.011014677584, -0.023682307452, -0.018768707290, -0.021631002426, 0.015595356934, -0.022871801630, 0.021214129403, -0.031001079828, 0.027586244047, 0.000225050288, -0.011497073807, 0.042368132621, -0.012857692316, 0.025594862178, -0.010000068694, -0.034771222621, 0.005263098516, -0.021489270031, -0.004276421852, -0.006948036142, 0.034078210592, 0.008316610940, 0.014410357922, -0.016105063260, -0.029107138515, 0.013557193801, -0.025278853253, 0.009314415045, 0.002943728352, 0.032167699188, -0.021577009931, -0.035313867033, -0.032020818442, 0.009910570458, -0.022371971980, -0.020224599168, 0.001254259259, 0.042709760368, 0.001239037490, 0.030010582879, 0.002385652857, 0.023066960275, -0.051523704082, 0.019187612459, -0.035764936358, 0.014252358116, -0.018251594156, 0.010489695705, 0.015329163522, 0.018214141950, -0.085058718920, 0.011665886268, 0.015477412380, -0.034681774676, -0.016997756436, 0.015801249072, -0.066373132169, -0.047286141664, 0.033572509885, 0.025180310011, -0.012660444714, -0.014028810896, 0.071932382882, -0.034323979169, 0.048279870301, -0.013041023165, -0.076319366693, 0.012685967609, -0.013874882832, -0.008544974029, -0.013525588438, -0.050679113716, 0.032852128148, 0.000227255849, 0.034883815795, -0.025322958827, -0.015283846296, 0.009730326012, -0.082984052598, -0.017891896889, -0.079340659082, 0.013315079734, 0.023427473381, 0.062291517854, -0.026089929044, -0.031008645892, -0.054418899119, -0.043466117233, -0.020135154948, 0.009355230257, -0.032871127129, -0.002674102550, -0.035428892821, 0.019925393164, 0.028272485361, -0.007877875119, -0.093391478062, 0.021811235696, -0.006338244770, -0.005034207366, 0.020381046459, -0.017502652481, -0.004823927768, 0.026722216979, -0.000256230240, 0.055611107498, -0.049442905933, -0.006148429122, -0.022066857666, -0.034319743514, 0.008614019491, -0.004664286505, -0.028280725703, 0.013550147414, 0.019615467638, 0.019214011729, -0.002075653290, -0.012120153755, -0.029102776200, -0.007129861042, 0.002375787590, 0.017955441028, -0.001981314970, 0.009735870175, -0.024015657604, 0.023772599176, 0.001497403951, 0.023890431970, -0.017879895866, 0.003746335162, -0.001189325354, -0.007226219866, -0.020167447627, 0.039811182767, 0.016914367676, -0.037864468992, -0.027933152393, 0.012973134406, 0.004970898852, -0.026171224192, -0.022873969749, 0.021818058565, -0.007294241339, -0.015751564875, 0.005486729089, 0.014359922148, 0.007418609224, -0.010284405202, 0.008263463154, -0.004980175756, -0.004757274874, 0.001089914469, 0.021164003760, 0.020694222301, 0.014214585535, 0.001343279728, -0.005386977457, 0.010523335077, 0.005855925847, -0.003760336200, 0.017622534186, -0.018757818267, 0.015975262970, -0.010402572341, 0.014082940295, -0.008686831221, -0.011259682477, 0.004091126844, 0.004294132814, 0.004797487054, 0.011436773464, 0.021536059678, -0.012376538478, 0.012748636305, 0.018294610083, 0.003179422580, -0.019337009639, 0.000288143550, 0.047683604062, 0.000288804673, -0.006187533960, -0.034608259797, -0.029558159411, 0.015409050509, -0.011119308881, 0.002322475426, 0.002641411731, -0.026189722121, 0.001852891059, 0.024227740243, 0.005092283245, 0.003449841402, -0.015372872353, -0.002196700778, 0.009551264346, 0.021344983950, 0.020423134789, 0.001442156383, 0.011133169755, 0.000627779576, -0.031721848994, 0.002776179696, 0.007740760222, -0.021923003718, -0.021818531677, -0.005390353035, 0.031805083156, -0.010786360130, 0.010644261725, 0.008882712573, 0.004752911627, -0.016666745767, 0.008510707878, 0.013579459861, 0.001623952063, -0.010777152143, 0.005909814965, -0.000688494416, 0.014653434977, 0.021662481129, 0.002024007495, 0.039441924542, 0.000413218339, -0.015375110321, 0.007264852058, -0.012430191040, 0.005537060555, 0.008288521320, -0.006112802774, 0.025078481063, -0.000605941867, -0.019512958825, 0.010641400702, -0.003574168077, 0.018730372190, -0.009340084158, -0.015598305501, -0.005652409047, 0.002011027886, -0.012462358922, -0.007545702625, 0.014659177512, -0.009435809217, -0.006151488982, 0.001150377095, 0.014823723584, 0.019561689347, -0.024883393198, -0.006802007556, -0.008017984219, -0.012765676714, 0.002970227739, 0.003298801603, 0.003141567344, 0.017530141398, -0.001139436965, -0.021779818460, 0.005349566694, 0.000190880615, -0.011003956199, 0.007044699043, 0.003134950995, 0.018629020080, -0.012290025130, 0.005891141016, 0.017615467310, -0.019070914015, 0.000471191888, 0.000095331408, 0.036754332483, 0.013916854747, -0.002131207846, -0.002172948094, 0.006400022656, 0.001818309538, -0.024170082062, 0.004108271562, -0.001840747776, 0.004884300753, -0.016615649685, 0.001952623017, -0.008418832906, 0.015529311262, -0.006445143372, -0.002635474782, -0.007434326224, 0.004449803848, 0.011986471713, -0.021749991924, -0.032209649682, -0.004683646839, 0.011311059818, -0.013859179802, 0.010457047261, -0.012847328559, -0.026047868654, -0.007346105296, -0.008327101357, 0.002060759347, -0.010825133882, 0.005417160690, -0.011509466916, 0.028477359563, 0.008696362376, 0.000324460852, -0.030375126749, 0.007580612786, -0.002933136187, -0.002402154729, -0.005259493832, 0.010800623335, 0.011042233557, -0.003302365774, -0.016265565529, 0.024740962312, 0.012708127499, -0.001512713730, 0.027060616761, -0.010298990645, -0.013054251671, -0.003590652253, -0.000875738217, 0.018252089620, 0.000470830215, 0.016361922026, 0.006011857186, 0.013366063125, -0.001909743180, -0.025420716032, 0.023020856082, -0.023790635169, -0.017258821055, 0.004819889087, -0.007934336551, 0.009266120382, -0.003109724494, -0.007201591041, -0.001428221585, 0.025402475148, -0.009844467044, 0.020589400083, -0.010749579407, -0.004600951448, 0.013550394215, 0.027634261176, 0.019736811519, 0.027320144698, -0.009606440552, 0.019468948245, 0.029186649248, -0.007785159163, 0.019806932658, -0.009167607874, -0.005406721961, 0.015018455684, -0.011885257438, 0.002768458333, -0.001690089121, 0.040464650840, -0.006041618064, 0.018015693873, 0.014828145504, 0.006729820278, 0.021096477285, 0.018541408703, -0.001326208701, 0.002559828805, 0.031094769016, 0.020031021908, -0.011453521438, 0.031475167722, -0.008247701451, 0.007635332178, -0.003583801212, 0.008901759982, 0.008377893828, 0.007998482324, 0.023611862212, 0.017046231776, 0.007831978612, 0.003296200419, 0.026371547952, -0.007848326117, 0.013048296794, -0.006536735222, 0.026814466342, 0.009235240519, 0.027525393292, 0.016472334042, 0.012808138505, 0.016293328255, -0.013276012614, -0.004730161745, 0.018418172374, -0.003460275475, 0.009929388762, 0.003756380873, 0.011786081828, 0.030443305150, -0.005586814601, 0.029459578916, 0.012532140128, 0.023129954934, -0.010015269741, 0.018588718027, -0.022402264178, 0.012829039246, -0.005458721891, 0.024617025629, 0.037526853383, 0.029677921906, -0.014611890540, 0.041427958757, 0.056895125657, -0.033523302525, 0.015335575677, 0.019797658548, -0.004512878601, 0.010662879795, -0.002162913093, 0.014231088571, 0.021986601874, 0.007533459459, 0.019154679030, 0.022658584639, 0.011459280737, 0.022455895320, 0.031862039119, -0.002867726376, 0.025547895581, -0.027451483533, 0.017855660990, 0.003359176219, 0.035805501044, 0.022761438042, -0.021355979145, 0.019674882293, 0.003300335025, 0.017637839541, -0.032105606049, 0.029317514971, 0.027972705662, 0.001576867187, 0.006525661331, -0.014404641464, -0.001469132607, -0.001848848304, -0.000839535496, -0.019936429337, 0.001404436072, 0.008476039395, -0.000260024972, -0.010522691533, -0.002186345868, 0.038572605699, 0.002403816441, -0.008484775200, 0.008948818780, -0.040047410876, 0.021291617304, 0.004649727140, 0.020414544269, 0.025902371854, 0.003384441137, -0.005651442800, 0.028910204768, -0.002507818863, -0.005196896382, -0.000824605231, -0.000485556433, 0.032161645591, -0.017410976812, 0.018071163446, 0.021312685683, -0.015470197424, -0.023955978453, 0.007923108526, 0.018471753225, -0.001427203650, 0.013606815599, 0.010744141415, 0.007893050089, 0.002856555395, 0.036898933351, 0.007243123837, 0.003481704975, 0.003331668908, -0.015812242404, 0.006975235417, 0.000055419816, 0.012206301093, 0.006532385014, -0.021219069138, 0.002782756928, 0.018518658355, 0.006446942687, -0.000362320512, -0.011613385752, -0.034408301115, -0.031921222806, -0.001846730127, -0.006735516712, 0.008225344121, 0.001404884155, 0.013734631240, 0.000897949329, -0.033352952451, -0.004311207682, 0.004428207409, -0.017283650115, -0.011062521487, -0.022181496024, 0.006017214153, -0.004492843058, -0.018683422357, -0.010622676462, -0.016844831407, -0.009691720828, 0.001526983106, -0.016184017062, 0.007194980513, -0.015436324291, -0.004637597594, -0.009617064148, 0.018873279914, 0.018010048196, 0.024868536741, -0.018132705241, -0.022694177926, 0.021146019921, -0.012956846505, -0.013604643755, -0.012650076300, 0.004501416348, 0.011837851256, 0.040700167418, 0.008790710010, -0.026018537581, -0.003962040879, 0.000551150355, -0.015218495391, -0.007080373354, -0.002755125053, -0.023108208552, -0.014366542920, 0.000465824472, 0.017698539421, -0.014868771657, -0.012598678470, 0.000705179526, -0.000590446987, -0.008799564093, -0.011087481864, -0.003583721118, 0.001077238587, 0.013834824786, 0.015099560842, -0.016118500382, 0.016826359555, 0.009275724180, 0.004573090933, -0.042521249503, -0.003829764668, -0.007392243017, 0.002410865389, 0.028344547376, -0.042559016496, -0.002134729177, 0.023612068966, -0.001742213848, 0.002118235454, 0.008847352117, -0.008327173069, 0.007787728682, 0.009313756600, -0.028066575527, -0.003827146254, 0.030990714207, -0.006393655669, -0.000285865244, -0.017838122323, -0.007500367239, 0.014845044352, 0.009017095901, -0.011537520215, 0.019313162193, 0.006753701717, -0.007403995376, -0.006324870978, -0.018578717485, -0.008424899541, -0.025372955948, -0.024018287659, -0.001789849601, 0.017802059650, 0.005638143513, -0.020484447479, 0.008241797797, -0.026042880490, -0.001244859654, -0.006465265062, 0.026305794716, -0.016709439456, -0.010442261584, 0.004861560650, 0.012919412926, -0.042508557439, -0.031299382448, -0.007836691104, -0.002331485972, 0.008408709429, 0.001975442981, -0.010016689077, -0.003729053540, -0.015459480695, -0.009398041293, -0.003129941877, -0.001536250114, -0.001846229075, -0.029108764604, -0.023086329922, -0.001409084420, -0.013626248576, 0.009157733992, 0.000555463834, -0.037965312600, 0.001457566395, -0.021071102470, -0.009202798828, -0.018519368023, -0.011333219707, -0.035105455667, 0.024167217314, 0.009283412248, -0.000254620012, 0.005394306965, -0.005264766514, -0.002178096212, -0.005884881597, -0.031627982855, 0.003358525923, 0.011956471018, 0.005077066366, -0.015637889504, 0.009682928212, -0.019564371556, -0.009102733806, 0.016568241641, 0.005026882980, 0.026509322226, -0.019577173516, 0.005457962397, -0.007230584975, -0.006901387125, -0.003794816788, -0.018851537257, -0.009591322392, -0.010166905820, 0.000813437975, -0.003052423010, 0.004038083833, -0.029424864799, -0.005045430735, -0.003876677481, -0.017420252785, -0.009106271900, 0.020614307374, -0.013591684401, 0.016962407157, 0.027954421937, -0.016780398786, 0.027855107561, -0.012186532840, 0.005443980452, -0.007967648096, 0.000393004419, -0.000065653076, -0.026752900332, 0.000830614881, -0.014891873114, -0.019786335528, 0.011506191455, 0.012388503179, 0.001029763371, -0.021705787629, 0.004849484656, -0.024662686512, 0.003152192570, 0.007374243811, 0.027534523979, 0.002098489087, -0.014433936216, -0.011809467338, 0.008342648856, -0.008042630740, -0.019424289465, 0.006341163535, 0.014295997098, -0.021509433165, -0.007900588214, -0.013332024217, -0.003012201749, 0.007841330022, -0.010868938640, -0.005054887850, -0.014283862896, 0.023091766983, -0.008655668236, 0.005391771439, -0.004955451004, 0.000658470322, 0.004564177711, -0.010579023510, 0.001043032971, 0.003844965948, 0.001429207623, -0.025723893195, 0.007797050290, -0.016979051754, -0.026812680066, -0.000356292003, -0.004819825757, -0.006350713316, -0.021683285013, -0.003745927010, -0.002420026110, 0.001434152597, 0.006222591270, -0.009910960682, -0.006397579797, -0.003077392932, -0.010009773076, -0.010291382670, 0.010512815788, -0.000234240724, -0.005763590802, -0.006798243150, 0.009091165848, -0.013639186509, -0.000024033940, -0.010325724259, 0.008351091295, -0.001898817020, -0.008481796831, -0.002320610685, 0.003149546450, -0.000014505611, 0.002925274428, -0.023532638326, -0.000896503392, -0.019812896848, 0.005880936049, -0.010284855962, 0.014979768544, -0.010527224280, 0.007402986754, -0.001679452253, -0.007267915644, -0.013771416619, -0.003844351508, -0.021933650598, 0.010825570673, -0.011300933547, -0.010065129958, -0.001297876588, -0.005593058653, -0.005376894493, -0.002841709414, 0.010612749495, 0.003195319092, -0.011412101798, 0.006229755469, 0.002674676944, -0.008226949722, 0.005489773117, -0.004416126292, -0.017475407571, -0.014949387871, -0.011542425491, -0.009746471420, 0.002648064401, 0.010980984196, -0.011074431241, -0.004951646551, -0.010183358565, 0.000034835630, -0.000712192967, 0.002464014338, -0.010300883092, -0.011338286102, 0.007771586068, 0.018032701686, -0.006312179379, -0.020846845582, -0.004090513568, -0.003444432048, 0.008790936321, -0.001078865840, 0.006978407502, -0.023814821616, -0.016828017309, 0.008672211319, -0.007012414746, 0.018915811554, -0.015515472740, 0.017117198557, -0.007272797637, 0.010099150240, -0.001139627071, -0.003272113623, -0.014815329574, -0.006435109302, -0.015487263910, 0.006625974085, 0.014496536925, -0.020678736269, -0.006440258119, 0.009845373221, 0.005421613343, -0.004878051579, 0.002066559158, -0.002808447229, 0.022324057296, -0.023683056235, 0.008256196044, -0.005823981483, 0.000401696889, -0.005488620605, -0.001063700183, -0.001624280005, -0.010451668873, 0.004849174526, -0.001292885747, -0.001549483975, -0.013999171555, 0.011106743477, -0.005969407503, -0.018401805311, -0.013762534596, -0.028732301667, 0.003033369780, -0.006918856408, -0.004445814528, -0.012252169661, -0.004152865149, 0.003860391211, -0.001694090781, -0.004043039866, -0.013496208005, 0.010880056769, -0.006572721060, 0.000054644996, -0.006077541038, -0.008288295008, -0.015154977329, -0.001147077186, -0.001015164074, 0.001063979580, 0.000455800939, -0.008178357966, 0.003315440146, 0.008750353009, -0.011256369762, -0.006828777026, -0.002494537504, 0.003029440762, -0.011634280905, 0.006141819060, -0.014953467995, 0.008427233435, -0.000839471526, -0.020516602322, 0.007743132766, -0.008273884654, 0.003015549155, -0.008907378651, -0.008607936092, -0.004167584702, 0.003737233113, -0.003152595600, -0.001925413148, 0.016484636813, -0.008560664952, -0.005276238546, -0.008423356339, -0.008849297650, 0.007570186630, -0.008344925940, -0.009206037037, -0.013326926157, 0.001389160519, -0.019898518920, -0.008682264015, -0.011483689770, -0.011779274791, -0.003654418048, -0.010916544124, -0.001072808751, 0.009168779477, -0.000566461938, 0.004377685953, -0.015167039819, -0.000347252091, -0.004198815674, -0.007653596811, -0.001113381237, -0.001047218917, -0.001219081576, 0.011106706224, 0.016097225249, -0.005507801659, -0.015284472145, -0.004892066121, -0.001527222339, -0.005708475132, -0.012314028107, -0.003369104816, -0.008266463876, -0.002605342772, -0.022042781115, 0.015642289072, 0.007533344906, -0.010120011866, -0.017264468595, -0.011499288492, -0.003834312316, 0.008551640436, 0.003631147090, -0.015222187154, 0.001408741460, 0.011318346485, 0.000459816190, -0.009203725494, -0.000447924453, 0.009423565120, -0.013247764669, 0.002632902935, -0.006852487102, -0.010208578780, 0.007568871137, 0.000319562183, -0.007710403297, -0.002514165360, -0.006068603136, -0.010529730469, -0.005380960181, 0.005508666392, 0.005608826410, 0.000024298568, -0.017886098474, 0.004783258773, -0.011943945661, -0.004553386942, 0.007059519179, -0.009114122018, 0.003004608443, -0.010013689287, -0.001015302958, -0.002417156706, -0.016826853156, 0.001918841852, 0.012483321130, 0.027267592028, -0.004719037097, -0.013472368009, -0.000271825673, 0.003765995149, -0.021613184363, -0.021720964462, 0.004772828892, -0.001504685730, -0.004927402362, -0.009844230488, -0.020649097860, -0.011433350854, -0.013568204828, -0.005964187905, -0.013284994289, -0.011293005198, -0.010436850600, -0.009743162431, -0.009458007291, 0.001817819197, -0.021256877109, 0.029208159074, 0.005105373450, -0.012506389059, -0.011092923582, -0.019301332533, -0.002091053873, 0.012475839816, 0.003370603081, -0.002281490946, 0.006967506371, 0.002606122755, 0.005405274685, -0.011965074576, 0.013756715693, -0.025308918208, -0.013201023452, 0.002714804141, 0.003445975715, 0.005350646097, 0.004288646393, 0.008126698434, -0.016930757090, 0.016262777150, 0.013791205361, -0.025432316586, -0.028106665239, 0.003716705600, -0.012911021709, -0.018249560148, -0.014918378554, -0.001651815372, -0.012496549636, 0.013718056493, -0.002272836631, 0.012926941738, -0.028505224735, -0.011130871251, -0.014997440390, 0.007570877206, 0.000662913313, -0.011944822036, 0.006884363014, 0.010499383323, -0.006215734873, -0.011575824581, 0.002340361010, 0.017726752907, -0.004526450764, -0.016503538936, 0.019097704440, -0.007525812369, 0.005541699007, -0.004290005658, 0.008059548214, -0.001666966127, -0.021225180477, -0.005623215344, 0.010131854564, 0.000262524612, -0.024687532336, 0.012805862352, -0.007974414155, -0.007161573041, -0.017249293625, 0.035263959318, 0.005926298443, 0.004193585832, -0.027668263763, -0.014003690332, -0.009060440585, 0.008657866158, 0.029735619202, -0.004984614905, 0.010137422942, 0.001165723428, 0.004055168945, -0.004709316883, 0.007187262177, -0.005163988564, -0.017007101327, -0.016809022054, -0.025287320837, -0.000970414956, 0.009518967941, 0.006791071501, -0.013875973411, -0.006456703413, 0.014115793630, -0.014097605832, -0.006357945502, -0.005571511574, -0.006879587192, -0.008503627963, -0.005201808177, 0.009728829376, -0.005385449622, 0.014024212956, 0.000508768309, 0.000717738294, -0.008547221310, -0.001892765169, 0.013010917231, 0.002853428479, -0.024371493608, -0.004011494573, 0.007311346475, 0.004595892504, 0.002690825146, 0.001540174941, -0.003578344127, 0.012816373259, -0.008359321393, -0.005246865097, -0.001597865135, -0.011134988628, -0.011629391462, -0.013456784189, -0.002224063734, 0.008879382163, -0.001699473243, -0.004133494105, 0.006620695814, 0.002104530344, -0.012395726517, 0.012004881166, 0.005863788538, 0.019587047398, -0.012964374386, -0.000355263095, 0.011480880901, 0.005859344266, -0.000833053840, 0.015064036474, -0.001159031992, -0.019778029993, 0.015921834856, 0.002046833048, 0.005465734284, 0.007871468551, -0.025431826711, -0.013780004345, 0.011345906183, 0.019921874627, 0.006427828223, -0.005783761851, 0.003971044440, 0.015718333423, -0.004106514156, 0.002174183493, -0.015552742407, -0.015838822350, 0.011226960458, 0.004775989801, 0.012467158027, -0.004078410566, 0.008546883240, -0.012976124883, -0.001225684537, -0.007696664426, 0.000804829353, -0.000847329502, -0.015973288566, 0.006705638021, -0.005865322892, -0.000600163126, -0.013178744353, -0.004900366534, -0.007717585191, -0.012460753322, 0.008998259902, -0.005137139000, -0.018234441057, -0.015016256832, -0.019786180928, 0.015915492550, -0.026880664751, -0.002065282082, 0.001093494240, -0.005158204585, -0.019348513335, -0.004034114536, -0.030168034136, 0.004459169693, -0.007656338625, -0.007292508613, -0.005116958637, -0.006995919626, 0.006161975674, -0.009368969128, 0.000788126141, 0.014376844279, -0.027474030852, 0.015612544492, -0.004937129095, 0.004300071392, -0.010416928679, -0.030957937241, -0.001690493664, -0.001598092145, 0.025451909751, -0.010730178095, 0.003509434871, -0.023753819987, 0.004073025193, -0.014499682933, -0.014651402831, 0.000124896818, -0.000559010485, -0.007920280099, 0.009649941698, -0.007649105042, -0.011456488632, -0.022329045460, -0.028032124043, -0.006392881274, -0.008886045776, -0.013626114465, -0.018223375082, -0.009428602643, -0.003190350486, 0.002192969900, -0.029186150059, -0.012070777826, -0.017349790782, 0.003874264657, 0.011384861544, -0.005632723682, -0.006799608469, -0.018644843251, -0.004097564146, -0.012134250253, 0.004581692629, -0.016330320388, -0.009246694855, -0.015340433456, -0.004852676298, -0.009604245424, -0.013472074643, -0.002733853646, -0.001314922585, -0.006079098675, 0.012266893871, -0.008745903149, -0.007054515183, -0.008308829740, 0.010678878054, -0.004171779379, -0.013995879330, -0.000566932140, 0.014674440026, -0.012935594656, -0.019891016185, 0.000904261076, -0.000222832605, -0.004114883952, -0.006482005585, 0.001743515255, 0.003094498068, -0.004842596594, -0.029020320624, -0.024783382192, -0.016069740057, 0.012047681026, 0.012947644107, 0.000191369676, -0.014166039415, -0.008243130520, -0.018625454977, -0.027661915869, 0.000027485190, 0.000605458685, -0.009782165289, -0.012240265496, -0.023005222902, -0.010375535116, -0.004193794448, -0.007177731954, 0.002181543270, -0.007386325859, 0.010574910790, -0.001975239255, -0.005759474821, -0.001748069655, -0.059846796095, 0.008614243940, 0.030485386029, 0.002529244404, -0.019336609170, 0.017406210303, -0.077820725739, 0.023464007303, -0.043107319623, -0.064992092550, 0.050457112491, 0.023279361427, -0.067084439099, -0.042206153274, 0.001278294832, -0.049428235739, -0.038416992873, 0.025241704658, -0.094671517611, 0.043278001249, 0.019909048453, 0.027252301574, -0.035880059004, -0.002706759144, -0.005872301292, -0.028557470068, -0.001653711661, -0.002007536823, -0.031099749729, 0.007613098715, 0.033597882837, -0.008347019553, -0.035714771599, -0.005860572215, 0.015526036732, -0.002413106849, -0.026880986989, 0.013839567080, 0.000404004939, 0.067545451224, -0.007655183319, 0.006577168126, 0.031594101340, -0.028361443430, 0.004562612157, 0.013476682827, -0.028420219198, 0.020058248192, 0.008735608310, 0.018672805279, -0.037182863802, 0.012857400812, -0.042111176997, -0.001418980304, -0.041914954782, 0.023096695542, -0.010907778516, 0.018725296482, -0.014431753196, -0.006382254884, 0.004527043086, 0.021312048659, -0.125591382384, -0.032856971025, -0.059954661876, 0.014917649329, -0.027761019766, 0.032506965101, 0.018245663494, -0.005306512117, -0.084039069712, -0.016007073224, -0.054389767349, -0.021323354915, 0.004941666964, -0.073204934597, -0.012962223031, -0.043210573494, -0.027747331187, -0.084210149944, 0.013214159757, 0.064300373197, -0.072741672397, -0.024923121557, 0.008176572621, -0.039361279458, 0.050108242780, -0.045111037791, -0.055960044265, -0.048165921122, 0.030949182808, -0.030131265521, -0.037651114166, 0.001608652645, 0.043448839337, 0.008600040339, -0.033887252212, -0.036830693483, -0.003736997023, -0.048665292561, -0.039889134467, -0.008201807737, 0.018031919375, 0.079977102578, -0.011439917609, 0.073890157044, -0.018633645028, 0.090701259673, 0.031697988510, -0.050927955657, -0.013404852711, 0.002577268519, -0.092891655862, -0.026157341897, -0.045947000384, 0.030076587573, -0.013662941754, -0.047508805990, 0.004832870793, 0.076580077410, 0.000882529188, -0.017127020285, 0.045006062835, 0.061237838119, 0.031940415502, -0.030359311029, -0.033598653972, 0.008540777490, -0.022096376866, 0.025455463678, -0.032091427594, 0.035654470325, 0.007151101250, 0.058371737599, 0.001381467097, -0.019688783213, -0.013930291869, -0.014046208002, 0.065423898399, 0.024836093187, 0.001844649320, -0.008384327404, 0.009729117155, 0.051227152348, 0.000608715869, 0.023258369416, -0.026769321412, -0.009676275775, -0.004554676823, -0.066879712045, -0.054335352033, -0.036083512008, -0.000441257667, -0.041875146329, 0.046190124005, 0.010235824622, 0.006105890498, 0.031308103353, 0.009872734547, 0.013217933476, -0.039409521967, 0.017734181136, 0.025567758828, 0.059615183622, -0.007760566194, -0.030518712476, -0.016340600327, 0.000274954713, -0.018855247647, 0.019007166848, 0.002010496799, -0.024940695614, -0.019556490704, -0.051954198629, 0.019152784720, 0.075612023473, -0.014872765169, 0.021210735664, -0.052935492247, 0.073173731565, 0.008659827523, -0.005124950781, 0.040174540132, 0.019601173699, 0.038223288953, 0.045102667063, 0.025768017396, -0.000688793894, -0.001080722548, -0.031168963760, 0.008017450571, 0.056011635810, -0.045039869845, 0.008654367179, 0.018050417304, -0.021374583244, -0.041183557361, -0.052407342941, 0.093154728413, 0.016000723466, 0.019279368222, -0.054096214473, 0.019221255556, -0.056166287512, 0.025079155341, -0.001916519599, -0.011079083197, 0.052407462150, 0.018935753033, -0.024491716176, -0.055597145110, -0.036098923534, 0.046988558024, -0.036243837327, -0.006142633967, -0.013098257594, 0.047641754150, 0.017172614112, -0.030559252948, -0.040652871132, -0.002437856980, 0.024066761136, -0.050156105310, -0.041699592024, 0.010588050820, -0.036326523870, 0.050417728722, -0.024894708768, 0.011420099065, -0.009124040604, 0.011485368945, -0.045041631907, 0.010267124511, -0.033554971218, -0.038077004254, -0.029128503054, -0.019108517095, -0.007046769839, -0.020315401256, 0.032706413418, -0.009129814804, 0.019705768675, 0.026710573584, 0.019017590210, -0.030536072329, -0.020140239969, -0.010677832179, 0.005855473690, -0.027050210163, -0.001269097440, -0.052610881627, -0.012929543853, -0.009138581343, 0.006551533472, 0.057047668844, 0.021875863895, -0.043057419360, 0.068578109145, -0.002537524095, -0.011521236040, 0.013819237240, -0.028713524342, 0.068258792162, 0.029552934691, -0.033765900880, 0.007451051380, -0.015903424472, -0.011389989406, 0.051963638514, 0.016175841913, 0.012640311383, 0.053238470107, 0.022756045684, 0.034928031266, -0.034968193620, -0.030245337635, 0.013635913841, -0.036349672824, -0.040126740932, -0.008274462074, 0.027580846101, -0.011323034763, -0.030721521005, 0.039918795228, 0.032882522792, 0.006150037516, -0.021134911105, 0.000062348896, -0.022368434817, -0.071154534817, 0.037084721029, -0.002137460513, -0.022748900577, -0.020514510572, 0.051010783762, -0.072673641145, -0.007539523765, 0.012189627625, 0.016033692285, 0.012693456374, -0.002423336031, 0.081849023700, 0.006252141204, -0.008581025526, -0.029322441667, 0.004324732814, 0.014470023103, -0.037580177188, -0.009362122044, -0.029702339321, -0.003874654882, -0.024008905515, -0.009796578437, -0.026016993448, -0.010420159437, 0.043168313801, -0.018476340920, -0.067559473217, 0.003497385886, 0.009782739915, 0.016935391352, 0.039579853415, 0.001848052721, -0.033522497863, 0.030102984980, -0.054981812835, -0.049572300166, -0.005860979669, -0.002208065474, 0.024938497692, -0.031642593443, 0.015972996131, 0.013977349736, 0.008092049509, -0.022335674614, -0.004342922475, -0.032320071012, -0.020345276222, 0.021319059655, -0.000523780938, -0.010240871459, -0.037528909743, -0.008464267477, 0.026429027319, -0.041236970574, 0.053851678967, -0.030780697241, -0.017982052639, -0.037842195481, 0.020790629089, -0.043363280594, 0.007009420544, 0.039311386645, -0.017780678347, 0.045520573854, -0.034190595150, 0.033596780151, -0.012592190877, -0.025066001341, -0.044602729380, 0.026302706450, 0.005363304634, 0.012101181783, -0.026276107877, -0.064666964114, 0.029511814937, -0.007400255185, -0.073528818786, 0.013670927845, 0.050538785756, -0.022089615464, -0.050625570118, 0.052476476878, 0.065501101315, 0.027110906318, -0.015619764104, -0.003839283483, 0.003765734611, -0.009645020589, 0.019719267264, -0.005801811814, 0.008729303256, 0.000349241251, 0.037492964417, -0.001138032298, -0.018307019025, 0.056467872113, 0.021708466113, 0.015528365970, 0.028823375702, -0.068761155009, -0.037857208401, 0.047766156495, -0.001423187903, -0.061837505549, 0.021035563201, -0.111555680633, 0.029081514105, 0.023038100451, 0.068480961025, -0.019431797788, -0.051765844226, 0.005645437166, 0.007828205824, 0.023671947420, 0.013182879426, 0.012963135727, 0.037338398397, 0.015990898013, -0.048290207982, -0.009732964449, -0.000552601879, -0.017619913444, -0.014276979491, -0.070740230381, 0.002675005235, -0.023047836497, -0.014607534744, -0.000171325810, 0.007681665011, -0.005103373900, -0.020800355822, 0.043758455664, 0.031529229134, -0.014538468793, -0.028955388814, -0.031960718334, 0.065575748682, -0.020343797281, -0.033533308655, 0.039553944021, 0.019830094650, 0.035502333194, 0.003901349148, 0.012101253495, -0.047698400915, 0.038934513927, 0.043171599507, 0.007929281332, -0.029628595337, -0.014805810526, -0.086045011878, 0.031976919621, 0.007619408425, 0.021906586364, 0.050653956831, -0.032191172242, 0.025231162086, -0.014140704647, -0.005034554284, 0.011556483805, -0.012489544228, -0.023222249001, -0.020339230075, 0.008036827669, 0.003749760333, -0.009388964623, -0.042617902160, -0.022011863068, 0.017518678680, -0.030203867704, 0.038828641176, 0.021888328716, 0.024247005582, -0.019670205191, -0.038845200092, -0.080007247627, 0.029298344627, 0.019688228145, 0.000138456337, -0.015294268727, 0.028744190931, 0.008196205832, -0.058737155050, -0.068386062980, -0.034904867411, 0.016110535711, 0.028106464073, -0.012533897534, 0.024794917554, -0.072593323886, -0.016645494848, -0.046427588910, 0.021145915613, 0.009446900338, 0.026232732460, 0.014766248874, -0.008758284152, 0.017990225926, 0.003852195572, -0.030377777293, 0.031386915594, 0.029680104926, -0.016689894721, -0.018452210352, -0.029117336497, 0.024880437180, -0.034481555223, 0.017461521551, 0.017166391015, 0.000946354063, 0.039464090019, 0.011099645868, -0.013551833108, -0.024036590010, -0.021659499034, 0.031379107386, 0.078165963292, -0.024645848200, -0.017545284703, 0.112279638648, 0.025582695380, 0.056620705873, -0.071468226612, 0.059411022812, -0.002304193098, 0.008716255426, 0.037794534117, 0.100135594606, 0.027308283374, 0.004788311198, 0.015486171469, 0.000691199908, 0.014539606869, -0.051971878856, 0.013393926434, 0.025528067723, 0.029501101002, 0.018144551665, -0.040801145136, 0.069623455405, 0.033237900585, -0.004697551485, 0.066022366285, -0.014289427549, 0.046515353024, 0.054680544883, 0.018213706091, -0.012339087203, 0.042944673449, -0.028210749850, 0.065698377788, 0.094974488020, 0.068654224277, 0.073328636587, 0.057684201747, -0.019826063886, 0.030972464010, 0.044109232724, 0.012767850421, -0.015645332634, 0.006227862090, -0.005840881728, 0.015902111307, 0.020316705108, -0.031515453011, -0.021168697625, 0.048345185816, 0.026702350006, -0.005026881583, -0.034498251975, 0.009284080938, 0.053933538496, -0.003038616851, -0.004657447804, 0.095452703536, 0.018022323027, 0.030802818015, -0.014770326205, -0.042968157679, -0.020542131737, -0.031883087009, -0.032479032874, 0.016403626651, -0.024553600699, -0.021329963580, 0.058280594647, -0.031881857663, -0.031311098486, 0.032436721027, 0.008429425769, -0.010554279201, 0.000941868580, -0.013161789626, -0.007544091903, -0.035612471402, 0.042148921639, -0.022898964584, 0.062696337700, 0.000668375171, 0.003549526213, -0.078073672950, 0.011060779914, 0.032800968736, 0.011183924042, -0.056205883622, -0.114205747843, -0.073594063520, 0.043753389269, 0.043842550367, 0.022669229656, -0.016708588228, 0.054468721151, 0.011667870916, -0.000595638645, -0.025191938505, 0.004421252292, -0.005876834504, -0.047106891870, 0.024545991793, 0.021142086014, 0.012530431151, -0.044463839382, 0.009853556752, 0.034556493163, 0.043883398175, 0.004901716486, 0.030404144898, -0.013845142908, -0.014342927374, -0.031098181382, 0.097676314414, -0.062984935939, 0.067331179976, 0.007226597518, 0.018579892814, 0.121386632323, -0.004704711959, 0.042577549815, 0.008145001717, 0.022920969874, 0.044965315610, 0.050231270492, -0.019798282534, -0.028338983655, -0.025012053549, 0.020570317283, -0.032592892647, 0.086750820279, 0.037555824965, -0.015669383109, 0.030034098774, 0.012999632396, -0.009748565033, -0.011079421267, -0.012541857548, 0.042263545096, -0.031099677086, -0.003070050152, 0.009589904919, -0.062673754990, 0.048634056002, 0.024129660800, 0.001789004542, -0.030420271680, -0.003102438990, -0.009439772926, -0.029220214114, -0.016683595255, 0.060410026461, 0.025350186974, -0.051528017968, 0.001757618622, 0.014422843233, -0.068429656327, 0.017050368711, 0.022777697071, -0.010891371407, 0.052346739918, 0.001872200053, 0.002125451341, -0.024831956252, 0.037430446595, 0.022961532697, -0.021656319499, 0.001773808966, -0.026028143242, -0.034476701170, -0.005710897502, -0.005174595397, 0.008710520342, -0.039548553526, 0.012251280248, -0.028828294948, -0.000119973411, -0.014739261940, -0.006839254871, -0.014617343433, 0.054050363600, 0.009715479799, 0.024501105770, 0.005504039582, -0.010027611628, -0.064024627209, -0.011820316315, 0.013661365956, -0.005499311723, 0.008654954843, -0.080673642457, -0.006380113773, -0.039557449520, -0.057065837085, 0.087926894426, 0.049502879381, -0.062838047743, 0.053762495518, -0.012379270047, -0.008192104287, 0.033534467220, 0.028235008940, 0.043305750936, -0.001181253581, 0.008349169977, -0.003766426118, -0.000125333507, 0.006494133268, 0.042358040810, -0.085921086371, 0.021902142093, -0.023259855807, 0.029566930607, 0.000026100095, -0.046217821538, -0.016248404980, -0.099627472460, -0.014326505363, 0.023079223931, -0.017270667478, -0.024107987061, -0.010349921882, 0.021762803197, 0.017358794808, 0.074540570378, -0.035113837570, -0.001910901396, -0.041833944619, 0.010298144072, -0.012885563076, -0.003114445368, 0.002207154874, -0.007480509579, 0.028290163726, -0.006830062717, -0.031543210149, -0.052445042878, -0.032088935375, -0.018593125045, 0.064477615058, 0.022474987432, -0.044924661517, -0.004828718957, -0.011502122506, 0.010630099103, 0.008651321754, -0.017719758675, -0.021795265377, 0.011057682335, -0.043987963349, 0.007474798709, 0.000177029797, 0.035392601043, 0.043500013649, 0.050523910671, -0.048095747828, -0.025202343240, -0.030594447628, -0.082000859082, 0.057509541512, -0.014934198000, -0.045579519123, -0.022871321067, 0.016319163144, -0.012705638073, 0.026954192668, -0.037376966327, 0.042194217443, -0.048661209643, -0.023712167516, -0.003788796719, -0.014385707676, 0.045265253633, -0.021596992388, 0.007433779538, -0.011660547927, 0.013384959660, -0.046424601227, 0.041254471987, 0.087499700487, -0.066923134029, -0.030360719189, 0.047856964171, -0.016621544957, -0.006505934987, -0.047229222953, -0.038062006235, -0.024661662057, -0.001761718420, -0.053675975651, 0.021767510101, -0.051843889058, 0.014583612792, -0.002873749239, -0.004340229556, -0.076174385846, -0.141027435660, 0.084271460772, 0.019257875159, 0.085658669472, -0.011456532404, -0.040090106428, 0.043773800135, -0.024087347090, 0.096159622073, 0.010702266358, -0.031773623079, -0.010464399122, -0.015403865837, -0.004546176177, -0.000032265089, -0.049917325377, -0.046707309783, -0.034334030002, -0.043050885201, 0.028597014025, -0.035882953554, 0.002728705993, -0.050364591181, 0.046371657401, -0.002979201963, -0.042594257742, 0.001370776561, -0.004024088848, 0.014195818454, -0.081538960338, -0.016104076058, -0.011925846338, -0.014447266236, 0.002081420971, -0.074424311519, -0.040062718093, -0.002206168137, -0.009256854653, -0.060473944992, -0.026369662955, -0.024214649573, 0.006255133078, 